tree
version=v4
num_class=1
num_tree_per_iteration=1
label_index=0
max_feature_idx=48
objective=regression
feature_names=Column_0 Column_1 Column_2 Column_3 Column_4 Column_5 Column_6 Column_7 Column_8 Column_9 Column_10 Column_11 Column_12 Column_13 Column_14 Column_15 Column_16 Column_17 Column_18 Column_19 Column_20 Column_21 Column_22 Column_23 Column_24 Column_25 Column_26 Column_27 Column_28 Column_29 Column_30 Column_31 Column_32 Column_33 Column_34 Column_35 Column_36 Column_37 Column_38 Column_39 Column_40 Column_41 Column_42 Column_43 Column_44 Column_45 Column_46 Column_47 Column_48
feature_infos=[0.10227946937084198:18379.77734375] [0.10000000149011612:38.799999237060547] [0:360] [0.0070980768650770187:179.9947509765625] [0:400] [0:100] [0:24.829999923706055] [0:23] [0:6] [0.0014492754125967622:70.199996948242188] [0.00038759689778089523:95.804039001464844] [0.00010183299309574068:85.501121520996094] [-65.970733642578125:29.762500762939453] [0.0002423348487354815:93.392807006835938] [0.0020000000949949026:23.899999618530273] [0.029999999329447746:18379.779296875] [0:1] [0:1] [0:1] [0:1] [0:1] [0:1] [0:1] [0:1] [0:1] [0:1] [0:1] [0:1] [0:1] [0:1] [0:1] [0:1] [0:1] [0:1] [0:1] [0:1] [0:1] [0:1] [0:1] [0:1] [0:1] [0:1] [0:1] [0:1] [0:1] [0:1] [0:1] [0:1] [0:1]
tree_sizes=7228 7775 7796 7805 7887 7848 7813 7802 7843 7810 7846 7821 7872 7858 7832 7789 7861 7781 7821 7865 7880 7851 7825 7864 7825 7860 7884 7841 7847 7881 7891 7866 7886 7822 7882 7869 7904 7811 7785 7796 7850 7913 7829 7795 7840 7826 7845 7850 7812 7769 7846 7883 7855 7904 7805 7864 7893 7834 7926 7872 7882 7869 7780 7903 7807 7777 7873 7823 7857 7834 7901 7852 7784 7863 7847 7837 7827 7843 7888 7856 7786 7718 7811 7842 7896 7871 7852 7874 7854 7878 7855 7866 7851 7844 7821 7801 7833 7826 7822 7822 7847 7837 7890 7819 7887 7769 7862 7859 7825 7860 7823 7798 7902 7832 7844 7857 7842 7851 7840 7890 7830 7885 7825 7834 7795 7848 7741 7846 7854 7851 7756 7852 7881 7848 7800 7881 7863 7801 7856 7797 7794 7841 7934 7811 7859 7781 7844 7827 7773 7832 7828 7820 7836 7855 7833 7837 7818 7827 7788 7862 7808 7846 7875 7846 7845 7854 7863 7822 7868 7920 7769 7867 7861 7877 7869 7814 7853 7888 7807 7768 7894 7871 7880 7914 7877 7847 7905 7864 7834 7932 7879 7921 7867 7850 7858 7859 7946 7921 7859 7885 7823 7789 7808 7811 7916 7871 7878 7829 7844 7856 7870 7872 7862 7860 7850 7879 7856 7860 7839 7773 7817 7884 7884 7781 7889 7912 7881 7889 7884 7878 7881 7909 7911 7888 7854 7879 7879 7921 7888 7877 7891 7836 7886 7910 7876 7872 7888 7943 7840 7818 7898 7917 7800 7843 7844 7872 7846 7845 7857 7860 7891 7899 7885 7830 7878 7852 7893 7883 7876 7904 7880 7855 7877 7919 7880 7885 7847 7873 7906 7869 7863 7894 7884 7971 7877 7882 7911 7854 7878 7961 7871 7932 7908 7877 7886 7946 7933 7909 7906 7851 7913 7945 7821 7913 7875 7930 7840 7885 7934 7842 7926 7862 7884 7875 7884 7959 8011 7939 7915 7928 7884 7950 7888 7820 7904 7844 7929 7864 7954 7817 7867 7817 7916 7838 7898 7945 7884 7880 7829 7827 7896 7985 7914 7850 7859 7953 7884 7942 7835 7918 7940 7926 7973 7885 7953 7899 7796 7873 7962 7919 7912 7882 7885 7940 7969 7891 7916 7861 7922 7914 7915 7925 7897 7931 7939 7933 7896 7984 7953 7953 7953 7959 7942 7936 7981 7871 7916 7888 7799 7882 7870 7976 7904 7897 7894 7906 7908 7856 7867 7924 7958 7923 7927 7928 7928 7954 7928 7988 8003 8013 7895 7983 7955 7949 7863 7920 7945 7845 7877 7969 7932 7955 7925 7988 7980 7893 7875 7984 7852 7895 7988 7933 7852 7897 7945 7964 7994 7927 7895 7996 7926 7979 8012 7970 7966 7969 7991 7868 7931 7920 8016 7906 7857 7906 7874 7950 7947 7941 7923 7892 7879 7989 7865 7904 7974 7916 7907 7894 7929 7967 7953 7948 7949 7895 7939 7911 7956 7936 7920 7881 7852 7891 7901 7956 7929 7914 7896 7935 7886 7921 7928 7952 7997 7918 7945 7980 7963 7994 7945 7987

Tree=0
num_leaves=88
num_cat=0
split_feature=8 7 8 8 7 7 4 7 7 8 6 7 4 6 4 8 7 0 8 0 3 9 30 4 0 11 46 4 2 14 11 0 4 4 7 8 2 14 1 9 0 0 7 14 10 46 4 4 1 1 6 14 6 0 2 7 4 10 9 2 10 1 0 10 0 10 11 7 6 4 9 1 0 0 11 9 4 0 10 2 2 2 7 0 2 14 11
split_gain=97.977 10.1284 9.43086 15.0516 20.0973 13.0562 5.63074 3.94311 3.91518 2.65277 2.61828 2.53485 2.48285 1.97275 1.84943 1.80616 1.54005 1.53463 1.35579 1.27176 1.29643 1.1188 1.03155 1.0276 1.03727 1.01622 0.963567 0.945504 0.900887 0.869046 1.1098 1.00873 0.872849 1.29598 0.90699 0.860956 0.851498 0.895239 0.846532 1.63598 0.845251 0.952306 0.840395 1.67647 0.816458 0.81158 0.80757 0.78401 0.882651 0.71554 0.904598 1.13256 0.71464 0.697454 0.736686 0.69516 0.694622 1.00346 0.690436 0.702564 1.02102 1.06294 1.53252 0.801184 0.687623 0.684267 0.671806 1.14876 0.669112 0.667411 0.696757 0.656236 0.65133 1.03564 0.645958 0.802933 1.44674 0.798315 0.726895 1.03152 0.755689 0.641009 0.620923 0.617382 0.723973 0.614574 0.771157
threshold=3.5000000000000004 22.500000000000004 2.5000000000000004 1.5000000000000002 13.500000000000002 22.500000000000004 46.500000000000007 22.500000000000004 1.5000000000000002 5.5000000000000009 6.4249999523162851 4.5000000000000009 68.500000000000014 6.6949999332427987 72.500000000000014 4.5000000000000009 1.5000000000000002 6301.7229003906259 5.5000000000000009 1178.7597656250002 50.010522842407234 15.416108131408693 1.0000000180025095e-35 193.50000000000003 12476.569335937502 7.7214167118072519 1.0000000180025095e-35 134.50000000000003 278.65000915527349 0.014500000048428776 16.377717971801761 3606.9143066406255 135.50000000000003 274.50000000000006 3.5000000000000004 4.5000000000000009 67.549999237060561 1.2245000004768374 6.4500000476837167 9.5061669349670428 4852.9323730468759 122.63780593872072 8.5000000000000018 3.429999947547913 1.8834313750267031 1.0000000180025095e-35 17.500000000000004 93.500000000000014 6.2500000000000009 6.6499998569488534 7.9849998950958261 1.0875000357627871 6.9649999141693124 635.76257324218761 50.850000381469734 19.500000000000004 85.500000000000014 4.2904207706451425 10.23911762237549 13.449999809265138 0.14052526652812961 8.2500000000000018 635.76257324218761 4.8137261867523202 5.5564422607421884 0.079549998044967665 9.2482857704162615 17.500000000000004 6.6649999618530282 122.50000000000001 2.5514705181121831 9.8499999046325701 31.056366920471195 71.765777587890639 2.2071348428726201 13.141666889190676 142.50000000000003 15.443639278411867 1.8191398382186892 165.75000000000003 234.05000305175784 38.45000076293946 14.500000000000002 5591.8366699218759 255.94999694824222 2.4020000696182255 7.7781014442443857
decision_type=2 2 2 2 2 2 2 2 2 2 2 2 2 2 2 2 2 2 2 2 2 2 2 2 2 2 2 2 2 2 2 2 2 2 2 2 2 2 2 2 2 2 2 2 2 2 2 2 2 2 2 2 2 2 2 2 2 2 2 2 2 2 2 2 2 2 2 2 2 2 2 2 2 2 2 2 2 2 2 2 2 2 2 2 2 2 2
left_child=2 6 3 7 -5 12 11 16 10 15 -4 18 38 22 -7 -3 27 47 -2 20 64 58 23 24 74 -12 35 -1 -24 -21 31 -31 34 65 -33 40 37 -14 -6 -40 41 -13 43 68 -16 -44 -18 48 56 50 -49 -52 -51 54 -48 -55 57 -15 59 -22 -61 -62 63 -63 -8 -34 69 -68 -36 -38 -71 -35 -37 -74 78 77 -77 -76 79 -10 -81 -79 -60 84 -67 86 -85
right_child=1 9 8 4 5 14 19 -9 13 -11 25 26 36 17 44 -17 46 -19 -20 29 21 -23 28 -25 -26 -27 -28 -29 -30 30 -32 32 33 71 42 72 66 -39 39 -41 -42 -43 45 -45 -46 -47 53 49 -50 52 51 -53 -54 55 -56 -57 -58 -59 82 60 61 62 -64 -65 -66 83 67 -69 -70 70 -72 -73 73 -75 75 76 -78 81 -80 80 -82 -83 -84 85 -86 -87 -88
leaf_value=4.7547086699960142 4.7643711246636107 4.7607236278512399 4.7323958613342345 4.7204214306640742 4.737381902566919 4.7212291593974305 4.7650282715955274 4.7556294751591821 4.7569335849643632 4.7543970592087916 4.7426559418669152 4.7610234239199141 4.7504048768630911 4.7599792895264477 4.7251417582575668 4.7783402370302763 4.7525979344714919 4.7448105944124119 4.7763958503022561 4.7675177922610805 4.770883820771231 4.7484427545567192 4.7416601814392543 4.7421017348251677 4.7674554170420329 4.763575709747438 4.7508837642399673 4.7426231112579469 4.7553999436560659 4.7658384008785619 4.751378138829816 4.7652806195206328 4.7680819851162939 4.7733345098249469 4.7612927654619748 4.7699514273441928 4.7500988636675894 4.7652168377045108 4.7575266496474686 4.7353101507573552 4.7623562533059403 4.7449971413042906 4.7615210157608994 4.7378711886152516 4.7428387568220272 4.7516222993797639 4.7364758056195084 4.7653589864208854 4.7655787782023724 4.7611130693414951 4.7483630942158124 4.7666707647783078 4.7505764476100714 4.7473167898580622 4.7446027716991672 4.7423072792175027 4.7637276474648322 4.7378045128736899 4.760748502101058 4.7459601564562268 4.7610826068487846 4.7681386857894053 4.7377246415675698 4.7540242995505446 4.7532128515077927 4.7544232557183816 4.7462688185187183 4.7597203751724617 4.7543510348610436 4.7520417263259151 4.7367346154424315 4.7591540586401022 4.7481502143449017 4.7643329832874288 4.766577514598576 4.7420625086349713 4.7587523776978147 4.7596368162037193 4.7424245667558882 4.7379973038944323 4.7505652921971038 4.7521314529268723 4.7701730529985609 4.7518502158007987 4.7415490155607909 4.7685895111954819 4.7583059650639097
leaf_weight=181 81 35 92 264 112 121 27 299 80 33 24 41 42 21 21 236 96 64 125 72 21 51 115 62 21 24 33 41 31 134 84 176 24 36 153 105 145 42 38 31 207 36 744 23 40 45 68 62 89 40 58 25 196 1130 419 166 27 21 156 37 275 26 26 106 447 82 59 74 137 23 49 33 21 562 24 85 39 68 77 38 73 434 48 140 31 22 299
leaf_count=181 81 35 92 264 112 121 27 299 80 33 24 41 42 21 21 236 96 64 125 72 21 51 115 62 21 24 33 41 31 134 84 176 24 36 153 105 145 42 38 31 207 36 744 23 40 45 68 62 89 40 58 25 196 1130 419 166 27 21 156 37 275 26 26 106 447 82 59 74 137 23 49 33 21 562 24 85 39 68 77 38 73 434 48 140 31 22 299
internal_value=4.75374 4.76101 4.74699 4.74476 4.73762 4.74332 4.76018 4.74791 4.75107 4.77373 4.7395 4.7644 4.74833 4.752 4.7264 4.77607 4.74681 4.75533 4.77168 4.7587 4.75683 4.7587 4.75025 4.75108 4.75167 4.75317 4.76291 4.75249 4.7446 4.75972 4.75946 4.75979 4.75937 4.75725 4.76047 4.76332 4.75129 4.75778 4.74126 4.74758 4.75996 4.75357 4.7597 4.75653 4.7367 4.76095 4.74614 4.75658 4.76084 4.75481 4.75879 4.75385 4.75237 4.74579 4.74346 4.74667 4.7547 4.74896 4.75945 4.75798 4.7574 4.75838 4.7537 4.75682 4.75388 4.75617 4.74973 4.75373 4.75802 4.74726 4.74159 4.76659 4.7647 4.76375 4.75131 4.75254 4.74733 4.75376 4.74834 4.75073 4.74624 4.75315 4.76298 4.75567 4.75091 4.75684 4.75624
internal_weight=10321 4970 5351 3461 1061 797 4666 2400 1890 304 140 1211 615 1750 182 271 2101 603 206 3455 1220 746 1147 1001 939 48 1005 222 146 2235 2163 2079 1945 667 1278 972 434 84 181 69 284 77 1102 313 61 789 1879 539 158 381 145 83 236 1783 487 1296 69 42 695 491 470 433 158 132 474 598 350 133 290 217 72 69 688 583 918 650 124 526 268 191 111 502 204 574 113 461 439
internal_count=10321 4970 5351 3461 1061 797 4666 2400 1890 304 140 1211 615 1750 182 271 2101 603 206 3455 1220 746 1147 1001 939 48 1005 222 146 2235 2163 2079 1945 667 1278 972 434 84 181 69 284 77 1102 313 61 789 1879 539 158 381 145 83 236 1783 487 1296 69 42 695 491 470 433 158 132 474 598 350 133 290 217 72 69 688 583 918 650 124 526 268 191 111 502 204 574 113 461 439
is_linear=0
shrinkage=1


Tree=1
num_leaves=88
num_cat=0
split_feature=8 7 8 8 7 7 4 7 7 13 13 5 8 7 15 6 13 8 0 7 2 8 5 13 15 5 6 30 12 4 6 15 6 11 4 6 2 2 11 0 6 0 15 13 12 12 30 8 6 2 2 10 11 10 1 4 10 4 0 46 10 6 12 6 10 6 4 11 9 15 13 13 13 10 0 2 2 4 10 4 12 11 13 13 10 12 0
split_gain=84.4054 8.72471 8.12482 12.967 17.3074 11.2466 4.84927 3.39711 3.3723 2.9151 2.36777 2.32241 2.28375 2.18316 1.96384 1.69958 2.12515 1.5542 1.46602 1.32663 1.29811 1.16657 1.14674 1.12796 1.0102 0.988326 0.938018 0.923614 0.921113 0.873457 1.13758 1.00987 0.866746 0.831365 0.814498 0.810329 0.797934 0.794764 0.743177 0.735302 0.733036 0.727208 0.700449 0.677643 0.708461 0.889471 0.753462 0.971445 0.676923 0.7073 0.653625 0.90938 0.653048 0.794723 0.649809 0.93742 0.616264 0.610211 0.604588 0.598591 0.760997 0.641397 0.678257 0.587007 0.744001 1.01313 0.652964 0.926732 1.02288 0.661116 1.19087 0.76017 0.56264 0.617963 0.899168 0.710474 0.938636 0.714822 0.543119 0.542898 0.706088 0.92407 0.720285 0.585589 0.737972 0.847018 0.541729
threshold=3.5000000000000004 22.500000000000004 2.5000000000000004 1.5000000000000002 13.500000000000002 22.500000000000004 46.500000000000007 22.500000000000004 1.5000000000000002 4.5849983692169198 4.006812810897828 9.5000000000000018 5.5000000000000009 4.5000000000000009 744.59002685546886 6.6949999332427987 3.5638927221298222 4.5000000000000009 6301.7229003906259 1.5000000000000002 347.65000915527349 5.5000000000000009 38.500000000000007 5.5683045387268075 426.67500305175787 28.500000000000004 6.9249999523162851 1.0000000180025095e-35 -2.6262097358703609 19.500000000000004 2.8099999427795415 6349.4899902343759 5.1549999713897714 13.280839443206789 134.50000000000003 6.5099999904632577 76.549999237060561 64.350002288818374 9.7879242897033709 5723.9082031250009 6.0750000476837167 10379.793945312502 5921.7299804687509 8.1009311676025408 2.0378787517547612 4.5656862258911142 1.0000000180025095e-35 5.5000000000000009 6.4849998950958261 180.75000000000003 342.94999694824224 0.05023364536464215 12.532548904418947 12.106943607330324 6.3500001430511483 31.500000000000004 5.0795226097106942 226.50000000000003 811.25384521484386 1.0000000180025095e-35 1.1437573432922366 3.9850000143051152 4.1636028289794931 4.6349999904632577 7.4623348712921151 4.1150000095367441 177.50000000000003 12.532548904418947 17.771375656127933 342.31500244140631 7.0263502597808847 9.847513675689699 1.0218148827552798 5.0169167518615732 9810.3940429687518 36.95000076293946 311.65000915527349 119.50000000000001 3.2702381610870366 94.500000000000014 -0.33191850781440729 11.476993083953859 7.5486378669738778 3.4528627395629887 4.7386610507965097 0.028730158694088462 6700.9418945312509
decision_type=2 2 2 2 2 2 2 2 2 2 2 2 2 2 2 2 2 2 2 2 2 2 2 2 2 2 2 2 2 2 2 2 2 2 2 2 2 2 2 2 2 2 2 2 2 2 2 2 2 2 2 2 2 2 2 2 2 2 2 2 2 2 2 2 2 2 2 2 2 2 2 2 2 2 2 2 2 2 2 2 2 2 2 2 2 2 2
left_child=2 6 3 7 -5 11 13 19 10 -7 -4 54 17 21 50 25 -17 -3 26 34 28 -2 33 -12 -21 27 -18 41 42 37 31 -31 78 59 -1 -25 39 -15 -20 58 -27 -10 -13 44 46 -46 47 -32 49 -35 51 -8 53 -28 -6 -56 -43 -54 -30 61 -61 -16 72 64 -53 -66 -65 68 69 -68 -71 -72 -63 74 -74 -75 -77 -78 -29 86 -81 82 83 -82 -85 -86 -38
right_child=1 12 8 4 5 9 14 -9 15 -11 23 20 -14 29 22 16 18 -19 38 24 -22 -23 -24 35 -26 40 52 32 36 30 43 -33 -34 48 -36 -37 79 -39 -40 -41 -42 56 -44 -45 45 -47 -48 -49 -50 -51 -52 63 57 -55 55 -57 -58 -59 -60 60 -62 62 -64 66 65 -67 67 -69 -70 70 71 -73 73 75 -76 76 77 -79 -80 80 81 -83 -84 84 85 -87 -88
leaf_value=0.0009306436935832261 0.0098982865642784287 0.0065130812013892356 -0.024316758747479628 -0.030891040328224258 -0.017821710911821227 -0.02978998572223971 -0.0098693606277381208 0.0017852346628489453 -0.002198783392668463 -0.0065947950251496624 0.0066973124902480951 -0.014311462385591469 0.00064144103031188286 0.020024038639769239 0.015334810101887105 0.010071524259168326 0.0078090897154357939 0.022862891749885952 -0.019632990186223321 -0.009089159248839955 -0.018060523696443762 0.021058327978843598 0.017450380197181661 -0.019180947895838799 -0.005666825243831098 -0.0044839148134126752 -0.00098668900920988612 -0.005610306616489486 0.0021784740363497285 0.00049871339745990095 0.0030688583148317924 0.013910936157763391 -0.001005508295604545 0.0023438210779672024 -0.010285867477240028 -0.001527088409516431 0.0044119866202299123 0.010082188314064643 -0.0025768224782434742 -0.0024028275229923523 -0.014955687869749842 0 0.0006303966510113842 0.017541840843408516 0.020374183615593965 0.0062201344862148258 0.015085204404400447 0.010996216280869114 0.0053963700884647565 -0.016224874463518679 0.0081047959853444221 0.0043715363536518835 0.013545618601477282 -0.014170535845587225 0.0033921465747303384 -0.016284565933803719 0.014267676823561237 -0.0017004132249080549 0.017631488190900525 -0.0073832528458695305 0.0087342708199813508 0.013001840402262451 0.01847319182717088 0.0041390360371126485 0.0025814627938548123 -0.017468219139037445 0.0029166406255456121 0.0050955855200911244 -0.017073437850816369 0.0063521658695780449 -0.017767020454233874 -0.0020565152303536564 0.005253385392346043 0.0010723771160062866 -0.0056899890195425953 0.010266624869619125 0.0086869338507310975 -0.0062766050620862435 -0.019135172003799744 0.0075524921525571172 -0.015687397234600383 0.0035749123025770428 -0.019754969977677259 0.0083133777232680065 -0.018503224257267997 -0.00051369482414225344 -0.0084474898960435613
leaf_weight=181 81 35 58 264 77 147 28 299 824 35 27 48 33 54 50 120 80 236 29 743 27 125 51 30 1136 86 269 26 24 173 236 35 47 21 41 25 86 194 25 36 59 39 24 45 51 43 52 122 52 21 138 46 29 26 23 27 26 25 30 33 28 68 26 1488 24 28 128 163 21 32 35 30 381 70 43 384 32 34 40 22 26 39 26 21 22 36 21
leaf_count=181 81 35 58 264 77 147 28 299 824 35 27 48 33 54 50 120 80 236 29 743 27 125 51 30 1136 86 269 26 24 173 236 35 47 21 41 25 86 194 25 36 59 39 24 45 51 43 52 122 52 21 138 46 29 26 23 27 26 25 30 33 28 68 26 1488 24 28 128 163 21 32 35 30 381 70 43 384 32 34 40 22 26 39 26 21 22 36 21
internal_value=3.02658e-05 0.00677809 -0.0062366 -0.00830755 -0.0149288 -0.00963811 0.0060082 -0.00537927 -0.00244282 -0.0253441 -0.0131846 -0.00498579 0.0185859 0.00992576 0.0046343 -0.00158195 0.00150575 0.0207612 -0.00061687 -0.00640015 -0.00272466 0.0166832 0.00685173 -0.00527785 -0.00702152 -0.00320754 0.000782849 -0.00240088 -0.00182064 0.00853799 0.00731582 0.00276847 -0.00853001 0.00641471 -0.00112886 -0.0112052 -0.000430562 0.0122578 -0.0117862 0.00549704 -0.00876333 -0.0016188 -0.00929375 0.00903381 0.00826883 0.013928 0.00696483 0.00577784 -5.90407e-05 -0.00687699 0.00330527 0.00297654 -0.000820102 -0.00215775 -0.0136531 -0.00717989 0.00569237 0.00643783 0.0108131 0.00694666 0 0.00733529 0.00694737 0.00315818 -0.00225228 -0.00816319 0.0034391 0.000886083 -0.00189228 -0.000463445 -0.00495131 -0.0105572 0.0066486 0.00618811 0.00413725 0.0078552 0.00890436 0.000937955 -0.0138478 -0.00222374 -0.00451525 -0.0060927 -0.00899126 -0.00630039 -0.00317706 -0.00738353 0.00186315
internal_weight=10321 4970 5351 3461 1061 797 4666 2400 1890 182 140 615 304 1211 3455 1750 603 271 483 2101 488 206 1294 82 1879 1147 429 1002 461 1005 757 208 113 1243 222 55 389 248 54 90 145 889 72 549 504 94 410 358 94 42 2161 2023 349 295 127 50 65 54 54 1149 61 1088 1038 1995 98 52 1897 409 246 225 97 65 1012 944 424 520 450 66 66 299 192 170 131 105 79 58 107
internal_count=10321 4970 5351 3461 1061 797 4666 2400 1890 182 140 615 304 1211 3455 1750 603 271 483 2101 488 206 1294 82 1879 1147 429 1002 461 1005 757 208 113 1243 222 55 389 248 54 90 145 889 72 549 504 94 410 358 94 42 2161 2023 349 295 127 50 65 54 54 1149 61 1088 1038 1995 98 52 1897 409 246 225 97 65 1012 944 424 520 450 66 66 299 192 170 131 105 79 58 107
is_linear=0
shrinkage=0.071909


Tree=2
num_leaves=88
num_cat=0
split_feature=8 7 8 8 7 7 4 7 7 13 6 5 8 7 15 6 13 8 0 7 3 8 4 12 15 12 3 5 0 3 0 1 0 46 6 5 5 14 11 30 4 5 4 14 13 4 6 0 12 12 6 11 1 11 14 14 14 15 15 8 7 1 13 7 14 6 15 11 7 14 14 7 12 3 1 10 6 11 6 3 12 0 4 12 12 7 13
split_gain=72.7198 7.51516 6.99643 11.1704 14.9056 9.68739 4.17874 2.92655 2.90494 2.50918 2.06475 2.00007 1.96598 1.8794 1.69207 1.4639 1.8309 1.33728 1.26338 1.14266 1.09676 1.00368 0.988953 0.966321 0.869653 0.865028 1.00266 0.85133 0.843184 1.42929 1.15237 0.877921 0.833195 0.817668 0.80813 0.77096 0.769033 0.768283 0.767826 0.729443 0.838034 0.871841 0.915805 0.720666 0.703007 0.70165 0.698414 0.697398 0.661379 0.849808 0.784686 0.639326 0.638881 0.83923 0.99371 1.01104 0.62908 0.661403 1.28881 0.795344 0.922925 0.777524 0.621277 0.61687 0.615068 0.588023 0.575435 0.566694 0.54779 1.26543 0.919885 0.970292 0.940337 0.868879 0.824204 0.736348 0.704998 0.684837 0.635653 0.633099 0.534399 0.695513 0.530878 0.530408 1.07459 0.694596 0.971637
threshold=3.5000000000000004 22.500000000000004 2.5000000000000004 1.5000000000000002 13.500000000000002 22.500000000000004 46.500000000000007 22.500000000000004 1.5000000000000002 4.5849983692169198 4.8399999141693124 9.5000000000000018 5.5000000000000009 4.5000000000000009 744.59002685546886 6.6949999332427987 3.5638927221298222 4.5000000000000009 6301.7229003906259 1.5000000000000002 28.197292327880863 5.5000000000000009 248.50000000000003 7.7358059883117685 426.67500305175787 -2.6262097358703609 141.20648956298831 28.500000000000004 5759.4606933593759 81.226303100585952 844.04238891601574 7.1499998569488534 12476.569335937502 1.0000000180025095e-35 6.9249999523162851 6.5000000000000009 33.500000000000007 1.4484999775886538 13.280839443206789 1.0000000180025095e-35 26.500000000000004 10.500000000000002 85.500000000000014 0.018499999307096008 0.41259913146495825 134.50000000000003 6.4849998950958261 101.63337707519533 0.1186773255467415 -0.18642506003379819 6.0750000476837167 9.7879242897033709 9.7500000000000018 12.532548904418947 1.0764999985694887 1.2434999942779543 0.031500000506639488 2.995000004768372 492.52999877929693 5.5000000000000009 12.500000000000002 8.3499999046325701 9.847513675689699 11.500000000000002 3.372500061988831 9.1550002098083514 2161.059936523438 5.348771572113038 4.5000000000000009 1.8715000152587893 1.0554999709129336 10.500000000000002 0.12532051652669909 86.211212158203139 6.4500000476837167 6.1063344478607187 6.1749999523162851 4.0764403343200692 8.4049997329711932 124.31275558471681 0.099285714328289046 5743.7670898437509 186.50000000000003 0.43766891956329351 0.20113636553287509 10.500000000000002 5.3545489311218271
decision_type=2 2 2 2 2 2 2 2 2 2 2 2 2 2 2 2 2 2 2 2 2 2 2 2 2 2 2 2 2 2 2 2 2 2 2 2 2 2 2 2 2 2 2 2 2 2 2 2 2 2 2 2 2 2 2 2 2 2 2 2 2 2 2 2 2 2 2 2 2 2 2 2 2 2 2 2 2 2 2 2 2 2 2 2 2 2 2
left_child=2 6 3 7 -5 11 13 19 10 -7 -4 64 17 21 20 27 80 -3 34 45 36 -2 38 -22 -21 26 66 32 29 30 31 -27 39 35 -18 44 62 -12 68 -10 -41 -42 -43 -40 -15 -1 -45 -31 49 50 -29 -20 53 54 63 -56 -37 -58 59 60 -59 -60 83 -36 -6 -54 -13 -57 69 76 72 73 -70 -72 -75 78 -16 -74 79 -73 81 -17 -64 84 85 86 -8
right_child=1 12 8 4 5 9 14 -9 15 -11 37 25 -14 33 22 16 18 -19 51 24 23 -23 -24 -25 -26 28 -28 48 -30 47 -32 -33 -34 -35 52 56 -38 -39 43 40 41 42 -44 46 -46 -47 -48 -49 -50 -51 -52 -53 65 -55 55 67 57 58 61 -61 -62 -63 82 -65 -66 -67 -68 -69 70 -71 71 75 77 74 -76 -77 -78 -79 -80 -81 -82 -83 -84 -85 -86 -87 -88
leaf_value=0.0008637222275927047 0.0091865166699869587 0.0060447402047204921 -0.022788830216737607 -0.028669702167543599 -0.014965194295260291 -0.027647826703181323 0.012959723972229163 0.0016568605827622556 -0.0018364654747599126 -0.00612057806147695 -0.010593523209286186 -0.013455210377737387 0.00059531681189573004 0.022774334099315521 0.016740142051173246 0.013042177898518173 0.007247550336881764 0.021218848942327725 -0.018221233748956643 -0.0084355673507008067 0.0036978945803059055 0.019544052604856959 0.015735798661234542 0.018259685734443601 -0.0052593296812375231 -0.022492775488875891 -0.022491150479142099 -0.0034094020263872081 -0.0049139263900859634 -0.0015349114976125776 0.0035662799312991722 -0.0042355411181025839 0.011588906980811577 -0.0031473848338691387 -0.0004306592566194714 0.016547618623748872 -0.011838970227020641 0.0034954454670246206 0.0090498479416967325 -0.02101254206009762 0.0070331710988764517 -0.019390256150233716 -0.0021622929703890336 -0.012622712465386222 0.010284279520756428 -0.0095462319294650228 0.0023786851397977222 0.010565995079282735 -0.016173232399955183 0.0014885132162653712 -0.020787402651673323 -0.002391531544069514 -0.002641366395263218 0.015023531261372288 0.015672971598918853 -0.0061859193579053571 0.014900987790206495 0.003382592820463839 0.0063797188897742442 0.0077087745925919129 -0.010075732214108351 0.014324274977819598 0.011841052015499776 -0.011724694365081723 -0.0016018444504162237 -0.01587749711313682 0.0013278173282040998 0.0056513285028380166 0.0051179028418433005 -0.0035790505995338773 0.0097279768815145551 0.018160893130266767 0.0031225474676321871 0.0073656450792505736 -0.010796163155030007 0.016722022264563142 0.0079629355141713955 -0.010244092099761506 0.0017924131237549489 0.0028166318560834788 0.014677870826038716 -0.0017279365249733875 -0.00079709259509792006 0.005214318271848979 -0.014097984928760647 -0.0039207505508178234 -0.00072309274058157647
leaf_weight=181 81 35 57 264 105 147 39 299 869 35 50 22 33 26 85 30 80 236 29 743 1682 125 56 24 1136 22 22 30 178 34 52 37 22 33 61 34 27 33 29 21 23 27 40 30 267 41 34 86 39 51 25 25 86 21 31 37 45 52 368 49 53 78 43 43 22 22 35 48 530 32 54 40 41 22 31 89 111 38 50 22 54 36 28 67 33 133 85
leaf_count=181 81 35 57 264 105 147 39 299 869 35 50 22 33 26 85 30 80 236 29 743 1682 125 56 24 1136 22 22 30 178 34 52 37 22 33 61 34 27 33 29 21 23 27 40 30 267 41 34 86 39 51 25 25 86 21 31 37 45 52 368 49 53 78 43 43 22 22 35 48 530 32 54 40 41 22 31 89 111 38 50 22 54 36 28 67 33 133 85
internal_value=2.82315e-05 0.00629157 -0.00578865 -0.00771044 -0.0138561 -0.00894578 0.00557699 -0.00499246 -0.00226801 -0.0235227 -0.0122379 -0.00462759 0.0172507 0.00921376 0.0043015 -0.00146889 0.00139651 0.019269 -0.00057331 -0.00594001 0.00306768 0.0154844 0.00635992 0.00390432 -0.00651671 -0.00252874 -0.00942231 -0.00297762 -0.00119067 0.00166676 -0.00419929 -0.0110888 -0.00222869 0.00792576 0.00072566 0.00830445 -6.34006e-05 -0.00495969 0.00593364 -0.00254162 -0.00803802 -0.0049808 -0.00914492 -0.000322738 0.0114018 -0.00104682 -0.00461151 0.00711514 -0.0081345 -0.00515155 -0.0113572 -0.0109423 -0.000761681 0.00128899 -9.924e-06 0.00455391 0.00696396 0.00645461 0.00581666 0.000127348 -0.00338522 0.00777514 0.000673222 -0.00512606 -0.0126714 -0.00536245 -0.0043311 0.000467187 0.00644414 0.00961524 0.00565276 0.00886257 0.00402501 0.00329604 -0.00320686 0.0118125 0.0117831 -0.00327317 0.00788731 0.0127594 0.00934729 0.00494531 0.00681938 -0.000541646 -0.0018807 -0.000301509 0.00355886
internal_weight=10321 4970 5351 3461 1061 797 4666 2400 1890 182 140 615 304 1211 3455 1750 603 271 483 2101 2161 206 1294 1706 1879 488 79 1147 409 231 111 59 1002 1005 429 972 455 83 1238 980 111 90 67 93 293 222 64 120 145 106 55 54 349 241 220 116 679 645 600 154 105 446 428 104 127 108 57 85 1145 228 917 308 609 107 53 201 196 79 112 62 120 66 71 357 290 257 124
internal_count=10321 4970 5351 3461 1061 797 4666 2400 1890 182 140 615 304 1211 3455 1750 603 271 483 2101 2161 206 1294 1706 1879 488 79 1147 409 231 111 59 1002 1005 429 972 455 83 1238 980 111 90 67 93 293 222 64 120 145 106 55 54 349 241 220 116 679 645 600 154 105 446 428 104 127 108 57 85 1145 228 917 308 609 107 53 201 196 79 112 62 120 66 71 357 290 257 124
is_linear=0
shrinkage=0.071909


Tree=3
num_leaves=88
num_cat=0
split_feature=8 7 8 8 7 7 4 7 7 13 13 5 8 7 6 13 8 2 0 7 0 3 12 13 8 9 9 14 7 5 9 0 0 6 4 6 14 2 3 6 5 3 7 4 9 3 14 1 4 4 2 7 1 9 10 13 2 6 30 4 5 4 4 7 13 0 6 13 12 12 1 30 8 10 14 1 12 2 6 4 6 3 3 2 10 10 7
split_gain=62.6517 6.4735 6.0256 9.6241 12.836 8.34346 3.60005 2.52121 2.50175 2.15966 1.89007 1.72271 1.69236 1.61818 1.26076 1.58687 1.15054 1.08687 1.07458 0.9842 0.981802 1.1047 0.995701 0.949392 0.863452 0.792386 1.03692 0.782791 0.755908 0.733397 0.732951 0.789925 0.717875 0.713059 0.70502 0.950869 0.734454 0.697195 0.69464 0.839017 0.913329 0.694094 0.687365 0.683514 0.681053 0.67223 0.668883 0.664618 0.69762 1.0584 1.19146 0.646251 0.638827 0.817049 0.63796 0.712822 1.12449 0.636499 0.628515 0.721292 0.751597 0.788203 0.604442 0.592029 0.588682 0.606255 0.582938 0.578622 0.613298 0.737953 0.619273 0.570849 0.741484 0.670976 0.558519 0.740328 0.745939 0.554782 0.692866 0.552623 0.551813 0.551284 1.59637 0.558886 0.550968 0.650777 0.765605
threshold=3.5000000000000004 22.500000000000004 2.5000000000000004 1.5000000000000002 13.500000000000002 22.500000000000004 46.500000000000007 22.500000000000004 1.5000000000000002 4.5849983692169198 4.006812810897828 9.5000000000000018 5.5000000000000009 4.5000000000000009 6.6949999332427987 3.6094486713409428 4.5000000000000009 353.44999694824224 6301.7229003906259 1.5000000000000002 7038.3977050781259 1.5060554146766665 -0.4376388937234878 5.5683045387268075 5.5000000000000009 7.3338096141815194 7.4408731460571298 0.014500000048428776 1.0000000180025095e-35 28.500000000000004 17.771375656127933 4710.3083496093759 12476.569335937502 6.9249999523162851 19.500000000000004 2.8099999427795415 0.29649999737739569 64.350002288818374 33.956521987915046 5.2950000762939462 33.500000000000007 6.3858227729797372 8.5000000000000018 17.500000000000004 7.1682209968566903 171.41303253173831 2.6994999647140507 15.34999990463257 96.500000000000014 71.500000000000014 128.84999847412112 18.500000000000004 9.7500000000000018 8.8023810386657733 15.383446216583254 8.661875247955324 102.25000000000001 6.5099999904632577 1.0000000180025095e-35 26.500000000000004 10.500000000000002 85.500000000000014 134.50000000000003 19.500000000000004 12.157704353332521 6115.4560546875009 2.4800000190734868 8.1009311676025408 2.0378787517547612 4.5656862258911142 11.949999809265138 1.0000000180025095e-35 5.5000000000000009 7.311821937561036 0.052500000223517425 7.8500001430511483 -0.61483517289161671 107.75000000000001 5.7550001144409189 189.50000000000003 9.1550002098083514 42.234001159667976 50.010522842407234 21.849999427795414 4.7386610507965097 6.4704148769378671 15.500000000000002
decision_type=2 2 2 2 2 2 2 2 2 2 2 2 2 2 2 2 2 2 2 2 2 2 2 2 2 2 2 2 2 2 2 2 2 2 2 2 2 2 2 2 2 2 2 2 2 2 2 2 2 2 2 2 2 2 2 2 2 2 2 2 2 2 2 2 2 2 2 2 2 2 2 2 2 2 2 2 2 2 2 2 2 2 2 2 2 2 2
left_child=2 6 3 7 -5 11 13 19 10 -7 -4 -6 16 24 29 -16 -3 47 33 62 21 -8 -22 -12 -2 28 -27 -28 -23 32 38 79 58 -17 37 36 -36 -15 39 -29 41 -41 74 -21 -30 52 66 48 49 -13 -51 -50 53 84 55 56 -31 -25 -10 -60 -61 -62 -1 -45 -33 -66 -38 68 70 -70 71 72 73 -37 -40 -76 -77 78 -24 -32 -54 -44 -83 -84 -35 86 -86
right_child=1 12 8 4 5 9 20 -9 14 -11 23 17 -14 34 15 18 -18 -19 -20 43 22 25 77 57 -26 26 27 30 44 54 31 64 -34 45 35 67 46 -39 42 40 -42 -43 81 63 -46 -47 -48 -49 51 50 -52 -53 80 -55 -56 -57 -58 -59 59 60 61 -63 -64 -65 65 -67 -68 -69 69 -71 -72 -73 -74 -75 75 76 -78 -79 -80 -81 -82 82 83 -85 85 -87 -88
leaf_value=0.00080161316976206244 0.0085259276804799944 0.0056100766556106694 -0.021304091820003146 -0.026608096267457491 -0.011761686697321626 -0.025659707522590579 -0.0077065916749168009 0.0015377176625913044 -0.0017044069892951706 -0.0056804612017526722 0.0066946499160987155 -0.0051126606864889037 0.00055250848540739977 0.017972542577572879 0.008438147911150079 0.0067263902737751185 0.019693027469025022 -0.018363188451296985 -0.010159014382693721 -0.00010917648893250778 0.014574327074189163 0.015495408618876777 0.0087365819127527451 -0.016799555796220382 0.018138665503462069 -0.011701759989389474 0.012406027961203339 -0.011931863265922306 0.0045613801890463717 0.0010824318364126566 -0.016109869796618399 -0.0056060737055619279 0.010755584107355035 0.006634827778218581 0.0083024403381119979 0.0012599393860330606 0.0015975753754357786 0.008661303559298731 -0.007554159813605796 0.0098785864925632072 -0.0112430439613318 0.0010020879008821482 0.012838083625864997 -0.0058848484036050797 0.014646451154245984 -0.012970353509170493 0.0059348279931107977 0.0093095696486887834 -0.0075804357920015103 0.0193569903088163 0.001160650304724144 -0.00065646719363074467 -0.0018552543334283392 0.010640520785597046 -0.015443815001991438 0.0013421509741306928 -0.019699921682936029 -0.0011418166418617772 -0.019501597308750611 0.0065274363900022902 -0.017995955164614028 -0.0020068066825483181 -0.0088597827392184643 -0.0099808219995161738 0.013085691048826214 -0.00083870322711004995 -0.0098292140269105408 0.015690918552879164 0.018258512011628706 0.0053589048397485522 -0.006054245581074911 0.013768641839535158 0.01004195757147637 0.012275940827318027 0.0086199580095848022 -0.0081668984932024621 0.0023674078435764689 0.007661111046660769 -0.0048626278684885324 -0.0019259973273788222 -0.014735794915665585 -0.0084047463972659938 0.013389409160891446 0.0052660218092867757 -0.017468633772645688 0.0017088117065848379 0.00023395315160645234
leaf_weight=181 81 35 58 264 127 147 44 299 869 35 27 69 33 54 127 80 236 21 54 96 82 36 32 30 125 25 45 26 1122 24 27 34 22 46 67 185 43 194 29 55 27 271 50 1574 36 22 49 27 154 27 61 129 82 47 39 52 30 25 21 23 27 40 41 209 32 32 49 45 51 43 21 50 120 34 90 38 398 183 49 31 22 43 48 570 26 73 24
leaf_count=181 81 35 58 264 127 147 44 299 869 35 27 69 33 54 127 80 236 21 54 96 82 36 32 30 125 25 45 26 1122 24 27 34 22 46 67 185 43 194 29 55 27 271 50 1574 36 22 49 27 154 27 61 129 82 47 39 52 30 25 21 23 27 40 41 209 32 32 49 45 51 43 21 50 120 34 90 38 398 183 49 31 22 43 48 570 26 73 24
internal_value=2.62574e-05 0.00583989 -0.00537293 -0.00715644 -0.012861 -0.00830395 0.00517661 -0.00463345 -0.00210553 -0.0218323 -0.0113579 -0.00429608 0.0160115 0.00855233 -0.00136381 0.00129514 0.0178841 -0.00234769 -0.000605059 -0.00551297 0.00399263 0.00358661 0.00763314 -0.00429001 0.0143719 0.00374961 0.00282284 0.003021 0.00519962 -0.00276401 0.00278501 -0.00191492 -0.00206862 0.000611164 0.00735679 0.00625812 0.00210005 0.0106996 0.00323235 0.000523525 0.00144851 0.00250787 0.00404117 -0.0060482 0.00487722 -0.000811491 -0.000828253 -0.00162176 -0.00229864 0.00153295 0.0067741 -0.00443374 1.6101e-05 0.00225383 -0.00755089 -0.0046216 -0.0104139 -0.0097311 -0.00235925 -0.00746176 -0.00462264 -0.0084902 -0.000970678 -0.00636647 0.00199953 0.00608179 -0.0044594 0.00782862 0.00712131 0.0123861 0.00590771 0.00656035 0.00548927 0.00298242 0.00213682 0.0026762 0.00144314 0.005467 0.000476924 -0.00857503 -0.00460576 0.00552392 0.0049666 0.0059013 -6.27825e-05 -0.00258933 -0.00891803
internal_weight=10321 4970 5351 3461 1061 797 4666 2400 1890 182 140 615 304 1211 1750 603 271 488 476 2101 3455 3109 346 82 206 3065 1871 1846 1194 1147 1801 156 1002 422 1005 757 208 248 1645 379 353 326 1266 1879 1158 342 141 467 440 157 88 283 320 216 145 106 54 55 980 111 90 67 222 1783 98 64 92 549 504 94 410 389 339 219 555 526 436 264 81 58 104 711 661 618 169 123 50
internal_count=10321 4970 5351 3461 1061 797 4666 2400 1890 182 140 615 304 1211 1750 603 271 488 476 2101 3455 3109 346 82 206 3065 1871 1846 1194 1147 1801 156 1002 422 1005 757 208 248 1645 379 353 326 1266 1879 1158 342 141 467 440 157 88 283 320 216 145 106 54 55 980 111 90 67 222 1783 98 64 92 549 504 94 410 389 339 219 555 526 436 264 81 58 104 711 661 618 169 123 50
is_linear=0
shrinkage=0.071909


Tree=4
num_leaves=88
num_cat=0
split_feature=9 3 13 15 6 14 6 13 15 3 9 9 13 13 15 6 11 9 5 30 2 6 34 14 2 3 15 5 3 9 40 5 29 2 5 14 13 13 2 13 15 13 11 3 5 14 11 2 3 3 13 11 6 6 6 2 2 5 2 3 14 5 6 6 3 15 5 11 5 15 3 2 5 3 13 13 5 15 13 15 15 5 5 14 15 6 5
split_gain=1.16611 1.08541 1.11101 0.853891 0.889987 0.842001 0.70797 0.695365 0.906867 0.906864 0.788031 0.968205 0.775325 0.997756 0.750818 0.685532 0.615688 0.60075 0.637776 0.985187 0.731316 0.781775 0.632202 0.88435 0.540369 0.677828 0.530337 0.530262 0.527701 0.510907 0.559608 0.748479 0.472636 0.463527 0.530618 0.594341 0.528922 0.671357 0.683781 0.829606 0.788452 0.70577 0.572212 0.554031 0.66466 0.515541 0.465982 0.460704 0.813928 0.448587 0.445658 1.27595 0.814433 0.884978 0.799939 0.76606 1.4052 1.02272 0.716373 0.671853 0.888633 0.627273 0.608608 0.555068 0.795318 0.538925 0.503264 0.569114 0.492844 0.471051 0.454784 0.487466 0.445374 0.44249 0.581189 0.614782 0.438314 0.4382 0.43507 0.4339 0.721507 0.904728 0.690529 0.666686 0.736904 0.661225 0.585999
threshold=29.512925148010257 34.61986160278321 5.3119752407073983 6266.3398437500009 4.2950000762939462 0.0084999999962747114 8.0149998664855975 10.094058036804201 138.2799987792969 15.350015163421633 13.794230937957765 7.0009090900421151 7.4942085742950448 9.2542767524719256 4.0800001621246347 7.5450000762939462 0.042471677064895637 15.281730175018312 28.500000000000004 1.0000000180025095e-35 28.849999427795414 3.5849999189376835 1.0000000180025095e-35 1.6385000348091128 164.05000305175784 17.393852233886722 8459.8500976562518 21.500000000000004 54.001314163208015 1.3389981985092165 1.0000000180025095e-35 18.500000000000004 1.0000000180025095e-35 84.950000762939467 9.5000000000000018 5.4005000591278085 4.94034767150879 1.4377252459526064 161.05000305175784 2.5953214168548588 566.91497802734386 3.5144112110137944 6.6899397373199472 7.5579988956451425 12.500000000000002 4.3934998512268075 4.7696778774261483 264.05000305175787 91.086471557617202 176.75657653808597 7.170966863632203 8.5197381973266619 6.2550001144409189 6.4349999427795419 5.0099999904632577 264.05000305175787 276.94999694824224 24.500000000000004 49.049999237060554 122.90542221069337 1.1875000000000002 32.500000000000007 6.1349999904632577 6.6949999332427987 76.025554656982436 677.13998413085949 12.500000000000002 7.8430972099304208 26.500000000000004 407.52999877929693 163.7314147949219 11.050000190734865 29.500000000000004 165.6559982299805 4.8028202056884775 2.6898176670074467 24.500000000000004 607.42501831054699 8.1267528533935565 15.340000152587892 177.23999786376956 18.500000000000004 19.500000000000004 0.099500000476837172 5862.7500000000009 2.5199999809265141 17.500000000000004
decision_type=2 2 2 2 2 2 2 2 2 2 2 2 2 2 2 2 2 2 2 2 2 2 2 2 2 2 2 2 2 2 2 2 2 2 2 2 2 2 2 2 2 2 2 2 2 2 2 2 2 2 2 2 2 2 2 2 2 2 2 2 2 2 2 2 2 2 2 2 2 2 2 2 2 2 2 2 2 2 2 2 2 2 2 2 2 2 2
left_child=1 2 16 17 26 -6 7 8 10 -9 11 -4 77 27 -13 -16 -1 29 19 20 -19 -22 23 -20 25 -8 -5 -14 -28 30 49 -32 50 -18 35 45 37 -36 41 -40 46 -39 43 -42 -45 -35 -41 48 -34 73 -31 52 62 -54 69 58 -57 -58 61 60 -60 70 65 -62 -65 -52 -55 -68 -59 -53 -56 -72 -70 79 75 -75 -15 -10 -12 86 82 83 -81 84 -82 -85 -3
right_child=-2 3 6 4 5 -7 24 9 12 -11 78 14 13 76 15 -17 33 18 22 -21 21 -23 -24 -25 -26 -27 28 -29 -30 32 31 -33 47 34 36 -37 -38 38 39 40 42 -43 -44 44 -46 -47 -48 -49 -50 -51 51 54 53 66 55 56 57 68 59 -61 63 -63 -64 64 -66 -67 67 -69 72 -71 71 -73 -74 74 -76 -77 -78 -79 -80 80 81 -83 -84 85 -86 -87 -88
leaf_value=-0.0091313542093646848 -0.013270212423334775 0.0045842508699371846 -0.014522932187328919 0.0077520221306619933 0.012790795557737513 -0.00057293314452409026 -0.024196564868217741 0.0054411924787768438 0.00092157868108640509 -0.0032774194152846927 -0.0061270256475986374 0.0093744778737814977 0.010967217871581975 -0.012759149606412629 -0.0051372439561405171 0.0083313180614697276 0.004001421377488725 0.0098199597406704604 -0.0036975603744214547 0.006638631015460055 -0.010613470285418626 -0.0013151648216309258 0.0051057734958716086 -0.015453392663035515 -0.0041818653061664081 -0.0057183695015296928 0.012476930269647385 0.00028922779243061454 0.0013798854272733072 0.001201868893322384 -0.0003863787057344476 -0.01215052005724224 -0.009090403860602678 0.001933168903466953 0.0023219704073422377 0.011421495487607777 0.0067606948430907069 -0.0033116200722502292 -0.0082833375333461034 0.0018158487545373841 -0.0073433554511003318 -0.016124124184285639 0.014990021755680564 0.011008092066105779 -0.0025759511449574266 -0.0092263146850622944 -0.0091933280387738424 -0.012838345678030393 0.0079748445236029475 0.0064807274935962944 -0.0046071094418134572 -0.014365061291192176 -0.01598266232841488 0.0043598531439178728 -0.0019634143577045233 -0.013377871474813669 -0.0045594777868739706 0.013616976602897716 0.0060372628730724336 0.008288579319101666 0.0020625587975892246 -0.010621449418437481 0.0089661025189457719 -0.014543563695444994 0.0014202416945817123 0.0050746229891774786 -0.0082838356104632058 0.0032244079418258494 -0.006116776065214974 -0.0018093674643491562 -0.0024634679575441052 0.01130438842620385 0.0052348346397235491 -0.0046488428738591988 -0.014906514212704997 0.0063189715290755477 0.0013399872375577772 -0.0065322886153473016 -0.019304361972027232 -0.0027066417882393441 0.0038628818332497863 0.0052114354765280596 -0.014498250419972353 0.004721378086197766 -0.0083329582502838194 -0.0045696132912198435 -0.0066273606647492328
leaf_weight=35 34 167 44 192 26 389 21 118 62 129 23 23 65 23 258 21 170 24 115 82 59 230 25 47 57 21 25 39 204 3823 63 51 31 299 129 32 37 50 77 32 25 41 21 42 33 23 51 25 27 47 114 25 43 28 102 44 107 27 179 153 99 29 31 32 32 40 118 27 23 42 21 35 78 130 22 33 22 116 32 120 172 146 33 46 30 275 28
leaf_count=35 34 167 44 192 26 389 21 118 62 129 23 23 65 23 258 21 170 24 115 82 59 230 25 47 57 21 25 39 204 3823 63 51 31 299 129 32 37 50 77 32 25 41 21 42 33 23 51 25 27 47 114 25 43 28 102 44 107 27 179 153 99 29 31 32 32 40 118 27 23 42 21 35 78 130 22 33 22 116 32 120 172 146 33 46 30 275 28
internal_value=2.44996e-05 6.87012e-05 -0.00135915 0.000450977 0.00262783 0.000257889 -0.00300339 -0.0024113 -0.00353062 0.000876928 -0.00582343 -0.00454096 -0.000710773 0.00310631 -0.00307775 -0.00411388 0.000248172 0.00020063 -0.00201465 -0.000369518 -0.00221407 -0.0032227 -0.00547535 -0.00712475 -0.0088075 -0.0150213 0.00495764 0.0069887 0.00260306 0.000393519 -0.0008481 -0.00567277 0.000711232 0.000559812 -9.31054e-05 0.00206582 -0.00151863 -0.00213543 -0.00368832 -0.00192181 0.000466272 -0.00911374 0.00418078 0.00188403 0.0049955 0.00112774 -0.00491664 -0.00466803 -0.00110015 -0.000405595 0.000796752 -0.000285184 -0.00372704 -0.0067266 0.00105481 0.0015867 -0.00158137 0.000615988 0.00288665 0.00432003 0.0025368 -0.000893287 -0.000210399 -0.00129088 -0.00651996 -0.002075 -0.00441046 -0.00612248 0.00496324 -0.00653432 0.000875379 0.00609374 0.00262332 -0.000677087 -0.00391229 -0.00241195 -0.00580691 -0.00392099 -0.0138426 -8.59498e-05 -0.000811938 0.000203044 -0.00526745 -0.00118998 0.00203836 -0.00322986 0.00296065
internal_weight=10321 10287 2171 8116 836 415 1074 975 728 247 401 346 327 149 302 279 1097 7280 582 395 313 289 187 162 99 42 421 104 229 6698 1363 114 5335 1062 892 354 538 501 372 281 204 91 121 100 75 322 83 83 58 1249 5252 1429 401 216 1028 961 279 235 682 495 342 187 185 163 64 154 173 145 128 67 158 56 101 1202 185 163 45 178 55 1017 822 669 153 523 202 321 195
internal_count=10321 10287 2171 8116 836 415 1074 975 728 247 401 346 327 149 302 279 1097 7280 582 395 313 289 187 162 99 42 421 104 229 6698 1363 114 5335 1062 892 354 538 501 372 281 204 91 121 100 75 322 83 83 58 1249 5252 1429 401 216 1028 961 279 235 682 495 342 187 185 163 64 154 173 145 128 67 158 56 101 1202 185 163 45 178 55 1017 822 669 153 523 202 321 195
is_linear=0
shrinkage=0.071909


Tree=5
num_leaves=88
num_cat=0
split_feature=8 7 8 8 7 7 4 7 7 13 13 4 8 7 6 13 8 7 14 14 10 8 3 1 3 9 5 46 12 5 5 13 10 10 13 8 4 1 12 5 3 30 6 12 2 12 13 13 13 13 14 14 1 7 12 6 1 7 10 14 12 1 4 10 3 4 13 13 6 1 10 6 2 2 10 5 4 22 3 14 5 9 2 4 10 4 10
split_gain=53.4544 5.4787 5.16656 8.23969 10.9391 7.20728 2.98206 2.13001 2.10746 1.89819 1.65915 1.5222 1.44695 1.36236 1.06202 1.3632 0.959762 0.824982 0.824432 0.817759 0.826943 0.720415 0.696659 0.812148 0.988042 0.878384 0.712203 0.691648 0.649638 0.668501 0.923176 0.916256 0.888637 1.10629 0.617644 0.613292 0.606202 0.984563 0.650168 0.598054 0.628093 0.599815 0.663026 0.593103 0.934886 0.725016 0.839283 0.817249 0.816562 0.639145 0.590826 1.63661 0.704617 0.57258 0.566809 0.964067 0.843587 0.84101 0.649219 0.709918 0.832716 0.638966 0.566773 0.555959 0.686186 1.11667 0.612708 0.762153 0.563103 0.552984 1.40227 0.551772 0.548843 0.733604 0.542059 0.535833 0.580971 0.508464 0.548101 0.50246 0.496421 0.584889 0.766648 1.24327 0.540156 1.00121 0.749285
threshold=3.5000000000000004 22.500000000000004 2.5000000000000004 1.5000000000000002 13.500000000000002 22.500000000000004 46.500000000000007 1.5000000000000002 22.500000000000004 5.1288239955902108 4.006812810897828 68.500000000000014 5.5000000000000009 4.5000000000000009 6.6949999332427987 3.6094486713409428 4.5000000000000009 1.5000000000000002 1.6194999814033511 1.6485000252723696 12.470400333404543 5.5000000000000009 28.197292327880863 7.4500000476837167 25.598085403442386 0.3012195229530335 33.500000000000007 1.0000000180025095e-35 7.7358059883117685 38.500000000000007 27.500000000000004 0.7196110486984254 18.290647506713871 10.313333988189699 9.847513675689699 4.5000000000000009 22.500000000000004 6.2500000000000009 0.14577380567789081 28.500000000000004 177.23502349853518 1.0000000180025095e-35 5.1549999713897714 -2.6262097358703609 67.549999237060561 -0.055363984778523438 3.2280195951461796 7.4942085742950448 9.9668898582458514 6.4028091430664071 2.6994999647140507 2.9095000028610234 7.6499998569488534 15.500000000000002 0.33153410255908972 8.0149998664855975 2.1499999761581425 12.500000000000002 8.4988369941711444 1.3274999856948855 -0.27939394116401667 6.5499999523162851 17.500000000000004 13.06587600708008 110.01462173461915 179.50000000000003 10.753173351287844 9.0249724388122576 8.0149998664855975 6.4500000476837167 8.8264832496643084 6.0750000476837167 272.94999694824224 230.15000152587893 10.105782032012941 16.500000000000004 126.50000000000001 1.0000000180025095e-35 10.053930759429933 1.5534999966621401 27.500000000000004 13.0076060295105 275.55000305175787 134.50000000000003 9.1615200042724627 135.50000000000003 8.7648215293884295
decision_type=2 2 2 2 2 2 2 2 2 2 2 2 2 2 2 2 2 2 2 2 2 2 2 2 2 2 2 2 2 2 2 2 2 2 2 2 2 2 2 2 2 2 2 2 2 2 2 2 2 2 2 2 2 2 2 2 2 2 2 2 2 2 2 2 2 2 2 2 2 2 2 2 2 2 2 2 2 2 2 2 2 2 2 2 2 2 2
left_child=2 6 3 8 -5 11 13 10 17 -7 -4 69 16 21 39 -16 -3 -1 -12 54 74 -2 23 24 25 -8 34 35 29 30 31 -24 33 53 -25 36 -15 38 -38 40 41 80 -43 -13 -45 -46 -47 49 -49 72 63 -52 -53 -32 55 58 -57 -56 61 60 -60 -17 -19 66 65 -65 67 -33 -66 -6 -71 -41 73 -48 -21 -69 -77 78 -37 -44 81 84 83 -83 85 86 -9
right_child=1 12 7 4 5 9 22 14 -10 -11 18 43 -14 27 15 19 -18 62 -20 20 -22 -23 28 26 -26 -27 -28 -29 -30 -31 32 50 -34 -35 -36 77 37 -39 -40 71 -42 42 79 44 45 46 47 48 -50 -51 51 52 -54 -55 57 56 -58 -59 59 -61 -62 -63 -64 64 68 -67 -68 75 -70 70 -72 -73 -74 -75 -76 76 -78 -79 -80 -81 -82 82 -84 -85 -86 -87 -88
leaf_value=-0.0009255773376097079 0.0078503344229664991 0.005261488366417902 -0.019795432951907475 -0.024585577690672981 -0.012637188195295362 -0.02346107248525622 -0.0014532047963656122 -0.00083293502957557661 0.0013600288231731992 -0.0032853780384633235 -0.0089242539116054821 -0.0079238990951600724 0.00045014646779754881 0.0090824774975583195 0.0078064646256166131 0.0026140111651274753 0.018134622587177494 -0.00016465137242949353 0.0063811477312440265 -0.0056534757910850549 -0.018008964510887029 0.016638290194232491 0.014592835656322635 -0.0011711375373338814 -0.0078363083140686827 0.0092121434479199727 -0.012274511789079706 -0.0034260450450043492 0.015318967128719257 0.009364089010920262 -0.0067657868455551018 0.0051669576465323231 -0.010066688580043226 0.0045086395824039741 0.0064465487905259944 0.00042096502115673644 0.00095874691637574873 0.0083265948447551873 -0.011314213249887883 -0.0031468742955914038 0.010083156712783363 -0.012104592905210853 0.0059032572898213018 0.006958261199463551 0.002737648301224545 -0.013822468611612775 0.00086304586959420199 -0.017415313537918031 7.569912609920029e-05 0.012310303224533685 -0.013941174969081494 -0.0053818959941449081 0.0062287178784686077 0.0038079170979206231 0.00010622205674487917 -0.01738600896026633 -0.0021760504289288773 0.015280412562664566 0.0086542812833745181 0.014726746940276158 -0.0067107773847975144 -0.01212566272733665 -0.005865473626518492 -0.0075856505198181132 0.0067540669365306278 0.0087458013613859222 0.013940966154797549 -0.0084120208986458601 -0.0060125749258043704 0.0050979975140588302 -0.01542489633431959 -0.012234350777489092 0.0075385043750241651 -0.016071803193543621 0.0073823666680467425 0.012166022742350634 -0.0019141268899127762 -0.0017075249317176943 0.0091750558608456895 -0.009040072261179373 0.0090941666935578248 -0.0094192623982818444 -0.017918248864902023 0.01057288317908003 0.0033480835924112563 -0.014795042658484628 -0.014672071649606547
leaf_weight=222 81 35 58 264 112 153 53 580 299 29 55 66 33 92 127 41 236 96 27 75 23 125 45 288 28 157 25 33 27 119 91 1658 36 253 68 40 86 76 30 86 22 62 26 70 99 42 35 30 25 22 34 35 116 37 45 25 79 33 44 35 31 24 1783 77 113 30 39 35 21 37 32 59 24 21 21 22 48 25 623 21 22 53 25 23 117 30 21
leaf_count=222 81 35 58 264 112 153 53 580 299 29 55 66 33 92 127 41 236 96 27 75 23 125 45 288 28 157 25 33 27 119 91 1658 36 253 68 40 86 76 30 86 22 62 26 70 99 42 35 30 25 22 34 35 116 37 45 25 79 33 44 35 31 24 1783 77 113 30 39 35 21 37 32 59 24 21 21 22 48 25 623 21 22 53 25 23 117 30 21
internal_value=2.26068e-05 0.0053926 -0.00496454 -0.00661605 -0.0118944 -0.00768724 0.00478235 -0.00193885 -0.00428144 -0.020261 -0.0104763 -0.00396187 0.0147504 0.0078549 -0.00125432 0.00118583 0.0164819 -0.00508556 -0.00385206 -0.000574995 -0.00574113 0.0131958 0.00370462 0.00151221 0.00480891 0.00650769 -0.000540129 0.00675747 0.00418221 0.0040742 0.00383919 0.00441001 0.000721372 0.00174775 0.000276426 0.00710596 0.00427504 0.00195752 -0.00219229 -0.00253949 -0.00191116 -0.00218315 -0.00721878 -0.00164407 -0.000510525 -0.00227392 -0.00478055 -0.00234461 -0.00941634 0.0014424 0.00420314 0.00029627 0.0035198 -0.00368844 0.00113957 -0.000366369 -0.00585808 0.00656042 0.00288201 0.00625634 0.00226774 -0.00278727 -0.00557564 0.00455561 0.00129689 -0.00298173 0.00498994 0.00479041 0.00473336 -0.00950467 -0.00438118 -0.00686301 -0.00151293 -0.0054399 -0.00277401 -0.00112995 0.00247295 0.00827065 0.00865094 -0.000716705 -0.0015499 -0.00182888 -0.00697037 -0.0033338 -0.00113106 -0.00196582 -0.00132096
internal_weight=10321 4970 5351 3461 1061 797 4666 1890 2400 182 140 615 304 1211 1750 603 271 2101 82 476 119 206 3455 619 238 210 381 1005 2836 2809 2690 2273 417 381 356 972 284 192 116 1147 1002 980 109 434 368 298 199 157 55 102 2228 185 151 128 357 279 104 78 175 110 75 65 1879 2043 241 107 1802 1763 134 181 69 145 80 56 96 105 70 688 663 47 871 849 101 76 748 631 601
internal_count=10321 4970 5351 3461 1061 797 4666 1890 2400 182 140 615 304 1211 1750 603 271 2101 82 476 119 206 3455 619 238 210 381 1005 2836 2809 2690 2273 417 381 356 972 284 192 116 1147 1002 980 109 434 368 298 199 157 55 102 2228 185 151 128 357 279 104 78 175 110 75 65 1879 2043 241 107 1802 1763 134 181 69 145 80 56 96 105 70 688 663 47 871 849 101 76 748 631 601
is_linear=0
shrinkage=0.071909


Tree=6
num_leaves=88
num_cat=0
split_feature=8 8 8 4 4 8 6 13 13 13 6 8 0 0 13 3 33 0 0 3 12 0 9 8 5 14 0 6 6 2 14 4 4 6 0 12 0 14 0 12 14 0 12 13 3 3 2 1 2 9 9 13 0 4 6 0 3 40 2 14 13 0 6 13 5 6 13 3 12 4 12 3 13 1 12 1 2 0 1 2 2 13 3 12 40 12 5
split_gain=46.0481 4.4496 7.09704 4.38401 3.31844 1.58634 1.56199 1.39701 1.14296 1.0934 1.0299 0.995732 0.925507 0.86358 0.846432 0.775949 0.717001 0.692822 0.825363 0.777675 0.797672 0.758773 1.27411 0.727126 1.01523 0.887049 0.838882 0.72691 0.720131 0.711342 0.696774 0.793588 1.27783 0.691491 1.54331 0.769978 0.956961 0.772566 0.762581 0.699401 0.792295 0.700978 0.664316 0.656923 0.748879 0.639142 0.719806 0.665934 0.629925 0.633822 0.620332 0.60319 0.835509 0.756163 0.698205 0.600254 0.587954 0.981071 0.623428 0.777789 0.702408 0.892312 0.662084 0.584445 0.58319 0.582931 0.702549 0.895527 0.579385 0.578236 0.574093 0.551037 1.44447 0.664945 0.978306 0.545077 0.571611 0.539004 0.536074 0.534829 0.536707 0.676818 0.53091 0.53065 0.517808 0.972198 0.775018
threshold=3.5000000000000004 2.5000000000000004 1.5000000000000002 46.500000000000007 68.500000000000014 4.5000000000000009 6.4149999618530282 0.55755215883255016 2.2018618583679204 3.6094486713409428 6.4349999427795419 4.5000000000000009 5430.8198242187509 5777.7294921875009 1.2426744699478152 1.5060554146766665 1.0000000180025095e-35 1178.7597656250002 3485.9494628906255 101.85549926757814 -0.072613634169101701 363.02645874023443 5.2118182182312021 5.5000000000000009 12.500000000000002 1.3195000290870669 669.27447509765636 6.1949999332427987 6.3849999904632577 33.95000076293946 0.014500000048428776 149.50000000000003 274.50000000000006 8.1549997329711932 811.25384521484386 -0.92986485362052906 6676.5837402343759 1.1385000348091128 5781.3725585937509 -0.10842198505997656 1.028500020503998 195.26978302001956 -0.26238207519054407 1.671395540237427 120.24144363403322 71.545524597167983 241.25000000000003 9.5500001907348651 234.05000305175784 10.053589820861818 13.408012866973879 0.64809760451316845 5804.5534667968759 13.500000000000002 2.1350001096725468 15.443639278411867 154.93830108642581 1.0000000180025095e-35 233.05000305175784 4.0009999275207528 7.0815403461456308 6041.2592773437509 4.6349999904632577 7.2821786403656015 12.500000000000002 8.2600002288818377 3.74934995174408 151.20000457763675 0.2868636697530747 81.500000000000014 0.17161172628402713 167.8101501464844 3.488067746162415 11.84999990463257 5.6472725868225107 6.4500000476837167 127.35000228881837 6484.0385742187509 2.5499999523162846 167.25000000000003 218.05000305175784 5.432016372680665 44.479618072509773 0.099285714328289046 1.0000000180025095e-35 0.12532051652669909 18.500000000000004
decision_type=2 2 2 2 2 2 2 2 2 2 2 2 2 2 2 2 2 2 2 2 2 2 2 2 2 2 2 2 2 2 2 2 2 2 2 2 2 2 2 2 2 2 2 2 2 2 2 2 2 2 2 2 2 2 2 2 2 2 2 2 2 2 2 2 2 2 2 2 2 2 2 2 2 2 2 2 2 2 2 2 2 2 2 2 2 2 2
left_child=1 2 10 5 75 -2 51 11 -7 70 -1 -5 -11 68 -6 -9 77 19 -19 21 28 -17 -23 26 -25 -26 65 -24 42 -29 -20 45 -33 34 39 78 79 -38 64 40 -16 -41 -21 -12 -45 46 47 84 50 -50 82 52 -3 -53 -55 -10 58 -58 62 60 -60 -62 -47 -43 -35 66 -22 -68 -14 -49 -8 73 -73 -57 -75 -4 -77 -15 -36 -37 -81 -82 -31 -69 86 -86 -32
right_child=3 6 4 7 14 8 9 15 55 12 43 -13 13 16 33 17 -18 18 30 20 23 22 27 24 25 -27 -28 29 -30 48 31 32 -34 38 35 36 37 -39 -40 41 -42 63 -44 44 -46 56 -48 69 49 -51 -52 53 -54 54 -56 71 57 -59 59 -61 61 -63 -64 -65 -66 -67 67 83 -70 -71 -72 72 -74 74 -76 76 -78 -79 -80 80 81 -83 -84 -85 85 -87 -88
leaf_value=-0.0029876384573952197 0.0041998425096729311 -0.00016930690539150884 -0.01812828630211067 0.00047262776357279905 -0.017414558862741066 0.012373236532708703 0.0027742544423305874 -0.0057949627465202613 0.015105673760618426 0.0019921976576136955 0.0016769937334905492 0.017584162641082885 -0.013573355193456864 0.0040617144862770196 -0.01317215999602901 0.0025448244846922128 -0.0087121281587101054 0.0097752359202775627 0.011054753551295047 -0.0018187099621855807 -0.0094897707280486264 0.0092743453850108095 -0.011229222248801431 0.0085148899212560882 -0.01671040374782029 -0.00075147172068153558 0.014659010400674851 0.0097774343237654448 0.011889099337718702 -0.0092730608780641714 0.010783230307917283 0.00027517028845436758 0.0098731912983206511 -0.0040538950054679179 -0.0046840911567577991 0.0063675949094220367 0.0023821395956068986 -0.014300306535996293 -0.017648049574516871 -0.020295200202996574 0.0040388885043936926 -0.0021495520007517965 0.013346945863268369 -0.008561088889324173 -0.0035105136864707139 -0.0028832387035752569 0.012776396830611514 -0.0081797978633497727 -0.0069352155501158962 0.0084924359704067059 -0.017927305780482163 -0.014184324226316094 -0.016916003777536177 0.0098825900288504916 -0.0030412925538881638 0.0087657128072367741 0.0080376096545303442 -0.0069193413081692426 0.002934265903486099 -0.013259857722486501 0.00029246882008995991 -0.017732281198800087 0.0056928431347898897 -0.017041771919535788 -0.01753927370124931 0.012249217808873907 0.0092056818437170063 -0.012429778559175706 -0.0014570056473151372 0.003762519282935708 0.01238783625231649 -0.01477899400725295 0.0096447816262682576 -0.0074764081437809294 0.010667615342264354 -0.018062879645155832 -0.0079437237631149269 -0.0052316530705549796 -0.01778438123334522 -0.01179194030427274 -0.0081308383824190301 0.0070571108420721309 0.002850600786129281 0.0020596353742261919 0.010498058250718572 -0.010186867215682252 0.0010403067454267691
leaf_weight=1672 341 26 270 25 46 495 84 46 50 339 50 62 59 113 28 439 47 136 70 51 28 42 59 30 30 46 36 23 109 44 191 533 83 71 48 80 22 40 62 57 27 31 21 444 234 54 86 28 23 34 22 31 39 22 1000 372 227 25 229 21 43 21 321 25 22 27 61 21 32 83 53 21 31 34 28 51 70 45 25 21 24 41 32 34 24 23 55
leaf_count=1672 341 26 270 25 46 495 84 46 50 339 50 62 59 113 28 439 47 136 70 51 28 42 59 30 30 46 36 23 109 44 191 533 83 71 48 80 22 40 62 57 27 31 21 444 234 54 86 28 23 34 22 31 39 22 1000 372 227 25 229 21 43 21 321 25 22 27 61 21 32 83 53 21 31 34 28 51 70 45 25 21 24 41 32 34 24 23 55
internal_value=2.09621e-05 -0.0046078 -0.00614046 0.0050051 -0.0110393 0.00846515 -0.00179974 0.00368496 0.0098733 0.000685099 -0.00397364 0.0126978 -0.00056804 -0.00350923 -0.00795935 0.00346086 -0.000906958 0.00358451 0.00433152 0.00219369 0.00439067 0.000678392 -0.00224881 0.00218166 -0.00264563 -0.00708631 0.00466652 -0.00430219 0.00819587 -0.0019911 0.00398053 0.00373731 0.00157276 -0.00725803 -0.00587014 -0.00277665 -0.000705987 -0.00833765 -0.0114402 -0.0113967 -0.00467455 -0.0146449 0.00256756 -0.00623453 -0.00682192 0.00466722 0.00677928 0.00549604 -0.00375468 0.00222034 -0.00725722 -0.00351796 -0.0102585 -0.00309933 -0.00276047 0.00755958 0.00356457 0.00654316 0.00247127 9.87166e-05 0.00106531 -0.00558025 0.00445076 -0.00884572 -0.00727283 0.00254716 0.000709408 0.00319436 -0.00934208 0.00072593 0.00651293 0.00677772 -0.000167319 0.007616 0.000674576 -0.0163102 -0.012231 0.00139794 -0.00920723 0.00212831 -0.00178414 0.0014081 -0.00413321 -0.00342416 0.00729401 0.000318771 0.00861581
internal_weight=10321 5351 3461 4970 1061 1372 1890 3598 1031 772 2400 87 635 296 670 3511 205 3465 2253 1212 494 718 279 313 106 76 207 237 181 178 2117 2047 616 624 469 301 228 62 155 168 55 113 72 728 678 1431 490 404 155 57 98 1118 65 1053 1022 536 941 252 689 314 293 64 375 56 93 171 144 116 91 111 137 486 52 434 62 391 121 158 73 166 86 65 76 55 293 47 246
internal_count=10321 5351 3461 4970 1061 1372 1890 3598 1031 772 2400 87 635 296 670 3511 205 3465 2253 1212 494 718 279 313 106 76 207 237 181 178 2117 2047 616 624 469 301 228 62 155 168 55 113 72 728 678 1431 490 404 155 57 98 1118 65 1053 1022 536 941 252 689 314 293 64 375 56 93 171 144 116 91 111 137 486 52 434 62 391 121 158 73 166 86 65 76 55 293 47 246
is_linear=0
shrinkage=0.071909


Tree=7
num_leaves=88
num_cat=0
split_feature=8 7 8 8 7 7 0 4 7 7 13 8 0 7 14 18 9 3 2 15 15 6 2 6 9 13 15 0 10 3 14 1 4 0 8 7 8 6 2 9 9 34 14 3 13 6 6 6 9 9 10 2 13 7 4 6 10 15 1 10 33 6 4 3 15 15 1 3 2 10 10 5 7 6 7 10 9 6 2 5 4 3 7 15 10 14 15
split_gain=40.832 4.36101 4.22447 7.16603 8.12536 6.33982 2.08327 2.04199 1.92263 1.79216 1.81411 1.54547 1.52378 1.67576 1.25853 1.19378 1.10564 1.07924 1.0417 0.990149 1.42647 1.02974 0.964883 0.911567 0.811413 0.807617 0.780695 0.909256 0.766919 0.777837 0.754842 0.976135 0.77829 0.76515 0.752299 0.84705 1.2999 0.844651 1.20107 0.83624 0.734119 1.05807 0.730603 0.725697 0.710199 0.809274 0.69346 1.02132 0.783971 0.660937 0.676102 1.02763 0.747929 0.657048 0.651026 0.650055 0.645876 0.623672 0.612231 0.660703 0.684983 0.605329 0.588259 0.587452 0.583496 0.769261 0.74547 0.687301 0.872401 0.956515 0.724765 1.20494 1.17168 1.06091 0.580657 0.577442 0.575059 0.572871 0.569186 0.566862 0.560375 0.548726 0.806867 0.887342 0.566634 0.6941 1.01341
threshold=3.5000000000000004 22.500000000000004 2.5000000000000004 1.5000000000000002 13.500000000000002 22.500000000000004 24.543478012084964 22.500000000000004 22.500000000000004 1.0000000180025095e-35 3.4528627395629887 5.5000000000000009 5874.5302734375009 16.500000000000004 0.15550000220537188 1.0000000180025095e-35 6.8287594318389901 70.773975372314467 17.44999980926514 677.13998413085949 2.995000004768372 4.2550001144409189 346.65000915527349 6.305000066757203 1.1325030326843264 2.3249017000198369 287.79998779296881 4913.9689941406259 0.05023364536464215 4.0055539608001718 1.3355000019073489 8.4499998092651385 105.50000000000001 6502.9072265625009 4.5000000000000009 1.5000000000000002 5.5000000000000009 7.1749999523162851 62.750000000000007 0.12532051652669909 13.653391838073732 1.0000000180025095e-35 1.2695000171661379 42.907920837402351 2.9314879179000859 6.1349999904632577 5.2349998950958261 6.3849999904632577 16.06811618804932 0.13487526029348376 3.6037544012069707 305.34999084472662 6.695955991744996 1.0000000180025095e-35 16.500000000000004 2.2400000095367436 7.1753787994384775 10.13000011444092 11.750000000000002 13.783421516418459 1.0000000180025095e-35 2.6099998950958256 20.500000000000004 103.24600982666017 635.87500000000011 88.86999893188478 7.7500000000000009 121.96021652221681 35.45000076293946 8.2272701263427752 9.6660413742065447 21.500000000000004 14.500000000000002 6.5850000381469735 8.5000000000000018 15.948844909667971 13.327198028564455 4.7850000858306894 144.94999694824222 13.500000000000002 90.500000000000014 62.671411514282234 5.5000000000000009 938.44000244140636 11.150027751922609 2.27649998664856 54.07500076293946
decision_type=2 2 2 2 2 2 2 2 2 2 2 2 2 2 2 2 2 2 2 2 2 2 2 2 2 2 2 2 2 2 2 2 2 2 2 2 2 2 2 2 2 2 2 2 2 2 2 2 2 2 2 2 2 2 2 2 2 2 2 2 2 2 2 2 2 2 2 2 2 2 2 2 2 2 2 2 2 2 2 2 2 2 2 2 2 2 2
left_child=2 7 3 8 -5 6 -6 25 53 10 -4 -3 14 -14 18 19 24 23 -11 20 21 -9 26 77 -15 43 -19 -28 -22 80 33 -32 -33 -29 37 36 -36 -21 -39 -37 62 46 -25 -2 -7 -46 -42 -48 -49 -31 51 52 57 -1 -27 -41 -18 -51 59 60 -57 -56 -16 -55 65 67 -67 68 -52 -70 72 -72 -71 -73 -66 -69 -61 78 -8 -12 -30 82 -64 84 85 86 -84
right_child=1 11 9 4 5 44 17 15 -10 12 79 -13 13 16 40 -17 56 22 -20 34 28 -23 -24 42 -26 54 27 30 29 49 31 32 -34 -35 35 39 -38 38 -40 55 41 -43 -44 -45 45 -47 47 48 -50 50 64 -53 -54 63 61 58 -58 -59 -60 76 -62 -63 81 -65 74 66 -68 75 69 70 71 73 -74 -75 -76 -77 -78 -79 -80 -81 -82 -83 83 -85 -86 -87 -88
leaf_value=8.6157185978049667e-06 0.0034536453974794196 0.01501118676893182 -0.021758686603984286 -0.021943468312787016 -0.017453908843367408 -0.021407618509870462 -0.017210242543960558 0.018101487114816048 0.0015143804696563889 -0.019162299982318484 -0.009961689399278776 -0.0012089763339505162 -0.0064622486878558923 -0.0029560629823876684 -0.0065293286331790639 0.013590420313535427 -0.013707637892164051 0.0073671864246368825 -0.0027370163834489459 0.00063457620758871876 -0.0088628895742494281 0.0055096454066598521 -0.011767705568068826 -0.01893609440279985 0.012424339566847048 0.0099968462360539457 -0.013752563440564598 0.010217686053745515 -0.012684270654821615 0.0093090618482483938 -0.014119831072429862 0.0089270486814240751 -0.0070622460336782888 -0.0019499758503025157 -0.00026016269489916895 0.00024990112926872535 0.015511231125669819 -0.0064008700266823997 0.0096811629231671349 -0.006315929685404207 -0.015523752083091306 0.01154843669808768 -0.0055635387564927996 0.013577613651612315 -0.020809418654120719 -0.00094009426391680599 0.0052242490122037756 -0.015607976578731912 0.0017684851591298666 0.0082900641344009884 0.0083294275470780828 -0.012620544469997563 0.013329782094094016 -0.0059107076786325628 -0.0065902298637459476 0.0072239646984770178 0 -0.0037404501579673356 0.018330025883584448 -0.00669026695671277 0.00097320819265747009 0.0052941569176104836 0.0075653139950213281 -0.0033657693214276026 -0.01001188938748223 0.010853291537125449 0.0037599448392594595 0.0056030318700813365 0.0034191763831046655 -0.002472982301401611 0.0035605555925332755 -0.012649304108730502 -0.020521941802554854 0.00083035182916794351 0.0014084150983951528 -0.0041280925535759306 0.0047283004669227561 0.0019741854841158644 -0.0024904320835418257 0.0055115012826838349 0.00018605442858394121 0.0044292437345814393 -0.0073119204300694362 -0.013261328061594442 -0.0084670946921509994 0.01086272926156698 0.0050372633975925051
leaf_weight=154 46 263 45 257 52 141 21 45 316 22 23 34 435 25 36 62 24 82 226 379 33 137 32 42 59 83 25 61 30 70 32 33 30 47 37 161 97 29 135 22 28 22 44 195 21 22 46 36 21 28 57 37 21 1137 33 764 70 108 21 38 104 67 65 810 36 86 744 239 163 50 125 66 30 55 63 36 57 68 40 26 41 457 62 29 33 35 77
leaf_count=154 46 263 45 257 52 141 21 45 316 22 23 34 435 25 36 62 24 82 226 379 33 137 32 42 59 83 25 61 30 70 32 33 30 47 37 161 97 29 135 22 28 22 44 195 21 22 46 36 21 28 57 37 21 1137 33 764 70 108 21 38 104 67 65 810 36 86 744 239 163 50 125 66 30 55 63 36 57 68 40 26 41 457 62 29 33 35 77
internal_value=-3.26699e-05 0.00469428 -0.00437097 -0.00586528 -0.0108267 -0.00722052 -0.0036809 0.00415159 -0.00370882 -0.00164573 -0.0113295 0.0131453 -0.00114078 -0.00405585 0.000352338 0.00367103 0.00180993 -0.00239027 -0.00420492 0.00352198 0.00252423 0.00863775 0.000111741 -0.00638265 0.00781503 0.00891233 0.00134665 -0.000806919 0.00199763 0.00217081 0.000774242 -0.00388542 0.00127067 0.00489777 0.004765 0.00570496 0.0111365 0.00250799 0.00682107 0.00507898 0.00154862 -0.00300453 -0.0121255 0.0116563 -0.0189213 -0.0107061 -0.00546899 -0.00270962 -0.00915928 0.0024325 0.00218351 -0.0018361 0.000688469 -0.00449568 0.005284 0.00584917 -0.0035279 -0.0012439 0.00612388 0.00585491 0.00647811 0.00134556 0.00242935 -0.00485333 0.00263064 0.00295295 0.00449815 0.00138755 -8.42226e-05 -0.00107043 -0.00332344 -0.00137713 -0.00927487 -0.00650012 -0.00271746 0.00431941 0.00013272 -0.00253331 -0.00760186 -0.00169691 -0.00521453 0.00285836 0.000464456 -0.00147998 0.000157673 0.00180879 -0.000451782
internal_weight=10296 4927 5369 3467 1050 793 609 4630 2417 1902 94 297 1808 613 1195 4206 178 557 248 4144 2300 182 342 215 84 424 310 228 2118 2085 203 95 63 108 1844 1301 134 543 164 1167 947 153 86 241 184 43 131 103 57 2014 1944 194 157 2101 183 1006 94 136 984 963 868 100 794 1947 1750 1651 830 821 546 489 326 246 80 121 99 275 95 129 61 49 71 758 301 236 207 174 139
internal_count=10296 4927 5369 3467 1050 793 609 4630 2417 1902 94 297 1808 613 1195 4206 178 557 248 4144 2300 182 342 215 84 424 310 228 2118 2085 203 95 63 108 1844 1301 134 543 164 1167 947 153 86 241 184 43 131 103 57 2014 1944 194 157 2101 183 1006 94 136 984 963 868 100 794 1947 1750 1651 830 821 546 489 326 246 80 121 99 275 95 129 61 49 71 758 301 236 207 174 139
is_linear=0
shrinkage=0.071909


Tree=8
num_leaves=88
num_cat=0
split_feature=8 7 8 8 7 7 0 5 7 7 4 0 8 0 7 14 5 7 10 3 4 12 18 15 15 4 0 3 2 9 9 15 2 2 5 3 13 0 12 4 4 10 15 0 10 13 5 0 13 12 7 0 0 12 0 0 7 3 9 4 7 10 12 7 12 14 7 9 5 0 3 2 0 2 3 2 13 13 10 0 0 10 10 12 9 2 12
split_gain=35.1789 3.75501 3.63863 6.17532 6.99606 5.46072 1.79383 1.7597 1.65632 1.56771 1.92407 1.37597 1.3321 1.30471 1.37897 1.02925 0.997168 1.12548 0.946103 1.02245 0.859775 0.816226 0.779976 0.825323 0.919508 0.773346 0.732091 0.722791 0.820006 0.677881 0.671477 1.15638 1.01045 0.744888 0.673432 0.665747 0.64613 1.02343 0.653471 0.803747 0.642642 0.624392 0.619914 0.815471 0.631843 0.678192 0.619871 0.612526 0.609857 0.596943 0.592449 0.591085 0.588326 0.849433 0.576067 0.841271 0.895405 0.995741 0.757764 0.723871 0.657478 0.712239 0.595199 0.644864 0.567629 1.02574 1.58318 0.866914 0.764911 1.33466 0.645301 0.711792 1.02754 0.88938 0.61149 0.619199 0.559679 0.644233 0.761773 0.557233 0.55284 0.609924 0.787413 0.547797 0.537578 0.53017 0.62127
threshold=3.5000000000000004 22.500000000000004 2.5000000000000004 1.5000000000000002 13.500000000000002 22.500000000000004 24.543478012084964 6.5000000000000009 22.500000000000004 1.5000000000000002 65.500000000000014 7038.3977050781259 5.5000000000000009 4195.0717773437509 13.500000000000002 0.10050000250339509 18.500000000000004 16.500000000000004 0.059234892949461944 70.773975372314467 21.500000000000004 -0.2904545366764068 1.0000000180025095e-35 2.995000004768372 92.424999237060561 288.50000000000006 2.7702957391738896 120.24144363403322 45.049999237060554 9.6037416458129901 6.7716116905212411 301.47000122070318 152.05000305175784 235.84999847412112 11.500000000000002 94.115352630615249 3.3213664293289189 881.74456787109386 -0.71609193086624134 98.500000000000014 64.500000000000014 0.23821428418159488 512.23999023437511 15.443639278411867 5.5503520965576181 6.8964669704437265 12.500000000000002 844.04238891601574 2.9314879179000859 0.057321429252624519 6.5000000000000009 5743.7670898437509 214.36454772949222 -0.12717802822589871 4998.4716796875009 7023.4245605468759 8.5000000000000018 56.589332580566413 10.536068439483644 144.50000000000003 10.500000000000002 0.60109892487525951 -1.0000000180025095e-35 5.5000000000000009 0.12532051652669909 0.91249999403953563 11.500000000000002 6.7169539928436288 21.500000000000004 3606.9143066406255 138.25354003906253 176.65000152587893 6071.4055175781259 274.05000305175787 153.43975067138675 36.95000076293946 8.7306180000305194 5.0864944458007821 4.8137261867523202 6527.2124023437509 5528.7482910156259 2.9754575490951543 6.5279221534729013 1.0188469886779787 4.7702941894531259 127.35000228881837 0.19753049314022067
decision_type=2 2 2 2 2 2 2 2 2 2 2 2 2 2 2 2 2 2 2 2 2 2 2 2 2 2 2 2 2 2 2 2 2 2 2 2 2 2 2 2 2 2 2 2 2 2 2 2 2 2 2 2 2 2 2 2 2 2 2 2 2 2 2 2 2 2 2 2 2 2 2 2 2 2 2 2 2 2 2 2 2 2 2 2 2 2 2
left_child=2 7 3 8 -5 6 -6 -2 42 10 -4 22 -3 15 54 49 -16 35 -8 47 -13 29 23 40 25 27 -17 28 -25 -22 32 -32 -21 -34 -33 -18 -28 38 39 -38 -9 -29 43 -1 45 -45 -36 -20 -7 -11 -44 -49 53 -40 -15 56 58 -58 62 -60 61 -57 63 -56 68 66 -66 80 -26 -70 71 -71 73 -73 -69 -76 77 78 -42 -74 -67 -82 83 -83 -55 -64 -87
right_child=1 12 9 4 5 48 18 11 -10 13 -12 20 -14 14 16 26 17 -19 19 30 21 -23 -24 24 64 -27 36 41 -30 -31 31 34 33 -35 46 -37 37 -39 52 -41 76 -43 50 44 -46 -47 -48 51 -50 -51 -52 -53 -54 84 55 60 57 -59 59 -61 -62 -63 85 -65 65 67 -68 74 69 70 -72 72 79 -75 75 -77 -78 -79 -80 -81 81 82 -84 -85 -86 86 -88
leaf_value=-0.00091388271124941416 0.0086792602492327467 0.013931749829360152 -0.017884946847147545 -0.02036553937499163 -0.01619883096577775 -0.019868224695898426 -0.017205486738691579 0.012997913475181202 0.0014054830356244289 -0.0077724609843292866 -0.0017227979385809639 0.014576324030814424 -0.0011220417377314738 -0.010411614000076388 0.002766832193250939 -0.008898367207664664 -0.021278338218320363 -0.00012856327872904638 -0.011922129986931903 0.012834570226747844 0.0065999084720596785 0.0038436987564815276 0.011672935892842348 0.0060445967938285274 0.0053017779096937992 -0.0083411264623694005 0.0087163033366263378 -0.0080146899905438676 -0.00115586832523697 0.01636228147065771 0.0069424470087446491 0.0051437188632474443 -0.011425128500463911 0.0044975962895268864 -0.018643985298823842 -0.0038839511859825363 -0.0012769489166579513 0.0088245377173151954 -0.009417569916307187 0.017843243728496126 -0.0013188120763368938 0.0047544968389357685 -0.00079822037037020834 -0.012560473061041667 -0.0054767378996440526 -1.3661672013862628e-05 -0.0049466403924617519 0.003046067451926746 -0.0099406827166166074 0.0046618947802318633 -0.0042047504364109067 -0.0063638872392640898 -0.0037485441138170195 -0.0046578319040217406 0.0016271573103417477 -0.0007195117004502972 -0.0145342917763736 -0.0026151619249228219 -0.014193688001661226 0.00091779925167882899 -0.00034882870745623311 -0.015682448902664355 -0.0064535346823307504 0.016053837047414417 0.0034852815800287366 0.013683419651788077 -0.012821522732813071 -0.00062328115613452561 0.0097468220055012232 0.0052984703025100504 -0.0036364259484456757 -0.011172156561635456 0.010676230592560223 0.0028249726128454413 0.00073313209834581408 0.015661817321075244 0.013180162469512844 -0.008694252358829261 0.014872523056667001 -0.00078982989807835672 -7.4074403814503411e-05 0.0032984548088812946 -0.0035441690149128004 0.0145683865188308 0.0081362404230399931 -0.0051157440962007134 0.010646547321980244
leaf_weight=157 361 263 65 257 52 141 21 69 316 83 93 63 34 80 318 26 26 104 57 51 112 386 52 95 1006 46 98 21 587 56 58 27 22 49 21 21 22 95 24 23 37 311 390 140 556 27 98 52 43 26 831 101 163 21 33 22 51 128 29 37 34 70 40 32 64 42 59 311 98 185 137 63 42 37 33 26 27 24 25 45 85 35 25 65 84 21 33
leaf_count=157 361 263 65 257 52 141 21 69 316 83 93 63 34 80 318 26 26 104 57 51 112 386 52 95 1006 46 98 21 587 56 58 27 22 49 21 21 22 95 24 23 37 311 390 140 556 27 98 52 43 26 831 101 163 21 33 22 51 128 29 37 34 70 40 32 64 42 59 311 98 185 137 63 42 37 33 26 27 24 25 45 85 35 25 65 84 21 33
internal_value=-3.03397e-05 0.00435719 -0.00405716 -0.00544401 -0.0100498 -0.00670324 -0.0034178 0.00385355 -0.00344204 -0.00152779 -0.00838875 0.00344485 0.0121994 -0.000904675 -0.00244972 0.00159823 0.000476861 -0.00432801 -0.00221978 -0.00162764 0.00658913 0.005676 0.00291289 0.00278562 0.00253319 0.000770791 0.00285383 0.00118679 -0.000148947 0.00986999 0.000886001 -0.00162787 0.00511142 -0.000398614 -0.00505084 -0.0135634 0.00343541 0.00223123 0.000364634 0.0084363 0.00751149 0.00393874 -0.0041724 -0.00563115 -0.00665181 -0.010548 -0.00738637 -0.0055425 -0.0175628 -0.00478193 -0.00311886 -0.00314826 -0.000870149 0.00274617 -0.00470421 -0.00383767 -0.00222889 -0.00602609 0.000780117 -0.00568167 -0.0089747 -0.0121334 0.00347919 0.00877074 0.00332432 0.00167656 -0.00431497 0.00286568 0.00408371 0.00206056 0.000575427 0.00213376 -0.000982822 -0.0059665 0.000642081 0.00735728 0.00413766 0.00126757 0.00516692 0.00471482 0.00611987 0.0045944 0.00779033 0.0106507 0.00555195 -0.000151452 0.00446728
internal_weight=10296 4927 5369 3467 1050 793 609 4630 2417 1902 158 4269 297 1744 1079 665 469 151 557 536 617 554 3652 3600 3418 1060 556 1014 682 168 326 204 122 71 146 47 530 432 337 45 182 332 2101 880 723 167 119 210 184 109 1221 153 292 129 610 530 404 179 225 66 126 92 159 65 2358 745 123 622 1613 607 509 372 187 100 370 59 113 86 62 87 252 210 125 100 105 94 54
internal_count=10296 4927 5369 3467 1050 793 609 4630 2417 1902 158 4269 297 1744 1079 665 469 151 557 536 617 554 3652 3600 3418 1060 556 1014 682 168 326 204 122 71 146 47 530 432 337 45 182 332 2101 880 723 167 119 210 184 109 1221 153 292 129 610 530 404 179 225 66 126 92 159 65 2358 745 123 622 1613 607 509 372 187 100 370 59 113 86 62 87 252 210 125 100 105 94 54
is_linear=0
shrinkage=0.071909


Tree=9
num_leaves=88
num_cat=0
split_feature=8 7 8 8 7 7 0 5 7 7 4 0 8 0 7 6 4 14 13 3 8 0 2 6 11 3 5 7 32 3 6 11 11 11 1 7 0 6 4 11 11 9 2 9 6 14 2 11 9 7 6 14 4 14 13 0 0 9 5 0 6 3 7 4 3 13 6 14 9 7 14 14 0 3 4 11 9 1 14 4 6 3 9 3 7 0 14
split_gain=30.3095 3.23323 3.13316 5.31948 6.02469 4.70367 1.54488 1.51523 1.42716 1.35042 1.65673 1.18546 1.14825 1.12417 1.18796 1.22196 0.905629 0.886041 0.857887 0.804624 0.803277 0.977376 0.8001 0.787979 0.78252 0.772156 0.780296 0.906795 0.776649 0.69689 0.687903 0.663441 0.653962 0.867483 0.637944 0.634469 0.630747 0.62999 0.938049 0.593481 0.589586 1.44843 1.02098 0.767651 0.865208 0.612207 0.584164 0.582012 0.845496 0.580422 0.575267 0.818739 0.749946 0.761959 0.556475 0.881771 0.547158 0.546921 0.540683 0.537418 0.552001 0.532603 0.57618 0.525592 0.537324 0.52409 0.697075 0.517416 0.516773 0.515383 0.498331 0.460357 0.725941 0.978611 0.590113 0.582848 0.501495 0.643683 0.466693 0.453359 0.508617 0.492545 0.450578 0.450295 0.437484 0.435105 0.551414
threshold=3.5000000000000004 22.500000000000004 2.5000000000000004 1.5000000000000002 13.500000000000002 22.500000000000004 24.543478012084964 6.5000000000000009 22.500000000000004 1.5000000000000002 65.500000000000014 7038.3977050781259 5.5000000000000009 4195.0717773437509 13.500000000000002 6.2950000762939462 38.500000000000007 0.10050000250339509 5.6885511875152597 70.773975372314467 4.5000000000000009 12392.243652343752 346.65000915527349 6.3849999904632577 2.5206356048583989 4.0055539608001718 21.500000000000004 1.0000000180025095e-35 1.0000000180025095e-35 7.5579988956451425 7.5750000476837167 14.309326171875002 0.084391243755817427 0.028906779363751415 11.050000190734865 7.5000000000000009 2.7702957391738896 4.4649999141693124 20.500000000000004 5.872636318206788 3.7747396230697636 3.5027778148651127 197.15000152587893 9.9465475082397479 6.2550001144409189 1.9434999823570254 191.05000305175784 2.2606017589569096 10.966091632843019 4.5000000000000009 6.2149999141693124 1.4124999642372134 87.500000000000014 1.4714999794960024 3.3213664293289189 881.74456787109386 6496.5585937500009 11.018082618713381 25.500000000000004 5726.6877441406259 4.5850000381469735 124.31275558471681 8.5000000000000018 20.500000000000004 72.972080230712905 2.9314879179000859 6.1349999904632577 1.2695000171661379 9.1988887786865252 11.500000000000002 0.014500000048428776 1.9144999980926516 205.58503723144534 80.320362091064467 105.50000000000001 9.0975475311279315 8.1530833244323748 9.8499999046325701 1.5354999899864199 129.50000000000003 6.7249999046325692 87.909820556640639 11.241101264953615 112.69020843505861 17.500000000000004 8454.1787109375018 2.3034999370574956
decision_type=2 2 2 2 2 2 2 2 2 2 2 2 2 2 2 2 2 2 2 2 2 2 2 2 2 2 2 2 2 2 2 2 2 2 2 2 2 2 2 2 2 2 2 2 2 2 2 2 2 2 2 2 2 2 2 2 2 2 2 2 2 2 2 2 2 2 2 2 2 2 2 2 2 2 2 2 2 2 2 2 2 2 2 2 2 2 2
left_child=2 7 3 8 -5 6 -6 -2 63 10 -4 25 68 17 15 18 85 61 24 23 21 -13 40 58 59 57 27 39 32 -28 50 34 33 -29 49 -30 -19 38 -26 -27 41 42 -21 45 46 -42 -45 -22 -49 -17 52 -52 -18 -54 -38 71 -20 -9 84 -15 -61 62 -11 64 69 -7 -67 -25 -3 -1 -31 72 73 75 -73 -56 -74 -78 -79 81 -81 -12 -53 -40 -8 86 -16
right_child=1 12 9 4 5 65 19 11 -10 13 79 20 -14 14 16 31 30 36 56 22 47 -23 -24 67 37 26 29 28 35 70 -32 -33 -34 -35 -36 -37 54 -39 83 -41 43 -43 -44 44 -46 -47 -48 48 -50 -51 51 82 53 -55 55 -57 -58 -59 -60 60 -62 -63 -64 -65 -66 66 -68 -69 -70 -71 -72 74 76 -75 -76 -77 77 78 -80 80 -82 -83 -84 -85 -86 -87 -88
leaf_value=0.00066897721455380762 0.0080551442593642351 0.014327204378774726 -0.016598870653270092 -0.018901077067585991 -0.015034003278253825 -0.018439526753524286 -0.0095367334991957667 -0.0066235270311348427 0.00130441635492107 0.0083446196348767286 0.010618175883722243 0.0039283477349053393 -0.0010413582812299868 -0.016941260199659344 0.0077050371336540918 0.0083654692278145211 -0.0056852266089840384 -0.0082585103443033828 -0.0083087311545282337 0.011294108919797149 0.011790638782159494 -0.012661544041940694 -0.010717688370004282 -0.017090196922636237 -0.0081780357822824334 0.014786899538728748 0.012334487782317089 0.0059808660441657436 0.00083007282298333562 0.0071415258214785216 0.0037139007339496125 0.009975460526098193 0.0033027702797653433 -0.0094202132520807783 -0.0099838440268190422 0.013040766024724157 0.0080895267618303381 -0.0074473768933030846 0.0033596531999405127 0.001071465294340363 0.0037647332914486366 -0.018449934905680372 -0.0088171790755785708 -0.013765610081912225 0.0052188649403384531 0.015139189593475441 0.0012578159108902322 0.003981400219409066 0.012686649748151136 -0.0019725065295298091 -0.013463561141706468 0.0073691800128522248 0.0094156367762501716 -0.0042188990012569623 -0.0063589616915714379 0.0081899783443052029 -0.018782048754245023 0.0043151014640721696 0.0071979986362079289 -0.0090390776016554299 0.0028434790001237633 -0.011174801237575872 -0.0053914913679086358 -0.0042346576797299227 0.0026954448009040483 -0.01859827667210269 -0.00015769107104698368 -0.0055267828935179602 0.0055138763033775349 -0.011275721364583822 0.00064344140325578664 0.00083952754961216151 -0.0077652237731292446 0.013175298628530322 -0.013244027511698142 0.0086562192539887343 0.0092754924739021794 -0.0062579257049763639 0.0048631130223211324 -0.01452902613428186 0.0002282340705039517 -0.0044047535874629142 -0.0073542466390957807 0.017136784172600079 -0.00022479579075203288 0.012222452866985927 -0.0067796934743574178
leaf_weight=38 361 221 65 257 52 141 47 76 316 24 24 144 34 30 38 35 79 26 71 30 129 21 32 39 24 60 29 31 32 65 105 28 2146 48 40 74 98 42 31 23 91 25 23 33 52 34 22 247 76 142 54 21 53 35 34 95 42 34 26 77 27 39 46 1908 119 21 22 43 42 36 1034 35 46 53 27 22 35 55 30 22 26 21 22 21 60 41 21
leaf_count=38 361 221 65 257 52 141 47 76 316 24 24 144 34 30 38 35 79 26 71 30 129 21 32 39 24 60 29 31 32 65 105 28 2146 48 40 74 98 42 31 23 91 25 23 33 52 34 22 247 76 142 54 21 53 35 34 95 42 34 26 77 27 39 46 1908 119 21 22 43 42 36 1034 35 46 53 27 22 35 55 30 22 26 21 22 21 60 41 21
internal_value=-2.83262e-05 0.00404422 -0.0037661 -0.00505304 -0.00932787 -0.00622195 -0.00317235 0.00357682 -0.00319484 -0.00141884 -0.00778674 0.0031975 0.0113215 -0.000840394 -0.00227464 -0.0043672 0.000441339 0.00148273 -0.00700452 -0.00206016 0.00611625 0.00180066 9.91666e-05 -0.00550742 -0.00465287 0.00270364 0.00288831 0.00361853 0.00335389 0.00132321 -0.00119752 -0.000427215 0.00306561 -0.00334291 -0.00178184 0.00937977 0.00264792 -0.00035902 0.00352309 0.0110185 0.00122439 -0.00416959 0.00251613 0.00304941 -0.00140065 0.00688003 -0.00770769 0.00768572 0.00603799 5.66459e-05 -0.00316106 -0.0075678 -0.000585422 0.00396244 0.00318801 0.00206989 -0.0122252 -0.00321819 -0.00206441 -0.00841405 -0.00592848 -0.00443631 -0.000643746 -0.00387283 -0.000281893 -0.0163009 -0.00922587 -0.0110591 0.0129299 -0.00510588 0.0010302 0.000336703 0.00160611 0.00616999 -0.00525059 -0.000412373 -0.00137456 0.00105295 -0.0023014 -0.00159891 -0.00647992 0.00354811 -0.000101566 0.00897505 -0.0043401 0.00651543 0.00250413
internal_weight=10296 4927 5369 3467 1050 793 609 4630 2417 1902 158 4269 297 1744 1079 610 469 665 365 557 617 165 342 215 252 3652 3542 2414 2331 1128 369 245 2225 79 217 106 556 118 76 83 310 78 53 232 107 125 55 452 323 177 264 97 167 88 530 432 113 110 133 134 104 109 70 2101 193 184 43 82 263 74 1099 337 275 109 62 56 166 120 85 93 48 45 43 52 107 100 59
internal_count=10296 4927 5369 3467 1050 793 609 4630 2417 1902 158 4269 297 1744 1079 610 469 665 365 557 617 165 342 215 252 3652 3542 2414 2331 1128 369 245 2225 79 217 106 556 118 76 83 310 78 53 232 107 125 55 452 323 177 264 97 167 88 530 432 113 110 133 134 104 109 70 2101 193 184 43 82 263 74 1099 337 275 109 62 56 166 120 85 93 48 45 43 52 107 100 59
is_linear=0
shrinkage=0.071909


Tree=10
num_leaves=88
num_cat=0
split_feature=8 8 8 13 13 0 4 15 15 0 6 13 14 13 10 15 11 5 3 10 6 15 15 3 15 3 15 8 6 6 10 13 4 15 15 13 14 3 0 6 3 3 14 5 11 11 15 0 14 12 6 4 0 6 3 11 30 11 14 10 11 13 3 11 13 3 0 0 0 12 0 15 0 3 12 10 6 3 12 10 14 13 13 12 5 3 11
split_gain=26.1126 2.69862 4.58364 2.23023 1.8471 1.10448 1.05294 1.02365 0.928858 0.883976 0.934973 0.947541 0.818461 0.817818 0.815732 0.810947 0.796661 0.722339 0.671175 0.879651 0.657562 0.696007 0.631955 0.728105 0.923583 0.75198 0.682761 0.666274 0.850591 0.635641 0.633739 0.625081 0.59794 0.825667 0.794753 0.651085 1.00172 1.00879 1.27687 0.878602 0.83838 0.923815 0.656827 0.584299 0.58274 0.653694 0.578849 0.771059 0.578679 0.577229 0.57218 0.568925 0.727149 0.567732 0.675053 0.657358 0.562591 0.561694 0.55905 0.552604 0.874747 0.656469 0.640898 0.629398 0.551679 0.550262 0.904801 0.660925 0.963858 0.549515 0.569452 0.544293 0.604589 0.531805 0.529761 0.513544 0.499928 0.592554 0.579491 0.499131 0.495482 0.495064 0.657452 0.553244 0.559196 0.492839 0.491156
threshold=3.5000000000000004 2.5000000000000004 1.5000000000000002 1.8139178156852724 2.5407447814941411 5846.8513183593759 19.500000000000004 10.13000011444092 535.20999145507824 5874.5302734375009 3.1149998903274541 0.64809760451316845 0.15550000220537188 13.901220321655275 3.0458195209503178 912.83499145507824 16.72812652587891 6.5000000000000009 65.298854827880874 14.900854110717775 5.6250000000000009 5191.3049316406259 677.13998413085949 104.32191467285158 3.6900000572204594 105.74867248535158 6.805000066757203 4.5000000000000009 7.1749999523162851 7.7950000762939462 13.783421516418459 4.5849983692169198 85.500000000000014 650.05999755859386 558.14001464843761 7.2265431880950937 0.96750000119209301 43.598423004150398 1178.7597656250002 6.0099999904632577 44.479618072509773 40.089092254638679 1.2524999976158144 8.5000000000000018 1.1705980300903323 3.0439692735672002 5687.9299316406259 6115.4560546875009 1.3355000019073489 -0.049390243366360657 6.0950000286102304 134.50000000000003 7967.9326171875009 3.5099999904632573 65.298854827880874 4.6725704669952401 1.0000000180025095e-35 7.0008778572082528 1.7635000348091128 11.150027751922609 11.564034938812258 9.847513675689699 42.234001159667976 10.110008239746096 9.0249724388122576 67.515853881835952 5723.9082031250009 4897.4375000000009 122.63780593872072 1.3011363148689272 114.68912506103517 635.87500000000011 5779.4885253906259 147.03868103027347 -0.71609193086624134 2.3678257465362553 5.8849999904632577 75.297531127929702 -0.032843139022588723 10.602444648742678 1.2245000004768374 5.791295289993287 7.2265431880950937 1.3843790888786318 11.500000000000002 120.24144363403322 14.560906887054445
decision_type=2 2 2 2 2 2 2 2 2 2 2 2 2 2 2 2 2 2 2 2 2 2 2 2 2 2 2 2 2 2 2 2 2 2 2 2 2 2 2 2 2 2 2 2 2 2 2 2 2 2 2 2 2 2 2 2 2 2 2 2 2 2 2 2 2 2 2 2 2 2 2 2 2 2 2 2 2 2 2 2 2 2 2 2 2 2 2
left_child=1 2 14 5 49 7 74 73 -9 12 -11 -12 65 15 -1 76 18 -5 -6 20 57 81 23 24 58 -25 -26 28 44 -30 56 -31 34 35 53 40 -37 38 39 -38 41 42 -34 -17 -24 75 51 -48 80 -4 -44 52 -47 -28 55 -55 -29 -20 -19 61 63 64 -62 -61 79 -8 67 68 -67 70 -42 -27 -73 -2 -3 -46 78 -78 -13 -14 -40 83 -83 84 -22 -16 -39
right_child=3 6 4 17 16 -7 9 8 -10 10 11 13 59 -15 85 43 -18 22 19 -21 21 -23 27 25 26 71 32 30 29 31 -32 -33 33 -35 -36 36 37 86 48 -41 69 -43 50 -45 45 46 47 -49 -50 -51 -52 -53 -54 54 -56 -57 -58 -59 -60 60 62 -63 -64 -65 -66 66 -68 -69 -70 -71 -72 72 -74 -75 -76 -77 77 -79 -80 -81 -82 82 -84 -85 -86 -87 -88
leaf_value=-0.0013219890114115347 0.012082999633668939 -0.018615085214956768 -0.008317767234837143 0.0071189157569781841 -0.010100352709700475 0.0096130594707758508 0.0012383387525095209 -0.0035581393416019838 0.0048105798947845309 0.0036418983378651774 -0.01866364472969578 -0.0037300710920940908 0.0017445786024454244 0.0092149228472375253 -0.0049722068574098209 0.0068654444810505024 0.0036117950972094312 0.012353785445902593 -0.013044120150763778 -0.017777520124509592 -0.00062225935308516972 0.0080161285852683624 0.0072292788647042973 0.016440210399109197 -0.0081136345606009266 0.0036725030652821956 0.002367187427064996 0.0047417206837370119 0.013499600228137827 0.0091075422426267899 -0.00042681322238089322 -0.0017712319330025919 0.010557975010144173 -0.0099386157180093079 0.0070290718039059457 0.0092354449598465518 -0.016216995728524079 -0.0035033990759893306 0.0085790972243875614 0 -0.00074422532717917909 -0.013378544789643768 0.0094483337485922313 -0.0030256457150761272 -0.00074534042886485524 0.0086991710713056353 -0.016839505803512171 -1.2031072475458927e-05 0.012826043871172851 -0.015067392379494867 -0.0020120229924848049 -0.0049895959761056029 -0.0039898126968672034 -0.018884692175373662 0.00015683467056087024 -0.0060633660155366411 0.0099483700022601675 -0.0023263370919824325 0.0010603320212860107 -0.0019194441169799081 -0.0046662604723786139 0.013031704479808424 0.0047905948486538083 -0.014567531845977928 -0.0096738884545194918 -0.014141937690832046 0.0039094750126686994 -0.019088457272307419 -0.00040710109969348138 -0.0021817386298345009 0.010718125325063157 -0.012974144184540466 0.0030278552466817604 0.0020247719239792974 -0.0057267717077770239 -0.015760543007960037 0 -0.010197561566598215 -0.016036174568154773 0.012129316169733676 -0.0058081284489863889 0.0049169149803663008 -0.0052135612520610025 0.0021268440098181972 -0.012840962539829455 -0.0021691830579851587 -0.015196209717225663
leaf_weight=952 110 21 94 212 256 432 89 97 232 88 23 31 625 24 972 36 37 56 72 28 27 28 42 23 47 832 52 911 42 49 107 61 41 31 39 56 21 176 28 97 26 21 28 213 21 78 22 40 58 234 115 41 33 29 55 76 123 40 39 45 58 28 102 38 21 45 39 25 65 26 145 22 27 37 83 28 66 54 58 25 22 58 77 26 73 493 21
leaf_count=952 110 21 94 212 256 432 89 97 232 88 23 31 625 24 972 36 37 56 72 28 27 28 42 23 47 832 52 911 42 49 107 61 41 31 39 56 21 176 28 97 26 21 28 213 21 78 22 40 58 234 115 41 33 29 55 76 123 40 39 45 58 28 102 38 21 45 39 25 65 26 145 22 27 37 83 28 66 54 58 25 22 58 77 26 73 493 21
internal_value=-2.61963e-05 -0.00349557 -0.00468996 0.00375387 -0.00865822 0.00697485 -0.00131701 0.00457488 0.00233508 -0.000908432 -0.00318158 -0.00437592 0.000208003 -0.00368857 -0.00296495 -0.00437058 -0.00661791 0.0030255 -0.00717437 -0.00542208 -0.00455266 -0.00272676 0.00279685 0.00200635 0.00091701 0.00357594 0.000378659 0.00388793 0.00155917 0.00595538 0.00481831 0.00305049 0.000724159 0.00158131 -0.0023796 0.0019897 0.000192992 -0.000997811 0.00227281 -0.00288157 0.00412391 0.00088989 0.00253292 -0.00158486 -0.000622971 -0.00188712 -0.000158924 -0.0060263 0.00792918 -0.0131412 0.000213301 0.00221678 0.00490269 -0.00412307 -0.00624911 -0.00963005 0.00536367 -0.00924024 0.0077457 0.00120033 -0.00174743 0.00222892 0.00134577 -0.00774241 0.00177413 -0.0033361 -0.00569126 -0.00848461 -0.00605025 0.00747567 0.00895968 0.00323705 -0.00410224 0.00956954 -0.00835502 -0.00938011 -0.00767666 -0.00461111 -0.0117799 0.00214812 0.00219526 -0.00388951 -0.000841404 -0.0071341 -0.00956867 -0.00403076 -0.00476346
internal_weight=10296 5369 3467 4927 1050 908 1902 476 329 1798 593 505 1205 482 2417 458 722 4019 685 429 401 289 3807 2209 1305 904 1210 1598 457 152 1141 110 1163 912 251 881 479 423 226 118 402 205 184 249 305 263 214 62 108 328 143 152 111 212 160 105 1034 112 95 942 243 699 160 83 671 263 174 135 110 197 171 881 49 147 104 49 209 120 89 650 50 261 135 126 100 1465 197
internal_count=10296 5369 3467 4927 1050 908 1902 476 329 1798 593 505 1205 482 2417 458 722 4019 685 429 401 289 3807 2209 1305 904 1210 1598 457 152 1141 110 1163 912 251 881 479 423 226 118 402 205 184 249 305 263 214 62 108 328 143 152 111 212 160 105 1034 112 95 942 243 699 160 83 671 263 174 135 110 197 171 881 49 147 104 49 209 120 89 650 50 261 135 126 100 1465 197
is_linear=0
shrinkage=0.071909


Tree=11
num_leaves=88
num_cat=0
split_feature=10 6 3 11 10 15 10 11 11 2 2 0 10 0 7 10 10 11 2 2 11 2 13 11 14 3 13 9 6 15 2 9 0 7 9 2 2 7 0 6 13 2 9 9 0 11 5 5 10 11 14 5 6 2 15 14 13 7 2 15 0 5 2 15 11 14 7 9 14 13 3 23 6 13 6 9 3 3 14 14 11 15 0 13 14 13 0
split_gain=0.657931 0.628247 0.617538 0.606694 0.961828 0.854345 0.752823 0.728755 0.838353 0.779456 0.942884 0.773751 0.548806 0.758957 0.534987 0.740809 0.818111 0.624966 0.532549 0.518739 0.663093 0.579098 0.517915 0.70281 0.593131 0.51709 0.510107 0.508804 0.677822 0.514742 0.804633 0.502957 0.496923 0.48982 0.512355 0.5446 0.82977 0.863968 0.520901 0.763821 0.481847 0.597588 0.477184 0.967621 0.46516 0.460521 0.453137 0.4525 0.451869 0.447973 0.445333 0.437739 0.52581 0.64567 0.54187 0.713789 0.579199 0.560279 0.472855 0.576258 0.816104 0.470449 0.816173 0.445689 0.530623 0.43182 0.431304 0.427356 0.426708 0.637971 0.426007 0.42103 0.470845 0.410031 0.74996 0.749274 0.603354 0.536218 0.931753 0.836148 0.532279 0.626859 0.527692 0.478055 0.548112 0.485491 0.471836
threshold=0.05023364536464215 2.7599999904632573 50.781072616577156 1.7162093520164492 6.583846092224122 5712.8901367187509 2.5489703416824345 6.1364688873291025 3.1563708782196049 165.75000000000003 197.15000152587893 5996.5537109375009 14.55598020553589 10737.738769531252 18.500000000000004 7.311821937561036 9.2242088317871112 7.4564414024353036 173.94999694824222 342.94999694824224 15.423722743988039 325.75000000000006 4.006812810897828 2.9880243539810185 1.7425000071525576 6.8690536022186288 3.7169860601425175 8.6765565872192401 7.1349999904632577 127.98500061035158 204.15000152587893 10.341799259185793 1280.945251464844 21.500000000000004 0.11784090846776964 67.549999237060561 125.95000076293947 14.500000000000002 5498.3542480468759 3.7649999856948857 3.2280195951461796 103.75000000000001 7.5030677318573007 5.0112013816833505 334.54052734375006 10.211254119873049 12.500000000000002 25.500000000000004 8.8264832496643084 4.5675041675567636 0.046499999240040786 5.5000000000000009 6.3849999904632577 8.7500000000000018 5765.5300292968759 1.2245000004768374 9.9668898582458514 5.5000000000000009 71.149997711181655 6.2049999237060556 107.78469848632814 8.5000000000000018 204.15000152587893 8246.1152343750018 6.2570466995239267 1.7524999976158144 11.500000000000002 0.42738637328147894 0.79550001025199901 6.4739413261413583 100.19831466674806 1.0000000180025095e-35 3.7050000429153447 3.9060419797897343 4.6349999904632577 11.939942836761476 163.7314147949219 114.80743408203126 1.7524999976158144 1.3435000181198122 8.248174190521242 301.47000122070318 5784.1201171875009 3.4528627395629887 3.5349999666213994 2.5070178508758549 6468.4509277343759
decision_type=2 2 2 2 2 2 2 2 2 2 2 2 2 2 2 2 2 2 2 2 2 2 2 2 2 2 2 2 2 2 2 2 2 2 2 2 2 2 2 2 2 2 2 2 2 2 2 2 2 2 2 2 2 2 2 2 2 2 2 2 2 2 2 2 2 2 2 2 2 2 2 2 2 2 2 2 2 2 2 2 2 2 2 2 2 2 2
left_child=33 22 3 -3 5 6 32 8 11 40 49 18 51 19 27 -16 17 -17 -8 21 -21 71 25 -24 -25 -2 -27 28 47 -30 -31 45 -5 34 35 -1 -37 38 39 -38 -10 -42 43 -12 -9 -18 -7 48 -6 -11 -39 -4 54 -54 55 56 58 -58 68 -60 61 -61 -63 64 -56 -34 -43 -64 69 -53 -26 -14 -73 74 -57 76 83 78 79 -75 -79 -82 -81 84 85 -76 -84
right_child=1 2 12 4 14 46 7 44 9 10 42 -13 13 -15 15 16 31 -19 -20 20 -22 -23 23 24 70 26 -28 -29 29 30 -32 -33 65 -35 -36 36 37 50 -40 -41 41 66 -44 -45 -46 -47 -48 -49 -50 -51 -52 52 53 -55 63 73 57 -59 59 60 -62 62 67 -65 -66 -67 -68 -69 -70 -71 -72 72 -74 77 75 -77 -78 80 -80 82 81 -83 86 -85 -86 -87 -88
leaf_value=0.0011891144223772493 -0.0064035903275430767 0.0013337891805268887 0.00371658075597354 -0.0024419046245886806 -0.0015388628603172092 -0.013746428512543899 0.0026118089806220659 -0.015976412401973568 -0.012134999218648038 0.016697540280236133 0.0045119478023129623 -0.020014583112789787 -0.0015894253747996715 0.010371396789561352 0.014888417881931348 0.0025195093034572329 0.004435667348806854 -0.01114247147282146 -0.010344183946638106 -0.00075933122560938797 -0.018153650674369172 0.0062546800019822784 -0.013824285341771273 0.0028909158278714602 -0.011855932391083807 0.0027030187968320632 0.013390684170615876 -0.0019448898127620137 0.012422693281411929 -0.006978158186145578 0.010557306740505401 0.00089805346896634872 0.011379552479970847 0.0013975735985138525 0.0069667555394512101 -0.016693752716218906 -0.018021648409053705 -0.0045579460714532298 0.0015718611777620754 -0.0021824378581727908 0.0040688481177890562 -0.013437480342452332 0.0074297638790733686 -0.011039340454029253 -0.0056529098855635966 0.016924149312221422 -0.0036306102547047042 -0.0091126311310911635 0.0081341983350269615 0.0036836680066171215 -0.016867839612034398 -0.0061988469057458317 0.0082961546852875628 0.0010196896454029445 0.0046973040291072759 0.00078558040980674043 -0.0060327956961574326 0.0054808107408228822 0.004460180656062053 -0.00037516709904465077 -0.0013101609346168987 -0.022709084005913597 7.8279957895844866e-05 -0.0012567731302661207 -0.0024838070877853855 -0.001058310872843426 -0.00082014488976649732 -0.012988480640815064 -0.010912762105371806 0.0047809850251591263 0 -0.00045729019246004389 -0.014949325657930472 0.0046386906933778664 -0.00028420116739415104 -0.015724644846158025 -0.012594921448713985 0.00095920134744812292 0.0032413075466179598 -0.0034346533660274529 0.010709083256698892 0.002232156612122017 -0.020774601927656601 -0.010455151745911167 -0.004070539134903255 0.011957438946495169 -0.0066264824421165243
leaf_weight=68 31 478 217 55 113 61 29 36 34 28 38 23 491 26 22 29 53 42 37 23 23 45 21 126 30 728 24 953 42 27 27 150 40 119 21 33 21 27 98 65 44 28 25 45 64 22 38 30 32 28 37 122 65 2257 283 395 29 87 67 28 473 23 26 157 65 22 29 25 60 35 33 21 27 45 37 27 28 250 175 102 83 101 21 24 66 30 31
leaf_count=68 31 478 217 55 113 61 29 36 34 28 38 23 491 26 22 29 53 42 37 23 23 45 21 126 30 728 24 953 42 27 27 150 40 119 21 33 21 27 98 65 44 28 25 45 64 22 38 30 32 28 37 122 65 2257 283 395 29 87 67 28 473 23 26 157 65 22 29 25 60 35 33 21 27 45 37 27 28 250 175 102 83 101 21 24 66 30 31
internal_value=-2.4496e-05 0.000103601 -8.92931e-05 -0.000989511 -0.00148515 -0.00368805 -0.00266865 -0.00391283 -0.00249269 -0.000659353 0.00266134 -0.0086218 0.000312927 -0.00165074 -0.000477685 0.00214715 0.0011911 -0.0055246 -0.00461093 -0.00215114 -0.00951474 -0.00156654 0.00181844 -0.00134419 2.83841e-05 0.00267007 0.00304768 -0.00116181 0.0015821 0.00644163 0.00174009 0.00332217 0.00249788 -0.00259897 -0.00389157 -0.0045526 -0.00595157 -0.00451135 -0.00199066 -0.00608134 -0.00471318 -0.00218821 -0.00124282 -0.00388729 -0.00939618 0.00813471 -0.00989064 -0.00106844 0.000577472 0.0102385 -0.0117165 0.000550475 0.000418269 0.00122453 -0.000227491 -0.00068054 -0.002178 0.00257935 -0.00282355 -0.00183654 -0.0025749 -0.00841354 -0.0114189 0.00191134 0.00334832 0.00692304 -0.00706511 -0.00627466 -0.00573131 -0.00373408 -0.00565422 -0.00222449 -0.00866484 0.00034939 -0.00106039 -0.00451241 -0.00286153 0.00141178 -0.000577718 -0.00394959 0.00313239 0.00607054 -0.00647652 -0.00110857 0.000557971 0.00515729 -0.0123917
internal_weight=10296 9807 8814 2724 2246 704 605 488 388 299 164 89 6090 656 1542 318 296 71 66 630 46 584 993 210 189 783 752 1224 271 96 54 225 117 489 370 349 281 248 184 86 135 101 108 83 100 75 99 175 145 56 64 5434 5217 2322 2895 2390 975 116 859 642 575 102 74 505 348 62 57 51 217 157 63 539 48 1415 607 212 185 808 374 199 434 184 154 157 133 67 52
internal_count=10296 9807 8814 2724 2246 704 605 488 388 299 164 89 6090 656 1542 318 296 71 66 630 46 584 993 210 189 783 752 1224 271 96 54 225 117 489 370 349 281 248 184 86 135 101 108 83 100 75 99 175 145 56 64 5434 5217 2322 2895 2390 975 116 859 642 575 102 74 505 348 62 57 51 217 157 63 539 48 1415 607 212 185 808 374 199 434 184 154 157 133 67 52
is_linear=0
shrinkage=0.071909


Tree=12
num_leaves=88
num_cat=0
split_feature=8 7 8 8 7 7 0 7 7 13 4 15 7 8 18 0 4 3 10 11 3 39 4 13 7 15 0 13 4 0 4 10 12 13 11 4 3 15 15 4 11 1 8 11 11 7 12 12 3 3 12 13 4 12 1 11 13 0 1 4 9 3 3 3 11 10 11 7 10 11 11 0 15 7 3 10 15 12 11 15 1 1 33 7 10 4 9
split_gain=22.2992 2.62635 2.31869 3.90732 5.07984 3.85169 1.26588 1.12931 1.12826 1.26889 1.10877 0.971868 0.938707 0.922409 0.869598 0.826304 0.748091 0.743129 0.727245 0.941255 0.900089 0.703105 0.642552 0.727607 0.813052 0.861144 0.633599 0.687975 1.27821 0.973069 0.904742 0.675317 1.03272 0.631883 0.833649 0.769894 0.628823 0.627794 0.992508 0.692463 0.652345 0.598002 0.588306 1.06327 1.52884 0.791372 0.780108 0.92441 0.666548 0.574246 0.57303 0.666091 0.651941 0.677333 0.720607 0.635874 0.568002 0.92727 0.607406 0.757992 0.564371 0.646993 0.601265 0.598872 0.555441 0.850861 1.23454 0.797804 0.628137 0.800308 0.660189 0.551587 0.53242 0.524482 0.808066 0.520866 0.504875 0.502636 0.495889 0.495229 0.672885 0.492858 0.60018 0.631861 0.499399 0.70527 0.543353
threshold=3.5000000000000004 22.500000000000004 2.5000000000000004 1.5000000000000002 13.500000000000002 22.500000000000004 24.543478012084964 22.500000000000004 1.0000000180025095e-35 3.4528627395629887 22.500000000000004 322.87500000000006 13.500000000000002 5.5000000000000009 1.0000000180025095e-35 7023.4245605468759 38.500000000000007 102.61225509643556 0.059234892949461944 0.85519570112228405 64.57785797119142 1.0000000180025095e-35 26.500000000000004 9.9668898582458514 18.500000000000004 677.13998413085949 881.74456787109386 3.9368187189102177 37.500000000000007 101.63337707519533 73.500000000000014 11.333178520202638 0.075337838381528868 2.3249017000198369 2.5657672882080083 16.500000000000004 43.598423004150398 2.995000004768372 92.424999237060561 64.500000000000014 13.586703777313234 0.94999998807907116 4.5000000000000009 0.10662509500980379 2.2071348428726201 7.5000000000000009 0.12532051652669909 2.2652100324630742 67.515853881835952 42.907920837402351 -0.001063829753549683 9.1995143890380877 63.500000000000007 0.072850123047828688 6.9500000476837167 2.2071348428726201 3.488067746162415 10329.473632812502 0.94999998807907116 25.500000000000004 11.145195007324221 4.0055539608001718 74.489055633544936 8.0748801231384295 3.7031750679016118 8.7114157676696795 9.326479911804201 17.500000000000004 13.162978172302248 16.72812652587891 11.564034938812258 5498.3542480468759 2397.1799316406255 4.5000000000000009 159.095817565918 0.054950980469584472 415.10000610351568 0.1186773255467415 7.2735009193420419 4879.1398925781259 0.84999999403953563 6.8500001430511483 1.0000000180025095e-35 4.5000000000000009 9.6007938385009783 188.50000000000003 9.6037416458129901
decision_type=2 2 2 2 2 2 2 2 2 2 2 2 2 2 2 2 2 2 2 2 2 2 2 2 2 2 2 2 2 2 2 2 2 2 2 2 2 2 2 2 2 2 2 2 2 2 2 2 2 2 2 2 2 2 2 2 2 2 2 2 2 2 2 2 2 2 2 2 2 2 2 2 2 2 2 2 2 2 2 2 2 2 2 2 2 2 2
