tree
version=v4
num_class=1
num_tree_per_iteration=1
label_index=0
max_feature_idx=64
objective=regression
feature_names=Column_0 Column_1 Column_2 Column_3 Column_4 Column_5 Column_6 Column_7 Column_8 Column_9 Column_10 Column_11 Column_12 Column_13 Column_14 Column_15 Column_16 Column_17 Column_18 Column_19 Column_20 Column_21 Column_22 Column_23 Column_24 Column_25 Column_26 Column_27 Column_28 Column_29 Column_30 Column_31 Column_32 Column_33 Column_34 Column_35 Column_36 Column_37 Column_38 Column_39 Column_40 Column_41 Column_42 Column_43 Column_44 Column_45 Column_46 Column_47 Column_48 Column_49 Column_50 Column_51 Column_52 Column_53 Column_54 Column_55 Column_56 Column_57 Column_58 Column_59 Column_60 Column_61 Column_62 Column_63 Column_64
feature_infos=[0.059049677103757858:18379.7734375] [0.10000000149011612:49.099998474121094] [0:360] [0.00036658317549154162:179.99398803710938] [-1:180] [-127:127] [0:1] [0:473] [0:120] [0:78.830001831054688] [0:23] [0:6] [0.0020408162381500006:92.080001831054688] [0.00039999998989515007:86.351425170898438] [0.00010905125236604363:77.209197998046875] [-102.19999694824219:38.5] [0.00045274477452039719:83.408088684082031] [0.0020000000949949026:38.5] [0:253.85133361816406] [-1:359] [-2990.050048828125:4059.320068359375] [-171.15699768066406:411.947998046875] [0.019999999552965164:18379.76953125] [0:1] [0:1] [0:1] [0:1] [0:1] [0:1] [0:1] [0:1] [0:1] [0:1] [0:1] [0:1] [0:1] [0:1] [0:1] [0:1] [0:1] [0:1] [0:1] [0:1] [0:1] [0:1] [0:1] [0:1] [0:1] [0:1] [0:1] [0:1] [0:1] [0:1] [0:1] [0:1] [0:1] [0:1] [0:1] [0:1] [0:1] [0:1] [0:1] [0:1] [0:1] [0:1]
tree_sizes=7431 8023 7988 8015 8048 7985 8040 7976 8012 8046 8049 8013 8079 8051 8035 8013 8027 8058 8080 8082 8088 8009 8071 8011 8033 8018 8020 8061 7986 8067 8063 8008 8036 8019 8000 8031 8048 7962 8027 8024 8029 7972 8006 7992 8001 8035 7978 7991 8033 7987 7996 8069 8048 8027 8035 8087 8015 8011 7951 8065 8013 7944 8016 7925 8030 7968 8088 7964 8007 8032 7984 7967 7964 8004 7930 7960 7995 8041 7980 8006 7929 7952 8003 7989 7959 7872 7981 7891 7992 7964 7945 7918 7902 7904 7935 7928 7986 7908 8013 7919 7932 7946 7928 7907 7951 8064 7911 8032 7875 7888 7876 7920 7924 7861 7923 7880

Tree=0
num_leaves=88
num_cat=0
split_feature=22 21 21 0 22 20 12 0 0 22 22 22 22 18 4 3 18 18 17 21 21 0 10 11 4 0 3 22 10 11 11 10 9 10 0 22 0 9 18 3 16 10 22 10 0 12 3 0 21 12 0 16 17 20 10 10 0 20 0 0 18 13 20 20 3 3 13 21 20 12 0 22 12 7 7 20 10 2 56 10 9 2 10 16 0 4 12
split_gain=342.847 111.78 97.5675 76.181 102.38 70.5409 53.0001 33.3901 23.0964 42.9904 20.3145 19.0341 46.8586 15.449 16.3691 15.2793 11.5293 11.3279 10.6662 10.3348 10.3332 9.59866 8.3706 11.1663 8.14032 7.84377 7.64236 7.22835 6.69017 7.37649 14.9061 13.4122 6.36484 5.99275 5.72517 5.63094 5.56648 5.51449 5.4049 5.92291 5.32351 5.30089 5.23475 4.93206 4.92098 4.8074 4.7789 4.76735 4.63172 4.55897 4.24072 4.12362 4.00881 3.9394 4.725 3.93328 3.82278 3.50628 3.44464 8.29576 3.56039 3.82248 4.91821 4.07605 3.35345 3.21136 3.35102 3.14486 3.12477 6.05832 3.10214 4.27225 3.77402 3.36115 3.34116 3.22425 3.0736 3.03918 2.92348 2.87452 3.09749 2.86903 2.83466 2.77616 2.6866 2.6805 2.64265
threshold=2.3449999094009404 -0.10649999976158141 0.011500000022351744 313.41955566406256 3.8649998903274541 2.685000061988831 6.1078460216522226 35.296518325805671 225.46174621582034 6.0750000476837167 1.8849999904632571 12.465000152587892 6.9449999332427987 8.4307203292846697 -1.0000000180025095e-35 78.043689727783217 1.5407733321189883 8.0862379074096697 4.8525002002716073 -0.007500000298023223 0.14549999684095385 76.039382934570327 20.500000000000004 4.5000000000000009 1.0000000180025095e-35 7.0520853996276864 95.255462646484389 3.8649998903274541 16.500000000000004 5.5000000000000009 4.5000000000000009 18.500000000000004 7.1549999713897714 21.500000000000004 5731.7590332031259 11.484999656677248 80.82556533813478 3.3149999380111699 2.7085082530975346 104.16934967041017 5.6856100559234628 21.500000000000004 3.3349999189376835 2.5000000000000004 48.856927871704109 0.5597619116306306 94.488700866699233 17.498992919921879 1.1054999828338625 0.15419580787420276 17.498992919921879 0.71383625268936168 2.089499950408936 -0.51499998569488514 20.500000000000004 16.500000000000004 5945.4616699218759 -4.8250000476837149 154.6777267456055 29.913709640502933 1.1399079561233523 2.130431175231934 1.7250000238418581 -1.7849999666213987 84.673610687255874 67.672954559326186 13.822432994842531 0.25550000369548803 5.2349998950958261 2.727097868919373 9020.4619140625018 425.58499145507818 7.7465474605560312 28.500000000000004 83.500000000000014 7.5150001049041757 1.0000000180025095e-35 77.450000762939467 1.0000000180025095e-35 20.500000000000004 8.0650000572204608 114.85000228881837 1.5000000000000002 3.5975890159606938 6914.5361328125009 4.1499998569488534 0.88042554259300243
decision_type=2 2 2 2 2 2 2 2 2 2 2 2 2 2 2 2 2 2 2 2 2 2 2 2 2 2 2 2 2 2 2 2 2 2 2 2 2 2 2 2 2 2 2 2 2 2 2 2 2 2 2 2 2 2 2 2 2 2 2 2 2 2 2 2 2 2 2 2 2 2 2 2 2 2 2 2 2 2 2 2 2 2 2 2 2 2 2
left_child=5 13 6 4 42 25 22 50 9 27 26 12 -9 14 81 35 76 24 19 -10 -19 -14 28 -24 48 53 -7 -8 58 30 -30 37 70 43 -34 44 83 -32 86 -40 -23 -25 -4 -18 -11 -15 -27 -12 -5 -43 -6 -39 65 -1 55 -55 -36 -48 59 -3 -60 62 63 -62 78 85 77 -28 -22 -70 71 74 -73 -74 75 -21 -16 -67 -42 -78 -81 -2 -68 -13 -76 -47 -26
right_child=1 2 3 17 7 10 8 11 18 15 47 36 21 45 16 -17 33 20 -20 32 68 40 23 41 38 46 67 -29 29 -31 31 -33 34 -35 56 -37 -38 51 39 -41 64 49 -44 -45 -46 52 57 -49 -50 -51 -52 -53 -54 54 -56 -57 -58 -59 60 -61 61 -63 -64 -65 -66 66 82 -69 69 -71 -72 72 73 -75 84 -77 79 -79 -80 80 -82 -83 -84 -85 -86 -87 -88
leaf_value=1.1814064311222969 1.1904757924918568 1.1965639294830417 1.1880681604951175 1.1911711861371574 1.1871910859461103 1.1645879546097715 1.1991774923943554 1.2069309815098646 1.1959507351843979 1.212282951881364 1.1699290495147128 1.1947504114108505 1.2161929049765579 1.2098156600522691 1.2155343946440924 1.2109124242125444 1.1985927563917036 1.1957715689389117 1.1957134126062614 1.1989711211248015 1.1887966376987809 1.2205275616404674 1.200698271421508 1.1931001119423161 1.2135070535427608 1.1788963566388737 1.2084639073034482 1.2102786773896179 1.1981171397680768 1.1900368116633955 1.2377411068470681 1.2035456985865676 1.2028042400193431 1.2064721151254214 1.2161985129676989 1.2179464262626443 1.1947670066224481 1.2351489428423919 1.1902789771032429 1.2105900727205678 1.2408464243593642 1.1733573761744249 1.1945497830821714 1.1892967223664499 1.2414933532435901 1.1980860564486262 1.1806400315851029 1.1824407691032359 1.1836244712661501 1.1889034556158748 1.1982733066902245 1.2105424445606789 1.1831468660296001 1.1971488344023846 1.1833877160304538 1.2135510906322704 1.2068596202945321 1.198191823854867 1.1995307318131774 1.2082783339583589 1.1786113437428196 1.1986880925103236 1.1781978333299361 1.1951990322409485 1.2117038568835197 1.1912510478698279 1.2008030505566221 1.1780127615970524 1.2174466960797599 1.1844395725205925 1.2001713023165128 1.2019021783225969 1.2001064370530476 1.2117576482343768 1.2061751060196293 1.179445679379038 1.1981429868463587 1.1862056104223131 1.217302292093424 1.2152380934911582 1.1878931601413394 1.185028122572015 1.1792145872804636 1.2183081702721403 1.1884937285973773 1.1873626559357104 1.1972885885405917
leaf_weight=87 796 785 2247 1378 238 2221 567 1712 575 33 220 36 241 46 62 190 352 674 726 249 1560 127 559 422 54 390 22 654 747 194 105 345 392 134 674 81 419 48 1218 79 361 187 902 1816 342 262 94 560 606 205 713 135 1368 286 92 103 344 157 1950 520 80 1289 101 1787 25 897 34 85 29 2788 706 389 149 941 565 53 1292 1992 30 101 27 1352 393 94 48 223 1415
leaf_count=87 796 785 2247 1378 238 2221 567 1712 575 33 220 36 241 46 62 190 352 674 726 249 1560 127 559 422 54 390 22 654 747 194 105 345 392 134 674 81 419 48 1218 79 361 187 902 1816 342 262 94 560 606 205 713 135 1368 286 92 103 344 157 1950 520 80 1289 101 1787 25 897 34 85 29 2788 706 389 149 941 565 53 1292 1992 30 101 27 1352 393 94 48 223 1415
internal_value=1.19395 1.1958 1.19784 1.19397 1.19962 1.17459 1.20167 1.20726 1.20611 1.21306 1.16886 1.21093 1.2136 1.18955 1.19206 1.22807 1.1949 1.18986 1.20387 1.20503 1.18749 1.22816 1.19807 1.19288 1.19238 1.18933 1.16549 1.20513 1.19895 1.20315 1.205 1.21312 1.20619 1.19172 1.2102 1.23521 1.19881 1.22458 1.1949 1.19152 1.23347 1.1875 1.18993 1.19081 1.23893 1.18669 1.18388 1.17891 1.18886 1.18148 1.1955 1.21701 1.18649 1.19548 1.19803 1.2015 1.21305 1.19163 1.19793 1.20123 1.1971 1.19564 1.19365 1.19449 1.23741 1.18769 1.18689 1.1843 1.18621 1.18478 1.20437 1.2056 1.208 1.21017 1.20174 1.19554 1.19985 1.18777 1.23905 1.19916 1.20945 1.18705 1.18094 1.2118 1.20479 1.19316 1.19789
internal_weight=49547 45230 34083 16946 7145 4317 17137 3996 7678 1867 3108 3045 2496 11147 5932 646 3784 9801 5811 5085 5051 784 9459 1373 4750 1209 2328 1221 8086 1574 1380 633 4510 2302 1410 456 549 288 2766 1297 543 814 3149 2168 375 5215 641 780 1984 392 951 183 5169 568 481 389 1018 251 6512 1305 5207 3257 1968 1867 416 3801 3316 107 4377 2817 3100 2394 1479 1090 915 302 1482 2889 391 1420 128 2148 427 130 613 485 1469
internal_count=49547 45230 34083 16946 7145 4317 17137 3996 7678 1867 3108 3045 2496 11147 5932 646 3784 9801 5811 5085 5051 784 9459 1373 4750 1209 2328 1221 8086 1574 1380 633 4510 2302 1410 456 549 288 2766 1297 543 814 3149 2168 375 5215 641 780 1984 392 951 183 5169 568 481 389 1018 251 6512 1305 5207 3257 1968 1867 416 3801 3316 107 4377 2817 3100 2394 1479 1090 915 302 1482 2889 391 1420 128 2148 427 130 613 485 1469
is_linear=0
shrinkage=1


Tree=1
num_leaves=88
num_cat=0
split_feature=22 21 21 0 22 20 13 0 15 22 22 22 17 22 22 15 0 17 21 15 20 20 3 10 0 20 10 22 20 10 10 3 0 10 17 20 17 18 20 10 0 0 20 22 17 20 22 22 13 3 3 15 20 15 1 10 22 5 18 4 20 1 10 20 1 15 56 8 10 18 20 1 22 0 22 10 7 18 21 20 17 0 20 22 13 18 21
split_gain=295.325 96.2879 84.0443 65.6228 88.1907 60.7612 35.2869 28.7631 20.2101 19.3393 42.8314 17.7687 17.2072 16.3935 40.3653 14.8488 11.9021 11.7099 10.9773 10.8645 10.3589 12.4486 10.261 8.78744 8.26675 7.95955 8.17985 7.43807 7.20151 7.1723 7.066 6.80505 6.75629 6.25536 6.15316 5.6685 5.45263 5.42551 5.15306 4.90865 4.83802 4.79536 4.72644 4.81012 4.57652 4.5456 4.50934 4.30518 5.76919 4.20724 4.20682 4.16409 4.02339 3.74572 4.24792 3.7136 3.6996 3.57234 3.53548 5.78074 4.50895 3.59486 3.40915 4.04983 3.71749 3.26799 3.24303 3.19831 4.29708 3.17756 3.07647 3.05296 3.05114 3.02151 5.6174 3.01575 2.9336 2.92663 2.91566 2.91447 2.91083 2.80397 2.62332 2.93802 3.64809 2.67439 2.60662
threshold=2.3449999094009404 -0.10649999976158141 0.011500000022351744 313.41955566406256 3.8649998903274541 2.685000061988831 3.470291376113892 35.296518325805671 -0.90648669004440297 13.574999809265138 6.4649999141693124 1.794999957084656 2.089499950408936 12.465000152587892 6.9449999332427987 -0.78317612409591664 45.124479293823249 2.089499950408936 -0.007500000298023223 0.85227742791175853 -0.36500000953674311 0.94499999284744274 65.92362213134767 20.500000000000004 76.039382934570327 -1.7849999666213987 16.500000000000004 3.8649998903274541 5.4049999713897714 21.500000000000004 2.5000000000000004 65.92362213134767 7.0520853996276864 1.5000000000000002 4.8525002002716073 1.3149999976158144 0.41449999809265142 4.6276321411132821 32.164999008178718 17.500000000000004 18.753186225891117 80.82556533813478 2.304999947547913 788.14498901367199 0.50949999690055858 -2.0549999475479122 3.3349999189376835 981.00500488281261 13.965763092041017 123.38600540161134 105.90464401245119 -1.0623611211776731 -5.6849999427795401 0.75645834207534801 6.5499999523162851 20.500000000000004 10.744999885559084 13.500000000000002 4.30045509338379 -1.0000000180025095e-35 -20.525000572204586 14.449999809265138 21.500000000000004 -0.51499998569488514 7.6499998569488534 3.5109902620315556 1.0000000180025095e-35 8.5000000000000018 21.500000000000004 8.9145936965942401 -9.4949998855590803 0.15000000223517421 1391.2850341796877 32.188377380371101 68.359996795654311 21.500000000000004 213.50000000000003 6.4578142166137704 0.38850000500679022 -3.8449999094009395 4.8525002002716073 5738.5146484375009 9.1549997329711932 398.89500427246099 9.2491893768310565 3.1314678192138676 0.57250002026557933
decision_type=2 2 2 2 2 2 2 2 2 2 2 2 2 2 2 2 2 2 2 2 2 2 2 2 2 2 2 2 2 2 2 2 2 2 2 2 2 2 2 2 2 2 2 2 2 2 2 2 2 2 2 2 2 2 2 2 2 10 2 2 2 2 2 2 2 2 2 2 2 2 2 2 2 2 2 2 2 2 2 2 2 2 2 2 2 2 2
left_child=5 8 6 4 46 32 23 51 70 10 27 31 29 14 -9 35 -12 30 -11 20 55 34 -18 25 -16 53 42 -8 45 33 -17 -7 62 37 47 -5 79 -10 44 71 -13 -15 43 73 -32 50 -4 48 81 -34 -21 -6 -51 54 -3 -20 66 65 59 -38 -60 -61 63 -1 -65 -45 -26 68 -25 -31 -2 -28 -69 -27 -75 86 -77 -37 -33 -35 -14 -22 -19 -84 -85 -86 -46
right_child=1 2 3 15 7 11 9 13 12 18 16 40 80 41 24 17 22 82 19 28 21 -23 -24 67 56 26 39 -29 -30 69 38 78 49 36 -36 77 58 -39 -40 -41 -42 -43 -44 57 75 -47 -48 -49 -50 52 -52 -53 -54 -55 -56 -57 -58 -59 60 61 -62 -63 -64 64 -66 -67 -68 72 -70 -71 -72 -73 -74 74 -76 76 -78 -79 -80 -81 -82 -83 83 84 85 -87 -88
leaf_value=-0.011682769442105733 -0.014150127978453624 -0.0034001316143172965 -0.0055174395071603934 -0.00044158097302447323 -0.0048535415851102149 -0.028395753495139436 0.003785436069560463 0.011989144819412207 0.013271692854073697 0.00078735852355989958 0.0046797070504212756 -0.0214387046387228 -0.0063522763631906074 0.016514186209664196 0.020585140865066288 0.0059512682327353093 0.044432172982311779 -0.0047759829710164034 0.016841413604279352 0.011464914807179361 0.0098547233387926356 0.017803193024901413 0.020014507970414507 -0.0004859082952140617 0.041455373037032707 0.0040982141207772122 0.027407626039133482 0.014648370950679529 -0.0091637536376534753 0.013844006827963122 0.0068631956715556868 0.00088222173034670801 -0.013201437713011882 0.02123906504708108 -0.0012540765180453356 -0.0067608438880841591 -0.0051634779382789837 -0.0012427259162198184 -0.022929517012794467 0.0076942780283039179 -0.010862437834150187 0.00069976003555296022 -0.0040214188014858956 0.0043851325758270136 -8.8200376659400666e-05 0.0081982750987831133 0.00049815431937898637 0.0057707423807455069 0.001076279970898336 -0.01344185126154326 -0.0068403177847303782 0.0050100221283074058 0.007925709004422854 -0.011764865885282135 0.022909183690046346 0.033948822298736143 0.024641299273798822 -0.0050087202588914572 -0.012991162880425622 0.0041458743060724529 -0.0034350735592630728 -0.0035335601249156571 -0.016760424929760365 0.0024570663726220356 0.018932285897226672 -0.0044154820674576108 0.018781196936192859 0.0074543742309866913 -0.015741419554860147 0.0013465792140493222 -0.0083382135534919109 0.012805373133784347 -0.0025289191441337623 0.018576006150493776 0.0062429139201475798 0.0015454913699798616 0.019774228257942436 -0.013337422516109405 -0.019391066898165537 0.0036929385452796771 -0.012268428977733141 0.016143987589530482 -0.018383543204011761 -0.012070962380508685 0.0076116781184923489 -0.0064212754012185303 -0.0039141629504134213
leaf_weight=81 829 153 2247 299 350 1914 594 1712 269 856 63 372 2219 130 241 736 341 1580 782 91 766 781 121 204 399 601 116 724 183 237 325 44 450 60 352 517 935 263 58 890 565 419 363 2700 1453 1090 902 1379 251 75 226 601 116 214 40 72 108 267 286 1121 2397 438 49 349 89 237 36 224 180 190 1099 208 539 304 516 249 56 1095 213 269 535 709 163 428 103 220 2519
leaf_count=81 829 153 2247 299 350 1914 594 1712 269 856 63 372 2219 130 241 736 341 1580 782 91 766 781 121 204 399 601 116 724 183 237 325 44 450 60 352 517 935 263 58 890 565 419 363 2700 1453 1090 902 1379 251 75 226 601 116 214 40 72 108 267 286 1121 2397 438 49 349 89 237 36 224 180 190 1099 208 539 304 516 249 56 1095 213 269 535 709 163 428 103 220 2519
internal_value=-5.7709e-05 0.00165717 0.00355441 -3.58759e-05 0.00520427 -0.0180255 0.00710483 0.0122955 -0.00414356 0.0100716 0.0166753 -0.0233458 -0.00274312 0.0157046 0.0181792 -0.00385625 0.0340444 -0.00247849 0.00845669 0.00943877 0.0110592 0.00960209 0.0380429 0.00351613 0.0316928 0.00452448 0.0051639 0.00975466 0.00424773 -0.00071526 -0.000594822 -0.0269189 -0.00434615 -0.0013525 0.00774854 -0.00954327 -0.00207222 0.00609134 -0.00162928 0.010458 -0.0150642 0.00444938 0.00387485 0.00449518 -0.00136025 0.00599397 -0.00379349 0.00876998 0.0111647 -0.00940626 -0.0015771 0.0013771 -0.000450783 -0.00521259 0.00203885 0.0182869 0.0366177 0.00294967 -0.00264298 -0.000692874 -0.00445472 0.00198664 0.00135961 0.00307551 0.00581087 0.00367406 0.039585 -0.00229168 -0.00764387 0.00828933 -0.0108386 0.0180416 0.000398473 0.00797805 0.0108184 -0.00198576 0.00490116 -0.0112298 -0.0159098 0.00690096 -0.00750253 0.0128796 -0.00655291 -0.00962171 -0.00771645 -0.00193813 -0.00251526
internal_weight=49547 45230 34083 16946 7145 4317 17137 3996 11147 9381 1843 3108 9219 3045 2496 9801 525 7890 7538 6682 5092 4238 462 7756 784 6609 6202 1318 1590 6465 5396 2171 1209 6038 3457 1911 5506 532 4660 1214 937 549 4988 4625 4602 1407 3149 3105 1726 641 317 951 191 407 193 854 543 3204 5177 2494 2683 1559 568 519 438 2937 435 1147 384 427 1928 324 763 1421 820 4277 305 1612 257 329 2754 1475 2494 914 751 323 3972
internal_count=49547 45230 34083 16946 7145 4317 17137 3996 11147 9381 1843 3108 9219 3045 2496 9801 525 7890 7538 6682 5092 4238 462 7756 784 6609 6202 1318 1590 6465 5396 2171 1209 6038 3457 1911 5506 532 4660 1214 937 549 4988 4625 4602 1407 3149 3105 1726 641 317 951 191 407 193 854 543 3204 5177 2494 2683 1559 568 519 438 2937 435 1147 384 427 1928 324 763 1421 820 4277 305 1612 257 329 2754 1475 2494 914 751 323 3972
is_linear=0
shrinkage=0.0719


Tree=2
num_leaves=88
num_cat=0
split_feature=22 21 21 0 22 20 13 0 15 22 22 22 22 0 15 0 21 15 18 19 18 3 20 20 10 11 20 10 3 22 22 22 20 21 18 19 20 11 11 10 0 10 3 7 3 18 0 20 22 3 20 0 10 3 22 15 10 20 1 0 3 5 15 1 10 15 14 10 3 8 20 22 13 22 19 7 7 56 22 10 0 15 20 8 3 3 0
split_gain=254.389 82.9422 72.4602 56.217 76.9953 52.6889 31.2074 21.6913 17.4086 16.5807 36.6593 15.5055 15.2005 33.7602 12.8543 10.2243 9.66855 9.87937 8.78305 10.9337 9.42914 8.75848 8.56842 10.333 7.85169 7.50273 6.85966 7.15401 6.78627 6.33991 6.2507 6.20047 6.16887 5.90429 6.25171 6.0999 5.11783 4.97451 8.34843 10.0843 4.89616 4.55449 4.30711 4.29855 4.20257 4.43842 4.07217 4.06581 4.07513 3.73692 3.71592 3.6977 3.68516 3.99162 3.56701 3.54186 3.4766 3.56729 3.47415 3.4697 3.289 3.2328 3.22631 3.68693 3.19754 3.19734 3.17326 3.12412 3.39918 3.05766 3.00621 3.00515 2.96998 5.31798 4.10329 3.24288 3.03403 2.96955 2.96161 2.87674 2.85348 2.83217 2.64923 2.61661 2.53061 2.5208 2.54633
threshold=2.3449999094009404 -0.10649999976158141 0.004500000039115549 313.41955566406256 4.0650000572204599 1.4049999713897707 3.470291376113892 33.740346908569343 -0.90648669004440297 13.574999809265138 6.4649999141693124 1.8849999904632571 12.465000152587892 76.039382934570327 -0.78317612409591664 45.124479293823249 -0.007500000298023223 0.85227742791175853 16.333386421203617 1.0000000180025095e-35 1.5407733321189883 65.92362213134767 -0.36500000953674311 0.94499999284744274 20.500000000000004 4.5000000000000009 -1.7849999666213987 16.500000000000004 95.255462646484389 3.8649998903274541 3.3349999189376835 5.5450000762939462 9.6449999809265154 0.89250001311302196 14.11556386947632 36.109401702880866 1.3149999976158144 4.5000000000000009 5.5000000000000009 18.500000000000004 8.9932513236999529 21.500000000000004 80.604305267333999 82.500000000000014 68.422725677490249 2.394085288047791 80.82556533813478 2.304999947547913 788.14498901367199 106.87542724609376 -9.7650003433227521 17.498992919921879 21.500000000000004 70.885822296142592 6.4649999141693124 -0.55683228373527516 21.500000000000004 -1.3250000476837156 19.94999980926514 38.770965576171882 133.88782501220706 13.500000000000002 0.75645834207534801 6.2500000000000009 20.500000000000004 -0.8206389546394347 0.34862019121646887 2.5000000000000004 41.301382064819343 9.5000000000000018 32.164999008178718 11.484999656677248 12.48947048187256 940.16497802734386 235.18469238281253 209.50000000000003 65.500000000000014 1.0000000180025095e-35 3824.119995117188 2.5000000000000004 3.6488393545150761 3.5109902620315556 -9.4949998855590803 19.500000000000004 62.013969421386726 34.501827239990241 19.477614402771
decision_type=2 2 2 2 2 2 2 2 2 2 2 2 2 2 2 2 2 2 2 2 2 2 2 2 2 2 2 2 2 2 2 2 2 2 2 2 2 2 2 2 2 2 2 2 2 2 2 2 2 2 2 2 2 2 2 2 2 2 2 2 2 10 2 2 2 2 2 2 2 2 2 2 2 2 2 2 2 2 2 2 2 2 2 2 2 2 2
left_child=5 8 6 4 30 40 24 65 82 10 29 28 13 54 36 -12 -11 22 19 -10 58 -17 64 72 26 -26 62 47 80 -8 -4 -15 50 60 35 -35 -5 -29 39 43 56 -27 -20 78 45 -37 -14 48 66 77 -19 -13 53 -22 -9 -56 57 -1 -21 -32 67 81 63 -3 -18 -6 -28 -16 -69 -43 -47 -67 73 76 -75 -74 -24 -33 84 -55 -7 -50 -2 -79 -39 -82 -87
right_child=1 2 3 14 7 11 9 12 18 16 15 51 46 31 33 21 17 32 42 20 52 -23 23 -25 25 41 27 37 -30 -31 59 49 -34 34 -36 44 -38 38 -40 -41 -42 69 -44 -45 -46 70 -48 -49 61 -51 -52 -53 -54 79 55 -57 -58 -59 -60 -61 -62 -63 -64 -65 -66 71 -68 68 -70 -71 -72 -73 75 74 -76 -77 -78 83 -80 -81 85 -83 -84 -85 -86 86 -88
leaf_value=-0.012476538699924281 -0.013132734593171515 -0.0037318529364576531 -0.0051352891565777884 -0.00042002177343303644 -0.0040033953863711233 -0.011754688122545404 0.003616637464861188 0.010369261114021318 -0.0057177737537849969 0.00073074769466273371 0.0042173487155434371 -0.020396559442197149 0.014694521759560299 0.013217039529793048 0.0047908242539824565 0.041237506364340079 0.015630517022468066 -0.011074279104526822 -6.5367252773823275e-05 0.0065145351396136498 0.010143523270574467 0.018534944960202793 0.0052714503925826708 0.016523144546735882 0.0052519292396389508 -0.001331641909986032 0.0018783336473684781 0.0046203729264408981 -0.0084174132327758146 0.013666556283372962 -0.0016489169825654091 0.036383937576178242 -0.014632390628985159 -0.0080871991520295242 -0.0083394328211059323 0.0034817304627560376 -0.010422532305660774 0.041179455938206301 -0.0015903603154289138 0.0094884807289293549 -0.0084429462114497325 -0.020414764995448555 -0.0071319073703096795 0.012330037965852391 0.011929241405485094 -0.003142160225285301 0.0006068702644793344 -0.0037322794576934919 0.0040965152645315462 0.0067476675287388831 0.0057750336940555931 -0.009626623427226904 0.0082229533655659593 0.0027113521103633532 0.0043239619975574562 0.022930330935660215 -0.016342536913845341 0.0051028811140663493 -0.010615160387692444 0.0063937589218387922 0.0057682008115728777 -0.0048597731761596255 -0.010918974807823913 0.019415259343436922 0.03150792330329602 0.002752331123226797 0.0094885727571573548 0.0028318530501296418 -0.0029418606221690174 -0.0066214636644400379 -0.022763526678821353 0.019467978172185998 -0.0011597820162549816 0.0077703727294784622 -0.00040921896068669186 0.01218154047721922 0.013141379472170476 0.035750265352554732 0.044889174366241402 -0.0036340468063564744 -0.027267097848395712 -0.0040980102007086572 -0.0077386963610514194 0.0026327359511083529 0.015392716882167682 -0.023698861802970653 -0.010653273880404596
leaf_weight=68 829 146 2249 317 339 80 591 1403 1828 856 62 232 142 90 424 341 782 71 550 1350 133 119 330 781 429 376 393 538 133 722 755 515 88 678 1289 681 1612 33 141 301 487 152 2373 56 138 1074 421 363 2683 26 1399 576 194 440 68 244 53 484 64 438 411 265 214 47 72 357 1023 661 2596 185 42 66 372 997 464 126 1107 23 85 2287 1527 237 1099 27 50 587 90
leaf_count=68 829 146 2249 317 339 80 591 1403 1828 856 62 232 142 90 424 341 782 71 550 1350 133 119 330 781 429 376 393 538 133 722 755 515 88 678 1289 681 1612 33 141 301 487 152 2373 56 138 1074 421 363 2683 26 1399 576 194 440 68 244 53 484 64 438 411 265 214 47 72 357 1023 661 2596 185 42 66 372 997 464 126 1107 23 85 2287 1527 237 1099 27 50 587 90
internal_value=-5.35249e-05 0.00153807 0.00329893 -7.47233e-06 0.00484656 -0.0167296 0.00662279 0.0120162 -0.00384567 0.0094324 0.0155556 -0.0213519 0.0148021 0.0173004 -0.00351166 0.0316752 0.00792283 0.00885677 -0.00254589 -0.00103323 0.000882765 0.0353703 0.0104064 0.00906335 0.00324379 -0.00225771 0.00419974 0.00479652 -0.0242356 0.00914497 -0.00290347 0.0308469 0.0038511 -0.00224001 -0.0042411 -0.00221836 -0.00878016 0.00976984 0.0139256 0.0180978 -0.00307615 -0.00677987 -0.00580316 0.0296547 -0.000160621 -0.00109054 0.0041648 0.00358973 0.00416798 0.0335271 0.00495941 -0.0127223 -0.00136403 -0.00201526 0.0119198 0.0188836 0.0012395 0.00293247 0.00573733 0.00130166 -0.00033118 0.00273989 -0.00483781 0.00189127 0.0169723 0.00119466 0.00737829 -0.00101293 -0.00176928 -0.0128507 -0.003883 0.00536676 0.00734699 0.00822876 0.00517079 0.0022104 0.0113359 0.0347547 0.0354137 -0.00260924 -0.0251555 0.0034305 -0.0100594 0.0179203 0.0256776 -0.0256408 -0.0219685
internal_weight=49547 45230 34083 17086 7163 4317 16997 3721 11147 9280 1835 3225 2959 2396 9923 522 7445 6589 9219 6296 4468 460 5031 4177 7717 1142 6575 6168 2417 1313 3442 681 1558 7994 3902 2613 1929 1204 666 525 1092 713 2923 224 1935 1797 563 4964 4601 591 1470 808 3054 2860 1715 312 605 552 1414 1193 4092 3185 407 193 854 762 1416 3681 3257 337 1116 423 3396 2898 1461 498 1437 565 168 2727 2284 2920 1928 50 83 2204 677
internal_count=49547 45230 34083 17086 7163 4317 16997 3721 11147 9280 1835 3225 2959 2396 9923 522 7445 6589 9219 6296 4468 460 5031 4177 7717 1142 6575 6168 2417 1313 3442 681 1558 7994 3902 2613 1929 1204 666 525 1092 713 2923 224 1935 1797 563 4964 4601 591 1470 808 3054 2860 1715 312 605 552 1414 1193 4092 3185 407 193 854 762 1416 3681 3257 337 1116 423 3396 2898 1461 498 1437 565 168 2727 2284 2920 1928 50 83 2204 677
is_linear=0
shrinkage=0.0719


Tree=3
num_leaves=88
num_cat=0
split_feature=22 21 21 0 22 20 13 0 22 22 15 22 22 16 15 22 21 0 10 15 15 20 20 18 19 0 20 16 20 1 16 16 22 10 20 1 18 19 22 21 1 0 0 10 10 20 1 14 21 1 1 46 10 20 8 13 10 16 15 18 8 18 22 19 10 22 1 0 20 22 9 16 20 20 10 0 15 13 0 19 9 2 20 2 19 10 1
split_gain=219.336 70.4077 63.829 45.8302 69.8394 45.2025 26.1853 21.6534 16.7298 25.9452 14.9589 13.8786 33.048 11.2807 11.0114 10.1929 8.23298 7.82203 6.71434 6.412 6.30682 7.3988 9.58701 6.21695 7.06329 6.07726 5.90535 5.70975 5.518 5.48568 5.95987 5.43282 5.2774 5.24847 5.20099 7.18893 5.12025 4.99676 4.75629 4.74939 4.61811 4.52329 4.33972 4.26291 4.51837 4.21636 3.99282 3.92866 3.86141 3.67127 3.63985 3.61684 3.58212 3.47448 3.30075 3.24278 3.19314 3.81157 3.193 3.18681 3.1838 3.27133 3.08362 3.03816 3.38098 3.03208 3.0254 2.96213 2.94061 2.87389 2.83781 2.96072 2.67807 2.51145 2.4955 2.49475 2.44296 2.43363 2.42785 2.77206 2.41132 2.40243 2.34264 2.32997 2.30209 2.60085 2.32363
threshold=2.2549999952316289 -0.10649999976158141 0.011500000022351744 313.41955566406256 3.8649998903274541 1.5149999856948855 4.1984133720397958 43.99334907531739 12.465000152587892 6.9449999332427987 -0.90648669004440297 13.574999809265138 6.0750000476837167 3.3075542449951176 -0.78317612409591664 1.7150000333786013 -0.007500000298023223 45.124479293823249 20.500000000000004 0.20971675217151645 0.82090365886688244 -0.36500000953674311 0.94499999284744274 5.9042038917541513 1.0000000180025095e-35 22.985241889953617 5.2349998950958261 1.4921937584877016 -3.2949999570846553 3.0499999523162846 4.2825136184692392 3.9047249555587773 3.8649998903274541 16.500000000000004 2.9550000429153447 7.1499998569488534 6.1841616630554208 1.0000000180025095e-35 0.81499999761581432 0.85649999976158153 13.550000190734865 20.135589599609379 18.753186225891117 21.500000000000004 1.5000000000000002 1.2250000238418581 6.0499999523162851 5.3146760463714608 0.25550000369548803 0.75000000000000011 3.2500000000000004 1.0000000180025095e-35 2.5000000000000004 -4.0450000762939444 11.500000000000002 0.74633273482322704 17.500000000000004 1.1712050437927248 -1.8078461289405821 1.5407733321189883 13.500000000000002 3.3313679695129399 3.495000004768372 56.188236236572273 19.500000000000004 340.13999938964849 3.1499999761581425 369.72174072265631 -6.6249999999999991 0.95499998331069957 8.0149998664855975 7.6167619228363046 32.164999008178718 2.304999947547913 20.500000000000004 154.6777267456055 5.6290209293365487 13.136209011077883 8756.6938476562518 244.29990386962893 8.1149997711181658 349.55000305175787 -0.71500000357627858 347.15000915527349 82.090538024902358 22.500000000000004 10.750000000000002
decision_type=2 2 2 2 2 2 2 2 2 2 2 2 2 2 2 2 2 2 2 2 2 2 2 2 2 2 2 2 2 2 2 2 2 2 2 2 2 2 2 2 2 2 2 2 2 2 2 2 2 2 2 2 2 2 2 2 2 2 2 2 2 2 2 2 2 2 2 2 2 2 2 2 2 2 2 2 2 2 2 2 2 2 2 2 2 2 2
left_child=5 10 6 4 41 38 18 25 9 -9 -2 12 32 66 45 39 -13 -14 19 33 21 74 31 24 -15 -6 68 -20 -21 73 -31 -23 -8 46 35 55 52 -11 -1 69 49 -4 -17 44 -26 -5 -3 -40 76 58 53 59 -32 -25 -19 82 57 -35 -33 -46 -10 75 -43 -39 -65 -50 -12 -29 -22 -7 71 -45 -54 -16 77 -62 -38 -18 -51 -80 -47 -37 -30 -70 85 86 -52
right_child=1 2 3 14 7 15 11 8 60 37 13 16 17 23 29 42 20 54 27 28 26 22 -24 50 43 -27 -28 67 34 30 36 40 -34 56 -36 81 48 63 47 -41 -42 62 -44 70 51 80 -48 -49 65 78 84 -53 72 -55 -56 -57 -58 -59 -60 -61 61 -63 -64 64 -66 -67 -68 -69 83 -71 -72 -73 -74 -75 -76 -77 -78 -79 79 -81 -82 -83 -84 -85 -86 -87 -88
leaf_value=0.0043133500328205116 -0.0093362329882215808 0.0040132759497469193 -0.010020593825292766 -0.00019368042651407748 -0.0039217332627791441 -0.0048909119357030259 0.0031054247824843784 0.011236496543244864 -0.0025675341487251539 0.0054029602074486382 -0.00019471681692217948 0.00054705138552663894 0.0060520867061448023 -0.0035841550344730823 0.0024382716447089833 -0.019465720792352828 0.016474850664941174 0.02125377714338355 -0.0067512209223931953 -0.011148429584661378 -0.004742939394639766 0.0029910298915740174 0.015918887576092774 0.025992534269615817 0.011599186607379052 0.0064912849674288375 -0.008293048689988829 0.013406792188000971 -0.020746163496400641 -0.0054965413426408608 0.0082314998466287027 0.01293675300573845 0.012539834054123592 0.027953575239091866 -0.0070427835547128472 0.0076766972864148637 0.00036520013538986093 0.040372744359388701 -0.0021581229227834141 -0.024876122680760233 0.0007470629436345461 -0.0035729392624754626 -0.0098589766959456763 0.0092463693369247511 0.0056291103532682104 -0.010912288393567499 0.015759108688268169 -0.012982534754152753 -0.010877808612632611 0.013439956114272634 0.0020057316936340527 -0.0057704999536679919 0.00052598855790416603 0.0016583169067547593 0.035708917596472302 0.0034142317673403633 0.0081829696871808175 0.0095217931329097776 -0.0073758930898636579 -0.00041732358099095927 0.034330669485746972 0.0030123538841243607 0.0025117311044012365 0.024935669368859579 0.038817227962659871 -0.0034573040337926276 -0.0082170540717139053 0.00072665549444841135 0.0063980908548110331 -0.019601620613024378 -0.0063148789524338431 0.030286166530347537 -0.019548567469320623 0.014778078507067973 0.029639818343123507 0.0094938823002822803 0.014875778466937929 0.0043347171520988267 0.011551879935217842 -0.00034016410272489256 -0.003572589583201584 0.028740773852972735 -0.0021732290783952027 0.025027854971924952 -0.0049385255707027767 0.018317313125622996 -0.0057066044573705144
leaf_weight=312 1928 3261 475 288 392 94 590 1227 255 47 283 799 66 1181 409 461 609 106 591 168 122 1274 703 37 245 1108 175 117 37 2496 334 65 640 107 279 896 422 116 457 1709 297 2304 518 81 880 1342 157 280 338 1076 453 319 1856 170 372 843 678 128 104 922 37 172 529 480 113 1822 1750 515 1055 260 29 61 35 108 64 49 70 100 266 163 281 29 705 36 2419 36 364
leaf_count=312 1928 3261 475 288 392 94 590 1227 255 47 283 799 66 1181 409 461 609 106 591 168 122 1274 703 37 245 1108 175 117 37 2496 334 65 640 107 279 896 422 116 457 1709 297 2304 518 81 880 1342 157 280 338 1076 453 319 1856 170 372 843 678 128 104 922 37 172 529 480 113 1822 1750 515 1055 260 29 61 35 108 64 49 70 100 266 163 281 29 705 36 2419 36 364
internal_value=-4.96415e-05 0.00138545 0.00299948 -0.000110059 0.00420098 -0.0159959 0.00609326 0.010598 0.0147014 0.0176957 -0.00357562 0.00887163 0.0145459 -0.00237203 -0.00332305 -0.0204342 0.00741407 0.029304 0.00325876 0.00408614 0.00831178 0.00956484 0.00830395 -0.00103565 0.00100797 0.00376824 0.00404785 -0.00166952 0.00150391 -0.00213653 -0.0026388 0.00665341 0.00801655 0.00584854 0.002267 0.0033029 -0.00117569 0.0281755 -0.0031226 -0.0233033 0.00901933 -0.00352574 -0.0143854 0.00314669 0.002353 -0.00822046 0.00455358 -0.00627414 -0.00330989 0.0104854 -0.00322042 0.0012837 0.0013669 0.00602083 0.032509 0.000361596 0.0106936 0.0179255 0.000420941 0.00253395 0.00312188 0.00875545 -0.00243582 0.0296813 0.0275854 -0.00461971 -0.00710163 0.00307831 0.00583047 -0.0157029 0.0141128 0.0183034 0.000153021 0.00502119 0.0160012 0.0202106 0.00243514 0.0147663 0.0116138 0.00702726 -0.00964316 0.00833998 -0.00310298 0.00701527 -0.00380587 -0.000590685 -0.00142711
internal_weight=49547 45456 34298 17105 7304 4091 17193 3996 2496 1983 11158 8682 1774 9230 9801 3042 6908 544 8511 7288 6109 4721 3948 7197 3718 1500 1388 1223 2957 7890 7373 3245 1230 4331 2789 2510 4877 756 1049 2063 1971 3308 979 2537 2366 1911 3418 737 2652 1674 3479 2121 2225 207 478 1585 913 235 169 1802 513 258 2833 709 593 2160 2033 632 1213 354 171 142 1891 517 773 86 492 709 1505 429 1623 925 742 1091 3272 853 817
internal_count=49547 45456 34298 17105 7304 4091 17193 3996 2496 1983 11158 8682 1774 9230 9801 3042 6908 544 8511 7288 6109 4721 3948 7197 3718 1500 1388 1223 2957 7890 7373 3245 1230 4331 2789 2510 4877 756 1049 2063 1971 3308 979 2537 2366 1911 3418 737 2652 1674 3479 2121 2225 207 478 1585 913 235 169 1802 513 258 2833 709 593 2160 2033 632 1213 354 171 142 1891 517 773 86 492 709 1505 429 1623 925 742 1091 3272 853 817
is_linear=0
shrinkage=0.0719


Tree=4
num_leaves=88
num_cat=0
split_feature=22 21 21 20 22 22 12 1 22 22 22 22 18 12 17 19 18 3 18 21 21 3 6 20 22 1 9 22 22 20 12 12 20 20 20 20 13 2 13 3 13 22 13 20 21 12 18 3 22 12 2 17 20 22 21 1 12 17 2 3 20 13 20 19 1 13 20 19 21 1 1 13 13 2 1 12 20 3 17 9 8 19 13 3 3 17 22
split_gain=189.21 59.9502 56.5798 38.9224 35.9637 63.2502 32.9169 13.4993 13.9684 24.0391 11.8202 32.8764 9.81638 9.64417 8.33352 7.43024 10.3866 7.23083 6.91912 6.88197 6.75565 6.35703 5.5317 5.10352 4.88537 4.58323 4.52673 4.51431 4.2477 3.71626 4.91667 4.08032 8.71126 4.72662 4.21991 5.14914 3.74898 3.41708 3.40562 3.37794 3.28233 3.24405 3.19659 3.13761 3.12695 3.18236 3.07375 4.51627 3.00852 2.90609 2.81099 2.78202 2.75982 2.75797 2.78885 2.68243 2.50012 2.48697 2.4833 2.46902 2.44179 2.40898 2.38777 2.36433 2.34146 4.08192 2.31736 2.85328 3.54861 2.30926 2.28964 2.28498 2.27329 2.26529 2.13868 2.11902 2.87325 2.10604 2.09561 2.60904 2.04084 1.99679 1.98519 1.95788 3.2207 1.94748 1.9456
threshold=2.1650000810623173 -0.10649999976158141 0.004500000039115549 1.6250000000000002 51.18499946594239 3.7649999856948857 6.0534958839416513 7.1499998569488534 5.7750000953674325 12.465000152587892 13.574999809265138 6.0750000476837167 16.333386421203617 0.28153021633625036 4.8525002002716073 1.0000000180025095e-35 1.5407733321189883 115.22258758544923 8.0862379074096697 0.1604999974370003 -0.007500000298023223 42.60780334472657 1.0000000180025095e-35 7.1649999618530282 3.6650000810623173 10.750000000000002 7.1549999713897714 0.81499999761581432 1.794999957084656 1.6250000000000002 0.78973686695098888 1.947684168815613 -2.1850000619888301 1.0000000180025095e-35 -2.9550000429153438 -1.0000000180025095e-35 1.659545421600342 213.05000305175784 3.7111335992813115 83.901485443115249 4.7003967761993417 3.0749999284744267 17.422439575195316 1.1349999904632571 -1.0000000180025095e-35 0.24511905014514926 2.7085082530975346 104.16934967041017 5.0250000953674325 0.070106383413076415 245.44999694824222 2.7525000572204594 -1.7849999666213987 1.6449999809265139 0.75850000977516185 17.650000572204593 0.5597619116306306 1.325500011444092 114.85000228881837 90.36450576782228 -32.785001754760735 7.0306787490844735 -11.664999961853026 104.72253417968751 0.75000000000000011 0.3913873583078385 -21.535000801086422 44.671569824218757 -1.0195000171661375 6.4500000476837167 8.0500001907348651 11.25780773162842 8.9184789657592791 58.049999237060554 5.4500000476837167 7.4770290851593026 13.015000343322756 134.77516174316409 2.3845000267028813 7.0450000762939462 8.5000000000000018 236.62454223632815 4.2772932052612314 137.52099609375003 72.516498565673842 3.1714999675750737 3.0749999284744267
decision_type=2 2 2 2 2 2 2 2 2 2 2 2 2 2 2 2 2 2 2 2 2 2 2 2 2 2 2 2 2 2 2 2 2 2 2 2 2 2 2 2 2 2 2 2 2 2 2 2 2 2 2 2 2 2 2 2 2 2 2 2 2 2 2 2 2 2 2 2 2 2 2 2 2 2 2 2 2 2 2 2 2 2 2 2 2 2 2
left_child=3 12 6 27 5 41 29 48 -9 25 11 24 15 -6 20 58 55 74 22 -20 -12 28 37 26 -8 71 42 -1 -5 31 -31 33 38 34 -3 44 -32 -15 -33 -18 -29 69 -22 -28 45 -36 -24 -48 -7 -35 56 -21 -52 54 77 81 -14 -11 62 -27 -58 -25 -2 -38 65 -37 -41 68 72 -4 -40 78 -68 -44 -13 76 -50 -23 -10 -80 -64 -17 -51 84 86 -39 -34
right_child=1 2 4 21 13 7 10 8 9 57 14 17 50 18 -16 16 39 -19 19 51 23 53 46 61 -26 59 43 40 -30 30 36 32 83 49 35 64 63 85 70 66 -42 -43 73 -45 -46 -47 47 -49 75 82 52 -53 -54 -55 -56 -57 60 -59 -60 -61 -62 -63 80 -65 -66 -67 67 -69 -70 -71 -72 -73 -74 -75 -76 -77 -78 -79 79 -81 -82 -83 -84 -85 -86 -87 -88
leaf_value=0.0040036491524169052 -0.012013168383755065 0.025676926535390835 -0.012789514674054845 -0.02328595048322565 0.022513320076811914 -0.0024040846988822163 0.002961790304163318 0.0081168130242682702 0.023550324985749133 0.012419903028795802 0.0013836457492083509 0.01036394082382831 0.020044179190063644 -0.0069900693850986767 0.00044219233383225535 0.008044833617583437 0.0059825637394138945 0.010713509355490189 0.0010789948346951468 -0.0053632517253309102 0.0092086713717659911 -0.011432389918754475 0.0030247018290875238 -0.0077131129735025609 0.011941325314152831 0.032206862501680207 0.012092884683435034 -0.0017297990933741623 -0.015640622029522058 0.025547022665427681 -0.012407440694922072 -0.011062598562292395 -0.0088764195862144797 0.0064383078103662601 0.022958238723482138 0.0059986617849356778 0.0054893033456745628 0.00059776838067066625 0.0092266250854387954 -0.0077673356112955517 -0.011612327435041854 -0.0010941026418199303 -0.022405901902129526 0.021382490618007483 -0.0011386303761711542 0.0034165056161631663 -0.0027615980524787571 0.015175292081873296 0.0055347061690239341 -0.0020461701856441801 -0.0096707806806694309 -0.010304428210964743 -0.00052866291745170494 -0.0070579956953647858 -0.019732457491690416 -0.004730410029410788 -0.026368436595603024 -0.0017937145007148026 -0.007207339935458237 0.0060681827247420781 -0.0045939513060625206 0.0052672449079009965 -0.0071215253907453936 -0.0050384154286821324 0.012379004064440773 -0.0017929412319463095 -0.0073846402978997366 -0.0029796750442796652 0.016683484950406668 -0.0047999234708661414 -0.0085914155510896806 0.0023009766071856166 0.0066681283429664735 0.0022740465829730978 0.034641717993045225 -0.0035243763414182588 0.021408716369335133 0.013902931638515548 0.021919415247231493 -0.008094881279234821 0.0017984213215928308 0.0024117760893817854 -0.013155104873213296 0.010593002405164805 0.0028621180166903573 -0.0087127914051278975 0.0090840732250398928
leaf_weight=314 109 43 210 1647 76 339 548 1706 367 86 592 20 21 1040 737 800 235 87 801 3580 2706 109 1504 110 734 351 1147 371 490 31 184 208 32 202 53 1803 204 731 104 445 328 1370 22 226 1541 233 1252 77 770 1116 1406 707 195 222 386 139 27 244 1349 20 2235 225 180 240 214 430 119 2651 86 1749 58 35 119 152 406 118 64 20 35 26 503 551 90 558 1005 138 1033
leaf_count=314 109 43 210 1647 76 339 548 1706 367 86 592 20 21 1040 737 800 235 87 801 3580 2706 109 1504 110 734 351 1147 371 490 31 184 208 32 202 53 1803 204 731 104 445 328 1370 22 226 1541 233 1252 77 770 1116 1406 707 195 222 386 139 27 244 1349 20 2235 225 180 240 214 430 119 2651 86 1749 58 35 119 152 406 118 64 20 35 26 503 551 90 558 1005 138 1033
internal_value=-4.60063e-05 0.00125032 0.002733 -0.0152744 -0.000153606 0.00360586 0.00567076 0.0095159 0.0122629 0.0183373 0.00915093 0.0142633 -0.00332758 -0.00299643 0.00759958 -0.00177084 -0.000289136 0.0296476 -0.00319393 -0.00503565 0.00861741 -0.0195461 -0.00121727 0.00955022 0.00810504 0.0248372 0.0102233 -0.00315247 -0.0215342 0.00280979 -0.00239415 0.00320324 0.00535269 0.00207717 0.00325722 0.00303103 -0.00377767 -0.00420905 -0.00497232 -0.00235226 -0.00637091 -0.00378045 0.00860117 0.0136239 0.000141335 0.00704722 0.000797789 -0.00172036 0.00340695 -0.00153903 -0.00624718 -0.00617876 -0.00855894 -0.0137779 -0.0166695 0.00476995 -0.00462484 0.0019024 -0.00533026 0.030805 -0.00485504 0.00099709 -0.00212969 -0.000195363 0.00518747 0.00449707 -0.00292575 -0.00220065 0.00416519 -0.00565775 0.0028309 0.0200494 -0.000347079 -0.000831189 0.0335082 0.00547901 0.00675606 -0.00748376 0.0214946 0.00908287 -0.000548479 0.00574938 -0.00287741 0.00680738 0.00578562 -0.000877723 0.00854191
internal_weight=49547 45660 34490 3887 17396 7490 17094 4161 2870 1164 7712 1795 11170 9906 5917 7286 5145 513 9830 5088 5180 2874 4742 4588 1282 834 4253 1013 2137 9382 659 8723 2998 5725 4317 4274 628 1909 370 3655 699 3329 2880 1373 1827 286 2833 1329 1291 1408 3884 4287 1601 737 515 1490 2283 330 2141 371 2262 335 792 444 2447 2233 3420 2975 324 1959 162 463 238 174 426 952 834 129 428 61 683 1351 1206 2628 2070 869 1065
internal_count=49547 45660 34490 3887 17396 7490 17094 4161 2870 1164 7712 1795 11170 9906 5917 7286 5145 513 9830 5088 5180 2874 4742 4588 1282 834 4253 1013 2137 9382 659 8723 2998 5725 4317 4274 628 1909 370 3655 699 3329 2880 1373 1827 286 2833 1329 1291 1408 3884 4287 1601 737 515 1490 2283 330 2141 371 2262 335 792 444 2447 2233 3420 2975 324 1959 162 463 238 174 426 952 834 129 428 61 683 1351 1206 2628 2070 869 1065
is_linear=0
shrinkage=0.0719


Tree=5
num_leaves=88
num_cat=0
split_feature=22 21 21 0 0 20 12 15 17 0 22 22 22 22 15 22 17 0 3 17 10 15 12 21 15 20 12 10 10 11 15 20 20 12 16 3 0 22 10 16 10 0 0 7 20 3 20 18 20 0 22 12 0 3 19 2 21 1 20 1 3 8 18 56 19 10 0 0 9 22 10 10 7 22 0 3 0 7 20 18 16 3 0 20 11 10 10
split_gain=163.387 53.0607 46.3339 36.2372 50.1828 34.0166 28.7162 12.4581 12.5612 11.6817 20.5363 10.9899 24.3414 9.74935 9.33108 8.85592 8.6618 7.74162 6.66237 6.59673 6.31704 5.37688 5.33198 5.17413 5.69873 7.35862 5.12917 4.87675 4.68954 7.39802 5.31255 4.99689 5.13797 6.84501 4.3464 4.27813 4.24311 4.10077 3.93324 3.9224 3.72746 3.7023 5.60703 3.96296 3.64472 3.63639 3.56777 3.54534 3.41569 3.35883 3.61198 3.2502 3.10669 3.04118 2.93988 2.90124 2.8776 2.85472 2.77961 3.66429 2.7338 2.70962 2.81337 2.63481 2.60665 2.56622 2.78707 2.77145 2.56224 2.53167 2.50806 2.39144 2.86369 2.35017 2.32592 2.31766 2.31371 2.26377 2.26343 2.24967 2.35919 2.21688 2.16061 2.15728 2.12388 2.74423 2.58494
threshold=2.3449999094009404 -0.10649999976158141 0.004500000039115549 313.41955566406256 43.99334907531739 2.9550000429153447 6.3337719440460214 -0.90648669004440297 1.5814999938011172 267.84628295898443 5.3250000476837167 5.5450000762939462 12.465000152587892 1.794999957084656 -0.78317612409591664 3.5749999284744267 2.089499950408936 76.039382934570327 74.903377532958999 4.8525002002716073 21.500000000000004 -1.117509603500366 0.28153021633625036 -0.007500000298023223 1.1409673690795901 7.3450000286102304 0.3778888881206513 2.5000000000000004 20.500000000000004 4.5000000000000009 0.24216374009847644 -1.5249999761581419 1.4049999713897707 1.4455844163894656 2.2104964256286626 75.676643371582045 7.0520853996276864 3.4050000905990605 21.500000000000004 5.4440364837646493 1.5000000000000002 8691.5522460937518 5728.1923828125009 41.500000000000007 32.164999008178718 94.488700866699233 1.3149999976158144 16.333386421203617 -4.6150000095367423 53.346248626708991 12.465000152587892 0.15419580787420276 18.753186225891117 156.7240905761719 90.470485687255874 116.14999771118165 -0.19950000196695325 7.9500000476837167 -0.51499998569488514 7.6499998569488534 43.88233947753907 13.500000000000002 3.3313679695129399 1.0000000180025095e-35 154.0100021362305 22.500000000000004 5945.4616699218759 6455.5893554687509 8.0950002670288104 12.465000152587892 21.500000000000004 21.500000000000004 213.50000000000003 3.6650000810623173 29.913709640502933 84.673610687255874 15.834353923797609 139.50000000000003 -9.4949998855590803 6.4578142166137704 4.0990953445434579 92.850154876708999 20.135589599609379 23.48499965667725 4.5000000000000009 15.500000000000002 18.500000000000004
decision_type=2 2 2 2 2 2 2 2 2 2 2 2 2 2 2 2 2 2 2 2 2 2 2 2 2 2 2 2 2 2 2 2 2 2 2 2 2 2 2 2 2 2 2 2 2 2 2 2 2 2 2 2 2 2 2 2 2 2 2 2 2 2 2 2 2 2 2 2 2 2 2 2 2 2 2 2 2 2 2 2 2 2 2 2 2 2 2
left_child=5 7 6 4 15 36 28 78 20 10 73 37 17 35 46 82 22 64 49 23 26 76 -16 -11 41 48 -9 -24 30 -30 54 -32 33 -33 -10 -7 58 -6 -31 -19 -28 42 -25 -44 53 -38 77 55 81 -12 -51 -40 -15 71 84 -36 -47 -22 -1 70 -42 -14 -63 75 -13 66 -45 -68 -59 74 -60 -29 -73 -8 -23 -41 -17 -5 -2 80 -48 -26 -4 -18 -3 -86 -87
right_child=1 2 3 14 11 13 9 8 34 19 18 12 61 52 16 21 83 39 -20 -21 57 69 27 24 25 -27 40 44 29 38 31 32 -34 -35 47 -37 45 -39 51 63 60 -43 43 65 -46 56 79 -49 -50 50 -52 -53 -54 -55 -56 -57 -58 68 59 -61 -62 62 -64 -65 -66 -67 67 -69 -70 -71 -72 72 -74 -75 -76 -77 -78 -79 -80 -81 -82 -83 -84 -85 85 86 -88
leaf_value=-0.01060716528249727 -0.011170229639093913 0.0049472935863055156 -0.0089064459142143143 0.0028729847097617419 -0.0020462820199330604 -0.021101200914882535 0.0034590160465969382 0.01943775044062868 -0.0089276446159456714 0.0014204875138034614 0.014705902808399108 0.0093234205993694887 -0.0025738582917476847 -0.016456037840226506 0.019450016375391507 -0.014940296968643643 -0.0048708708688904104 0.015021489452626916 0.012044698357529767 0.00048588690528613288 0.0032658644184076473 -0.00032460792002655356 0.0050646876153137548 0.0073902581040044997 0.013565513496174087 -0.014668815907774583 0.0066296946841847811 -0.001761982185505918 0.0051338176447613699 -0.000740173252219722 -0.0073791609774817952 -0.0014535392126556741 -0.0050896491243892228 0.0064286002347353306 0.0006978563633513185 -0.009774842772502736 -0.011434527638400216 0.0083176628358681941 -0.017592744956098496 0.032924496704044078 0.0083573247541108339 0.0058061741763629623 0.0058095825098578328 0.018514806807999436 -0.019153832398313482 -0.012274149782773209 -0.01067863022869165 -0.0064737215460473636 0.0083356704932641829 0.032112487629425666 0.013834678134725605 -0.004462713150678645 -0.0079368292871160179 0.010850421420443677 0.0034732264618226798 -0.0040414714056802355 0.0045149124277620483 0.022166644166358138 0.0020833817658317006 0.015766059478148416 -0.0013454198686703447 0.018484919098681635 0.0025503014556492796 0.011476287502737371 0.020793640565674905 0.032823289895543437 0.0067197802884403982 0.01617479293258911 -0.002135675318894731 0.016807781535574287 -0.017599893062430719 0.0015772606909524318 0.019615100577147423 0.010230769762466686 0.0061395377586242863 0.011400898721683376 -0.0017067424716155082 -0.011849796867662297 -0.0061847006230620226 -0.010523839670496121 -0.00076359107593641383 -0.0096267576499369841 -0.0030076156397619747 -0.018059573701400319 0.0065333564790958434 0.02189549015461011 0.0087603547679784236
leaf_weight=87 829 1076 382 248 238 1963 481 70 912 553 98 234 256 366 71 85 2458 112 222 698 126 423 734 1079 27 102 374 4177 570 425 326 936 443 1453 1202 190 408 1145 187 414 157 803 250 631 58 75 208 1326 578 386 66 205 565 109 3200 1500 178 127 350 98 3398 86 173 37 184 44 301 346 27 86 37 266 55 594 895 28 351 69 1099 1095 309 100 2034 66 505 151 161
leaf_count=87 829 1076 382 248 238 1963 481 70 912 553 98 234 256 366 71 85 2458 112 222 698 126 423 734 1079 27 102 374 4177 570 425 326 936 443 1453 1202 190 408 1145 187 414 157 803 250 631 58 75 208 1326 578 386 66 205 565 109 3200 1500 178 127 350 98 3398 86 173 37 184 44 301 346 27 86 37 266 55 594 895 28 351 69 1099 1095 309 100 2034 66 505 151 161
internal_value=-4.26712e-05 0.00123285 0.00264125 -2.68225e-06 0.00389443 -0.0134072 0.00529918 -0.00307322 -0.00197361 0.00868147 0.0136317 0.0111763 0.0153889 -0.017443 -0.00281611 -0.00107872 -0.0017326 0.0218811 0.0225798 0.00702222 0.00087751 0.00267866 -0.000124415 0.00796939 0.00881869 0.00337389 0.000145835 -0.000382325 0.00271639 -0.00115045 0.00336673 0.00104874 0.00201985 0.0033393 -0.00444377 -0.0201029 -0.0033106 0.00653221 -0.00553807 0.0271827 -0.000197201 0.0100901 0.0113867 0.014128 -0.00123994 -0.0072348 -0.00730491 -0.00342789 0.00598811 0.0268273 0.0294495 -0.0107331 -0.0112888 -0.00101383 0.00480351 -0.00193217 -0.000451586 0.0113179 0.00121953 0.00334651 -0.000916166 0.00266409 0.00785164 0.0300207 0.0143789 0.0156991 0.0151074 0.0117802 0.0178886 0.00484548 0.000194618 -0.00130193 0.00467618 0.00720328 0.00406291 0.031567 -0.0042928 -0.000323284 -0.00832976 -0.0086762 -0.00475777 -0.00467513 -0.0039414 -0.0052168 0.00705086 0.00981802 0.015126
internal_weight=49547 45230 34083 17086 7163 4317 16997 11147 9219 7359 1847 2907 1524 3084 9923 4256 7994 1009 772 5512 4279 1840 5470 4814 4261 807 3999 5399 9638 1387 8251 3158 2832 2389 4940 2153 1233 1383 817 591 3929 3454 2651 1572 4665 661 1929 4028 705 550 452 392 931 4607 5093 2702 253 280 572 485 3555 515 259 479 418 1322 1278 647 154 1404 387 4498 321 1075 1318 442 436 317 1928 1612 517 127 2416 2524 1893 817 312
internal_count=49547 45230 34083 17086 7163 4317 16997 11147 9219 7359 1847 2907 1524 3084 9923 4256 7994 1009 772 5512 4279 1840 5470 4814 4261 807 3999 5399 9638 1387 8251 3158 2832 2389 4940 2153 1233 1383 817 591 3929 3454 2651 1572 4665 661 1929 4028 705 550 452 392 931 4607 5093 2702 253 280 572 485 3555 515 259 479 418 1322 1278 647 154 1404 387 4498 321 1075 1318 442 436 317 1928 1612 517 127 2416 2524 1893 817 312
is_linear=0
shrinkage=0.0719


Tree=6
num_leaves=88
num_cat=0
split_feature=22 0 0 20 18 22 22 0 20 20 22 4 20 20 20 12 22 12 15 10 8 17 12 22 15 15 20 15 9 20 20 10 15 0 0 0 15 22 20 7 10 10 15 14 9 0 0 20 12 13 12 22 10 7 56 12 20 39 17 20 0 11 0 8 0 22 17 18 16 20 12 20 15 14 20 16 15 7 15 22 15 9 22 0 14 20 20
split_gain=140.843 37.4843 70.4378 29.0684 16.8779 16.5137 24.4052 12.0307 11.9947 19.1074 10.6827 10.2029 10.1147 9.73727 12.1185 9.2491 6.52972 6.44368 5.90405 5.59311 5.31738 5.11053 4.92928 4.80918 4.67467 4.51161 4.39183 4.33573 4.32532 4.44749 4.31077 4.1697 4.00305 3.86689 3.85937 3.64412 3.55579 3.50004 3.49906 3.40352 3.77417 3.25391 3.10998 3.06862 3.03486 3.72796 3.46611 2.97335 2.90679 2.8442 2.9686 2.92579 2.80422 2.76192 2.72821 2.6697 2.57609 2.5567 2.55526 2.50317 2.4652 2.40445 2.40429 2.40251 2.40143 2.68781 2.40001 2.33572 3.27607 2.27938 2.94764 2.42151 2.56581 2.4974 2.24904 2.22408 2.19043 2.3886 2.08399 2.19427 2.08271 2.07156 2.06473 2.06455 2.05971 2.03986 2.02579
threshold=2.1650000810623173 173.72061157226565 40.771694183349616 1.4049999713897707 3.4384804964065556 5.3250000476837167 11.484999656677248 71.856250762939467 5.0650000572204599 -2.3249999284744258 3.2649999856948857 -1.0000000180025095e-35 -8.7349996566772443 -1.5249999761581419 6.8350000381469735 1.947684168815613 3.495000004768372 2.6128289699554448 -0.90648669004440297 2.5000000000000004 12.500000000000002 1.9524999856948855 4.2295706272125253 1.7150000333786013 -1.244590640068054 -1.117509603500366 -1.5249999761581419 -0.33580586314201349 5.2349998950958261 -9.4949998855590803 1.8350000381469729 21.500000000000004 0.72958755493164074 129.68965911865237 4.6652231216430673 5725.3676757812509 3.6460293531417851 17.640000343322757 0.34499999880790716 35.500000000000007 21.500000000000004 21.500000000000004 1.1409673690795901 1.7937069535255434 4.555000066757203 5734.7268066406259 5765.2985839843759 -32.785001754760735 2.3437391519546513 11.901342868804933 12.209233283996584 4867.1999511718759 20.500000000000004 52.500000000000007 1.0000000180025095e-35 18.629513740539554 6.6749999523162851 1.0000000180025095e-35 5.4140000343322763 -0.46500000357627863 18.753186225891117 4.5000000000000009 4.6652231216430673 13.500000000000002 29.913709640502933 4.1649999618530282 1.7465000152587893 43.489568710327156 8.7357139587402362 0.50499999523162853 0.49755515158176428 -0.054999999701976769 6.2563493251800546 1.1190555691719057 -8.4849996566772443 16.159825325012211 -0.68651515245437611 148.50000000000003 -0.55683228373527516 6.4649999141693124 -2.9924038648605342 2.5149999856948857 17.640000343322757 21.462085723876957 6.5425353050231942 36.890001296997077 3.5749999284744267
decision_type=2 2 2 2 2 2 2 2 2 2 2 2 2 2 2 2 2 2 2 2 2 2 2 2 2 2 2 2 2 2 2 2 2 2 2 2 2 2 2 2 2 2 2 2 2 2 2 2 2 2 2 2 2 2 2 2 2 2 2 2 2 2 2 2 2 2 2 2 2 2 2 2 2 2 2 2 2 2 2 2 2 2 2 2 2 2 2
left_child=3 2 10 39 11 16 7 26 9 15 81 13 -9 28 38 -6 -4 -10 74 43 48 31 69 34 -19 -12 -7 41 -3 -30 36 47 82 56 -5 -16 49 64 52 40 -1 -21 55 -13 -40 86 -47 -20 -8 50 53 75 80 -24 66 58 -22 -49 -29 -55 -25 -54 -41 -33 -27 -66 -14 84 -69 71 -71 73 -73 -11 -17 -51 77 -61 -28 -80 -15 -2 -26 -83 -32 -84 -46
right_child=1 4 5 23 8 6 20 12 17 22 25 19 54 14 35 18 -18 24 21 27 33 -23 30 60 32 37 78 42 29 -31 67 63 -34 -35 -36 -37 -38 -39 44 62 -42 -43 -44 -45 45 46 -48 57 -50 51 -52 -53 61 59 -56 -57 -58 -59 -60 76 -62 -63 -64 -65 65 -67 -68 68 -70 70 -72 72 -74 -75 -76 -77 -78 -79 79 -81 -82 83 85 -85 -86 -87 -88
leaf_value=0.0047617732669628108 0.0069960291139386822 -0.010539329079027217 -0.0011669791489149213 -0.00772415340192374 0.016413881865691808 -0.001438885020153805 0.010144282359708255 0.0025293082769988085 0.022414513082529456 -0.0075225511564503472 -0.0032436171322975734 -0.0033013727977680252 0.030771171616098551 0.014911629917430539 -0.015266633421680869 -0.01137224249286364 0.0080500378426949341 -0.010395024340203939 -0.020005614852823643 -0.0033653044974909937 0.011717268377694592 -0.0061469144361925169 0.0069106001314970895 -0.016070032113910469 0.01755939460277571 0.0003503787561336933 0.0056659600032513613 0.0047416785675292034 -0.0091809875027251877 -0.00044160489133487349 0.005359385263349184 -0.0041739131517804211 -0.0081791511972140463 0.002408049250147835 -0.019548248007720013 -0.0038619510106795061 0.0094327428740425667 0.010240960606150935 -0.0051574731018553047 0.00075987953025715392 -0.01995188830869454 0.014911536481986324 -0.0049201565657692745 0.0098059153621471769 0.0003739105051142418 0.013486669541529531 0.0023202316007087014 -0.0017752009851406826 -0.0014222282750908249 -0.0034293707715511022 0.013420139668974771 0.024792623975507015 0.0077303807817990485 -0.0024370214474098936 0.013181650568635659 -0.0024058646210930144 0.025356902109063401 0.022300361838047896 -0.0032567684851938271 0.0032373758157043572 -0.0081652570464933252 -0.0051153718763120035 -0.0090870990731946495 0.013838275056226876 0.0016426897138290468 0.0083301824396450255 0.023006339362018052 -0.0084686904660735748 0.0071779457729699144 0.01237753746336555 -0.0047988722651277948 0.0013348342666760578 0.014705852225951579 -0.00017396571656248133 -0.0052413213394034283 0.020978249534103301 0.0049494630549280754 -0.0082555237441578992 0.012118913653979407 0.020613666709156712 0.005008926055661206 -0.0074130104767931512 -0.002566423280216053 -0.0029860855112968667 -0.0017141477671730834 -0.021764010264114075 -0.010663176047320661
leaf_weight=363 87 452 512 155 114 99 148 100 44 332 689 102 530 116 209 691 1767 744 46 739 319 1682 846 413 26 1446 114 4505 399 1229 369 52 905 191 1919 475 526 326 392 186 35 54 213 946 206 178 751 2469 465 533 163 21 107 493 73 320 93 23 216 240 407 254 409 143 693 565 343 335 87 55 830 2075 77 857 564 20 1200 153 325 309 2162 768 2394 1886 502 29 147
leaf_count=363 87 452 512 155 114 99 148 100 44 332 689 102 530 116 209 691 1767 744 46 739 319 1682 846 413 26 1446 114 4505 399 1229 369 52 905 191 1919 475 526 326 392 186 35 54 213 946 206 178 751 2469 465 533 163 21 107 493 73 320 93 23 216 240 407 254 409 143 693 565 343 335 87 55 830 2075 77 857 564 20 1200 153 325 309 2162 768 2394 1886 502 29 147
internal_value=-3.95527e-05 0.00107887 0.00455903 -0.0131782 -0.000140527 0.0106294 0.014038 0.0191443 -0.00150518 -0.000586393 -0.000503563 0.00175046 0.0243051 -0.000180828 0.00153946 -0.00385824 0.00597818 -0.00494232 -0.0042663 0.00367722 0.0060866 -0.00302837 0.00136149 -0.0168205 -0.0052367 0.00200608 0.0127679 0.00283615 -0.00431493 -0.00258514 0.00278284 -0.00110812 -0.00409166 0.0108811 -0.0186659 -0.00735062 0.0039017 0.0032007 0.00294996 -0.00256035 0.00258175 -0.00211736 0.00358431 0.00852767 0.0003769 0.00207123 0.00446264 -0.00188744 0.00136601 0.00310802 0.00397037 -0.0015371 0.00458112 0.00344412 0.0266041 0.00394418 0.0148026 -0.00155192 0.00437516 0.00203697 -0.0121498 -0.00130053 -0.00600442 0.00902138 0.00235093 0.00464833 0.0277235 -0.000845133 -0.00523665 -0.00048369 -0.0037284 0.000375008 0.0018145 -0.00222812 -0.00861912 -0.0025418 0.00342324 -0.0012302 0.0146518 0.0162633 0.00551436 -0.00390963 -0.00258009 -0.00426813 0.00127951 -0.0027973 -0.00421474
internal_weight=49547 45660 11848 3887 33812 5388 3109 1893 19640 15498 6460 14172 1046 7077 4997 5784 2279 4142 5670 7095 1216 4415 9714 2894 4098 3719 847 6047 2080 1628 5488 2733 3354 603 2074 684 4195 3030 4313 993 398 793 5254 1048 1674 1282 929 2538 613 3669 3095 574 2639 2932 946 5041 412 2492 4721 2086 820 361 595 195 2704 1258 873 1293 422 4226 885 3341 2152 1189 1255 553 1593 393 748 634 2278 2741 2449 2654 871 2423 353
internal_count=49547 45660 11848 3887 33812 5388 3109 1893 19640 15498 6460 14172 1046 7077 4997 5784 2279 4142 5670 7095 1216 4415 9714 2894 4098 3719 847 6047 2080 1628 5488 2733 3354 603 2074 684 4195 3030 4313 993 398 793 5254 1048 1674 1282 929 2538 613 3669 3095 574 2639 2932 946 5041 412 2492 4721 2086 820 361 595 195 2704 1258 873 1293 422 4226 885 3341 2152 1189 1255 553 1593 393 748 634 2278 2741 2449 2654 871 2423 353
is_linear=0
shrinkage=0.0719


Tree=7
num_leaves=88
num_cat=0
split_feature=22 0 22 3 1 3 22 22 15 17 0 10 22 1 7 15 15 22 0 0 13 10 10 13 10 16 7 0 0 14 15 10 1 0 0 15 9 10 16 15 17 0 7 14 3 0 15 14 17 13 7 3 0 0 2 14 10 14 17 0 9 16 13 14 7 22 13 14 2 17 0 10 16 13 17 1 7 10 10 1 17 3 0 15 14 5 1
split_gain=125.411 36.5929 52.2221 22.299 18.9056 14.7913 25.9673 14.964 12.0736 11.9866 9.86518 8.12782 7.05901 6.28073 4.87335 4.75182 4.71766 3.97205 3.6424 4.80199 3.61053 5.62344 3.17687 3.04004 2.96911 3.53826 2.94918 2.77397 3.8184 2.55137 3.46285 2.49651 2.49631 2.48694 5.83392 2.65512 2.77366 2.37899 2.49978 2.31345 2.23008 2.17514 2.16076 2.35907 2.15525 2.08587 2.0756 2.03916 1.92896 1.91145 1.90196 1.87818 1.8699 2.85484 1.7986 1.77017 1.83652 2.38229 1.76269 1.75654 2.02526 1.76986 1.74389 1.69189 1.67893 1.67828 1.64118 1.63586 1.63184 1.71508 1.62987 1.62427 2.01734 1.87393 1.61719 1.59923 1.59503 1.55458 2.31409 1.53583 1.52979 2.04314 1.72981 1.48541 1.47956 1.4742 1.47141
threshold=2.3449999094009404 225.46174621582034 4.0650000572204599 62.013969421386726 6.7500000000000009 87.007942199707045 6.4649999141693124 11.484999656677248 -1.0053418874740598 2.089499950408936 5.8626694679260263 2.5000000000000004 1.8849999904632571 2.1499999761581425 147.50000000000003 -0.85941722989082325 -1.7081666588783262 3.3349999189376835 29.218878746032718 99.818283081054702 13.965763092041017 21.500000000000004 21.500000000000004 4.4278018474578866 19.500000000000004 6.149425983428956 39.500000000000007 5731.7590332031259 5775.1030273437509 9.6232013702392596 -0.42236112058162684 12.500000000000002 10.650000095367433 5734.7268066406259 5775.1030273437509 0.53712317347526561 8.2750000953674334 21.500000000000004 10.249436855316164 -2.6908034086227413 0.032500000670552261 34.507053375244148 169.50000000000003 18.113771438598636 92.850154876708999 71.856250762939467 3.2079473733901982 15.224601268768312 2.2425000667572026 10.097702026367189 140.50000000000003 49.632276535034187 5725.3676757812509 5777.7761230468759 34.95000076293946 8.0207796096801776 9.5000000000000018 0.64917355775833141 0.037499999627470977 16.373490333557132 5.0099999904632577 2.7804317474365239 2.5737221240997319 5.3146760463714608 193.50000000000003 887.16500854492199 0.090521115809679045 2.8080247640609746 238.05000305175784 3.7904999256134038 16.902994155883793 1.5000000000000002 7.1754329204559335 13.67019557952881 0.16250000149011615 9.7500000000000018 92.500000000000014 20.500000000000004 16.500000000000004 0.65000000596046459 0.97749999165534984 37.576341629028327 80.82556533813478 0.33433035016059881 3.2559762001037602 4.5000000000000009 16.550000190734867
decision_type=2 2 2 2 2 2 2 2 2 2 2 2 2 2 2 2 2 2 2 2 2 2 2 2 2 2 2 2 2 2 2 2 2 2 2 2 2 2 2 2 2 2 2 2 2 2 2 2 2 2 2 2 2 2 2 2 2 2 2 2 2 2 2 2 2 2 2 2 2 2 2 2 2 2 2 2 2 2 2 2 2 2 2 2 2 10 2
left_child=3 2 17 10 15 6 -6 16 13 11 46 26 -12 40 48 -4 -8 51 58 22 29 47 55 77 -7 -26 -10 31 76 33 -31 86 -14 35 -35 36 -13 44 49 -16 -3 -19 -23 -44 -32 -18 79 54 52 -39 75 70 -15 -54 -22 56 57 -20 84 60 61 -25 -48 -42 -40 71 -67 -50 69 -30 -2 73 -73 -28 -68 -9 -29 78 -5 -1 82 -82 -58 -36 -17 -21 -11
right_child=1 8 4 23 5 24 7 50 9 27 12 20 32 14 39 18 45 41 19 85 21 42 -24 59 25 -27 65 28 68 30 37 -33 -34 34 83 -37 -38 38 64 -41 63 -43 43 -45 -46 -47 62 -49 67 -51 -52 -53 53 -55 -56 -57 80 -59 -60 -61 -62 -63 -64 -65 -66 66 74 -69 -70 -71 -72 72 -74 -75 -76 -77 -78 -79 -80 -81 81 -83 -84 -85 -86 -87 -88
leaf_value=0.0053217686832564993 -0.010098406973835907 0.0060270401187492492 -0.00087466585175159813 -8.6994835464778849e-05 0.008502047326137482 0.00081154671329756317 0.00047616322643062771 0.0087235548399781631 -0.0015985530072415959 -0.0028242649653010916 -0.018047873249723574 0.0014034382619063338 -0.013293294432059089 -0.0060775422549157543 -0.012101855044364054 0.0041981373621848084 0.019494365021378739 -0.0012770335405699706 -0.001835576606248675 -0.0010663054399816425 -0.016823434900114238 -0.0042371936360552712 0.027704579957019786 -0.016719127548341199 0.0011709906583424559 0.026691083267298469 0.0078936589070317999 0.00085332191464302558 0.00070649520165471009 -0.0035147291327802819 0.0010406732382154105 -0.006437821578574354 -0.0048183131607224894 0.0076859523545907953 0.0014865299167303287 -0.0044393228160597249 -0.0042591559075640766 -0.0040199175458791063 0.0085339129503928194 -0.0060899642199145074 0.00076523334570118863 0.0038810576636802221 0.026913700696941587 0.00045064067314938653 0.0051228477693371112 0.027959494557568555 -0.0024929648961956111 -0.0004609505894155363 0.00023198420123504669 0.0116271483431533 0.017599839014596382 0.00041668496121336363 0.0089672868103943242 -0.0016848743483264253 -0.0047123480298358307 0.019448234850318803 0.0075921120045382914 0.015306515898355506 0.00099899926353492151 -0.00081167617402286263 -0.012134282336293474 0.0040010555053559419 0.026730895664186703 -0.004110817873745563 0.033260191585516609 0.012524459775578551 -0.0053915069145680549 -0.010671360215343142 -0.0029404116911049888 -0.0024828340291840121 -0.0033764314917385184 0.011225146111080263 0.0020926610461096725 0.015982656554680705 0.0039752942699683973 -0.0035632075373320219 0.0091907906907679505 -0.00835700453206141 0.012244694485845616 -0.0078227664295708287 0.010283495460875305 -0.0048796830342956714 0.029793150153193823 -0.00068631620560157696 0.018390630337735258 0.018700323078668066 0.0036119708327544907
leaf_weight=61 205 266 788 312 2137 690 38 144 271 1128 2188 2158 462 372 568 112 188 830 49 273 69 27 55 28 59 54 566 228 2263 373 1254 1065 296 704 5584 819 564 60 24 800 962 860 59 25 1437 806 20 700 98 122 70 643 152 901 812 89 208 279 812 205 296 89 22 595 36 90 119 255 2372 1417 2122 183 398 202 475 88 249 73 105 184 74 121 20 2293 58 21 219
leaf_count=61 205 266 788 312 2137 690 38 144 271 1128 2188 2158 462 372 568 112 188 830 49 273 69 27 55 28 59 54 566 228 2263 373 1254 1065 296 704 5584 819 564 60 24 800 962 860 59 25 1437 806 20 700 98 122 70 643 152 901 812 89 208 279 812 205 296 89 22 595 36 90 119 255 2372 1417 2122 183 398 202 475 88 249 73 105 184 74 121 20 2293 58 21 219
internal_value=-4.45301e-05 0.00107586 0.00449981 -0.011718 0.00832409 0.011383 0.0134176 0.0212901 -0.000145662 0.00042698 -0.014735 0.00142984 -0.0159748 -0.00341506 -0.00536094 0.00390489 0.0254106 -0.00143546 0.00564094 0.00831828 0.000890103 -0.00226229 0.0109372 -0.00291248 0.00258495 0.0133901 0.00543926 -0.00175141 -0.000981107 0.001236 0.00300677 -0.00383542 -0.00998732 0.000752843 0.00141452 -0.00084986 0.000229167 0.00383704 0.0106702 -0.00858808 -5.55497e-05 0.00134622 0.0133764 0.0190695 0.00322155 0.0263611 -0.00199953 -0.00336195 -0.00287647 0.00645416 0.00720076 -0.00301921 -0.00169536 -0.00014471 -0.00566392 0.00983618 0.00869351 0.0127375 0.00239651 -0.00626676 -0.00896804 -0.000934948 0.0127516 -0.00109642 0.0234142 0.00637872 0.00347059 -0.00763684 -0.0014696 -0.000520847 -0.00396976 0.00785129 0.00497375 0.0100247 0.0020943 0.0040516 0.00521117 0.00131259 0.00301174 -0.00453918 0.0055514 0.000860921 0.00955132 0.000853675 0.00905598 0.000336586 -0.00177586
internal_weight=49568 45227 11893 4341 7233 4274 3471 1334 33334 28365 3233 19424 2946 4969 3146 2959 1032 4660 2171 1189 17120 1692 895 1108 803 113 2304 8941 6529 15428 3306 2412 758 12122 8581 3541 2722 2933 242 1368 1823 1690 111 84 2691 994 287 1581 1778 182 302 2970 1425 1053 881 840 751 328 982 618 413 117 42 1557 60 2033 684 353 6052 3680 2327 1349 581 768 594 232 477 490 417 245 423 195 228 7877 170 294 1347
internal_count=49568 45227 11893 4341 7233 4274 3471 1334 33334 28365 3233 19424 2946 4969 3146 2959 1032 4660 2171 1189 17120 1692 895 1108 803 113 2304 8941 6529 15428 3306 2412 758 12122 8581 3541 2722 2933 242 1368 1823 1690 111 84 2691 994 287 1581 1778 182 302 2970 1425 1053 881 840 751 328 982 618 413 117 42 1557 60 2033 684 353 6052 3680 2327 1349 581 768 594 232 477 490 417 245 423 195 228 7877 170 294 1347
is_linear=0
shrinkage=0.0719


Tree=8
num_leaves=88
num_cat=0
split_feature=22 21 21 20 0 22 12 1 0 22 21 10 17 0 18 8 17 10 22 18 22 0 22 0 0 19 21 10 3 3 0 12 21 10 16 20 20 17 12 20 20 20 14 13 10 3 14 3 22 22 10 3 16 12 20 16 0 5 13 10 10 10 12 2 22 22 13 18 0 0 13 10 16 13 16 19 3 18 16 20 12 20 10 10 16 8 21
split_gain=108.03 38.5638 35.8092 26.4242 25.3673 34.3967 23.6845 9.47477 8.34291 12.0662 8.06352 7.63476 7.37754 6.75137 6.36214 6.20591 6.1621 5.83491 5.62708 5.34134 5.25935 6.32135 9.30535 5.83196 5.91458 5.05567 3.96907 3.94497 3.92357 3.87246 3.82084 3.51513 3.33706 3.27756 3.10321 3.00103 3.29172 3.65015 3.32211 5.05523 3.73601 3.19858 2.96461 2.90733 2.84261 3.90877 2.81571 2.76769 2.75821 2.70694 2.67444 2.67443 2.63989 2.63548 3.51196 2.62618 2.59248 2.56019 2.55904 2.52188 4.6834 3.56257 2.51144 2.49497 2.49269 2.44 2.42873 2.38655 2.36311 3.0536 2.35671 2.34809 2.32807 2.26572 2.23569 2.23496 2.79021 2.67176 2.72855 2.22775 2.20479 2.18941 2.18464 2.39704 2.36626 2.20381 2.16711
threshold=2.3449999094009404 -0.093499999493360506 0.004500000039115549 0.63499999046325695 313.41955566406256 4.0650000572204599 3.7560095787048344 6.7500000000000009 76.039382934570327 10.744999885559084 -0.013500000350177286 20.500000000000004 1.7275000214576723 8756.6938476562518 6.4578142166137704 9.5000000000000018 2.089499950408936 22.500000000000004 1.8849999904632571 8.0862379074096697 3.6650000810623173 173.72061157226565 6.0750000476837167 5728.1923828125009 5953.2810058593759 4.9687500000000009 0.11250000074505807 2.5000000000000004 60.262765884399421 115.22258758544923 21.462085723876957 0.1012820526957512 -0.27650000154972071 1.5000000000000002 1.4921937584877016 -5.2550001144409171 -0.71500000357627858 1.3404999971389773 0.5597619116306306 0.94499999284744274 4.7850000858306894 1.3149999976158144 8.4843583106994647 4.8960633277893075 20.500000000000004 41.301382064819343 0.71728810667991649 94.488700866699233 5.5450000762939462 3.495000004768372 1.5000000000000002 46.764232635498054 3.9623095989227299 1.947684168815613 -2.6249999999999996 10.429989337921144 41.774168014526374 13.500000000000002 5.0127830505371103 20.500000000000004 16.500000000000004 18.500000000000004 0.70100000500679027 247.05000305175784 8.8450002670288104 649.10498046875011 1.1651923060417178 0.95749938488006603 86.236579895019545 29.913709640502933 16.497940063476566 21.500000000000004 1.8078330755233767 0.90792605280876171 4.8139545917510995 -1.0000000180025095e-35 91.253303527832045 1.3653816580772402 10.545090675354006 -0.41499999165534968 0.78973686695098888 9.1549997329711932 16.500000000000004 17.500000000000004 0.12460995092988016 9.5000000000000018 2.9774999618530278
decision_type=2 2 2 2 2 2 2 2 2 2 2 2 2 2 2 2 2 2 2 2 2 2 2 2 2 2 2 2 2 2 2 2 2 2 2 2 2 2 2 2 2 2 2 2 2 2 2 2 2 2 2 2 2 2 2 2 2 8 2 2 2 2 2 2 2 2 2 2 2 2 2 2 2 2 2 2 2 2 2 2 2 2 2 2 2 2 2
left_child=3 12 6 32 5 30 11 50 -9 48 -8 31 14 15 25 70 19 20 28 27 -17 22 -22 52 43 62 -21 -6 -5 56 -4 82 -1 -27 71 58 37 66 41 57 -41 73 59 -25 45 -35 -26 -28 -10 -32 64 -11 -23 54 -16 67 -24 -40 -33 60 -34 79 -2 72 -7 -46 -37 -47 69 -52 -12 -13 -14 -38 -50 -29 77 78 -77 -62 -68 -18 -3 84 -84 -86 -79
right_child=1 2 4 18 16 7 10 8 9 51 13 34 63 -15 53 17 81 -19 -20 26 21 23 29 24 46 33 47 75 -30 -31 49 35 42 44 -36 36 38 -39 39 40 -42 -43 -44 -45 65 55 -48 -49 74 -51 68 -53 -54 -55 -56 -57 -58 -59 -60 -61 61 -63 -64 -65 -66 -67 80 -69 -70 -71 -72 -73 -74 -75 -76 76 -78 86 -80 -81 -82 -83 83 -85 85 -87 -88
leaf_value=-0.013241976248545242 0.019827197842820075 0.0036782948181719728 -0.007444223602578454 -0.016833964778798106 0.0068971946525408449 0.0048349942681612697 -0.00056016078997632782 0.0071833930980252135 0.010744389216609425 0.010183959356822184 0.0049200164461441339 -0.0030770001448818386 -0.0083915868612531481 0.0031171812620203222 0.016914225273632535 0.0016943925613073978 -0.0038262459033149947 0.021855152226887737 -0.0086885622741575599 0.0030874302422325044 0.0086664917184100642 0.00052721349163493449 0.0079042495476058447 0.0086143627321678077 -0.0089900344391745275 0.01146609745335923 -0.0051501490177580872 -0.0028285208014342451 -0.0091456268071029908 0.0090146393478240418 -0.0022991092624500683 0.00083516227516659586 0.0010455844615788847 0.026589104851524256 -0.00035831925111806185 -0.010861358088147088 0.0003142162464376804 -0.012447888744950687 0.0062539520338266178 -0.0072529656875342822 0.016420700648724331 0.027937827650934444 -0.0076546155594157811 0.01719280091797918 0.017009699295327949 0.0076961895230284114 0.0080622589146511821 1.4732211923251423e-05 0.010058522795685752 0.0025923633868280846 -0.00078602482191841578 -0.0023737088677912854 0.0068370829389300227 -0.0038332642598300896 -0.00096417249139829912 -0.0035176207059561984 0.02602848598976536 -0.0020670711545697955 0.035797868868485239 -0.0070869756664143713 0.0065031485005666752 0.0027877714563165562 -0.0037105011516796785 -0.0068549393258577011 0.028990770195518538 0.00079924874257636012 0.022159236792252547 0.00065333898366162985 -0.0071723964864694916 0.0075778366839832209 -0.00994820137551484 -0.012545053284744133 -0.002492181208739206 -0.0064199903092028868 0.025911239570506381 0.0077006065066704665 0.0091648147145019336 -0.002201673756894978 -0.0041015551218283501 0.032452650052444382 0.0014321055620184174 -0.0080426621956339647 0.039891682810673415 0.006743707205733594 0.029306317423685165 0.0030170461551239092 0.020585788326032851
leaf_weight=97 24 1322 560 2131 461 58 702 1636 94 239 1572 264 412 1553 72 468 1749 189 806 452 714 487 46 288 52 219 2622 1094 411 110 2143 20 461 31 570 59 1336 187 1526 293 39 20 173 715 117 345 1250 673 52 804 527 138 1165 3267 268 509 394 218 24 112 24 64 942 1927 36 82 35 895 142 394 57 280 2173 320 440 378 206 1069 138 62 111 1005 23 333 27 43 22
leaf_count=97 24 1322 560 2131 461 58 702 1636 94 239 1572 264 412 1553 72 468 1749 189 806 452 714 487 46 288 52 219 2622 1094 411 110 2143 20 461 31 570 59 1336 187 1526 293 39 20 173 715 117 345 1250 673 52 804 527 138 1165 3267 268 509 394 218 24 112 24 64 942 1927 36 82 35 895 142 394 57 280 2173 320 440 378 206 1069 138 62 111 1005 23 333 27 43 22
internal_value=-4.12857e-05 0.000998573 0.00220908 -0.0108757 -0.000104171 0.00312075 0.00456651 0.00790206 0.0103118 0.0156238 0.00685996 0.00139044 -0.00264289 0.00743519 -0.00114155 0.00832812 -0.00247779 0.00941681 -0.0139308 -0.00135952 0.00900311 0.00965774 0.0140873 0.00824212 0.01058 0.00121104 -0.00322736 0.000717723 -0.0155919 0.0211196 -0.00199929 0.00241573 -0.000572567 0.00311699 -0.00407048 0.00128451 0.00108551 -0.00518208 0.00174104 0.00366356 -0.00446398 -0.000638731 0.000796049 0.0147323 0.00219171 0.00127887 0.00737917 -0.00409442 0.0220807 -0.000963716 0.00248666 0.0055802 0.00497858 -0.00320594 0.00281404 0.000828735 0.0241397 0.0052123 0.0199664 0.00282181 0.00464252 0.0156793 -0.00312295 -0.00489531 0.0141146 0.0103434 0.0014328 0.00261499 0.00145591 0.00278911 0.00439813 -0.00795516 -0.00343347 -0.000985475 0.0242412 -0.00026132 0.00128631 0.000274715 0.00453906 0.025242 0.00641923 -0.00536588 0.00512446 0.00960608 0.0198265 0.0131954 -0.00173971
internal_weight=49568 45227 33944 4341 17132 7263 16812 3756 2599 963 9762 7050 11283 9060 6771 7507 9869 5878 3348 7115 5689 5221 1264 3957 2305 3164 3747 3368 2542 550 3507 5936 993 2198 1114 4188 4144 392 3752 2076 332 1676 896 1003 1979 1780 1302 3295 586 2947 1157 377 1652 3607 340 1749 440 1744 44 723 611 150 966 4512 94 199 205 1240 1063 921 1629 544 2585 1656 492 2907 1813 1607 516 86 146 2754 1748 426 93 70 1091
internal_count=49568 45227 33944 4341 17132 7263 16812 3756 2599 963 9762 7050 11283 9060 6771 7507 9869 5878 3348 7115 5689 5221 1264 3957 2305 3164 3747 3368 2542 550 3507 5936 993 2198 1114 4188 4144 392 3752 2076 332 1676 896 1003 1979 1780 1302 3295 586 2947 1157 377 1652 3607 340 1749 440 1744 44 723 611 150 966 4512 94 199 205 1240 1063 921 1629 544 2585 1656 492 2907 1813 1607 516 86 146 2754 1748 426 93 70 1091
is_linear=0
shrinkage=0.0719


Tree=9
num_leaves=88
num_cat=0
split_feature=22 21 21 20 0 22 12 0 22 21 17 17 0 17 0 12 3 13 12 0 0 2 0 20 3 22 22 20 22 22 3 0 14 20 22 20 3 20 20 20 39 20 21 0 19 9 20 20 17 12 22 20 12 9 2 12 16 9 22 13 0 13 20 13 9 20 20 20 3 8 3 0 12 16 13 20 16 5 16 21 3 19 14 19 19 20 13
split_gain=93.1736 32.7677 31.3325 21.6878 20.7968 31.1434 20.348 7.05573 13.3002 6.71736 6.37698 5.9472 5.32777 5.30985 5.05518 4.86611 4.81103 4.05459 4.00167 3.76619 3.4979 3.17544 3.15621 3.04028 2.99559 2.97186 2.88191 2.83467 2.80258 6.92553 3.12708 2.75794 2.74776 2.69854 2.6768 2.50802 2.49922 2.46799 3.41405 2.40822 3.63531 2.7587 2.65302 2.35522 2.34963 2.32409 3.60305 2.30456 3.28454 2.45195 2.29943 2.28164 2.27693 2.22914 2.19495 2.14442 2.13654 2.11763 2.04734 2.26864 2.82389 2.02475 1.97257 1.95791 2.82808 1.95126 1.90687 1.89144 1.88336 1.85378 1.85085 1.84387 2.7666 1.83986 1.78113 1.7708 1.75346 1.71599 2.17292 1.71214 2.05601 1.75413 1.67755 1.66609 1.64598 1.88073 1.64326
threshold=2.2549999952316289 -0.093499999493360506 0.004500000039115549 0.63499999046325695 313.41955566406256 4.1649999618530282 3.3217483758926396 62.210252761840827 11.484999656677248 -0.013500000350177286 1.6134999990463259 4.2555000782012948 86.236579895019545 1.8564999699592593 8800.4140625000018 7.7920243740081796 46.121852874755866 17.422439575195316 0.3778888881206513 21.462085723876957 24.49607086181641 240.84999847412112 8.9932513236999529 1.0000000180025095e-35 92.850154876708999 3.495000004768372 3.6650000810623173 -21.535000801086422 13.574999809265138 6.0750000476837167 153.9325866699219 18.753186225891117 6.8057255744934091 5.4049999713897714 1.985000014305115 -0.7849999964237212 106.87542724609376 9.6449999809265154 0.70499998331069957 -1.0000000180025095e-35 1.0000000180025095e-35 -3.4950000047683711 -1.0000000180025095e-35 8451.0117187500018 1.0000000180025095e-35 8.5149998664855975 -2.1850000619888301 -0.7849999964237212 1.3404999971389773 0.49755515158176428 0.40500000119209295 9.305000305175783 0.11835016682744028 6.2149999141693124 250.94999694824222 2.0718253850936894 1.8078330755233767 7.5050001144409189 5246.1250000000009 0.18740671873092654 13468.012207031252 1.5586104989051821 -4.8250000476837149 10.30334520339966 7.4599997997283944 2.685000061988831 -7.0350000858306876 3.1049998998641972 38.190649032592781 12.500000000000002 87.007942199707045 6556.8518066406259 17.227960586547855 1.4554940462112429 3.7111335992813115 -2.6249999999999996 9.4996223449707049 -6.4999999999999991 6.6779549121856698 0.11250000074505807 81.449691772460952 114.8729820251465 9.6702075004577654 314.04298400878912 289.50581359863287 -2.4650000333786006 4.3527820110321054
decision_type=2 2 2 2 2 2 2 2 2 2 2 2 2 2 2 2 2 2 2 2 2 2 2 2 2 2 2 2 2 2 2 2 2 2 2 2 2 2 2 2 2 2 2 2 2 2 2 2 2 2 2 2 2 2 2 2 2 2 2 2 2 2 2 2 2 2 2 2 2 2 2 2 2 2 2 2 2 10 2 2 2 2 2 2 2 2 2
left_child=3 10 6 22 5 19 23 20 12 -8 18 14 63 24 15 33 34 26 -2 -4 -7 27 35 39 79 -21 -17 -20 29 -28 -31 -18 62 45 50 -1 -25 38 -30 40 42 -42 52 71 -10 46 74 48 61 -49 -5 73 -3 -19 56 -37 -12 -40 82 -60 -61 -44 -13 64 -9 -38 -16 -55 -46 -53 -14 -29 -73 -15 -11 -63 -58 -23 -79 80 81 -6 -41 -75 -56 -86 -57
right_child=1 2 4 16 13 7 9 8 44 11 54 32 70 51 66 17 31 53 21 25 -22 77 -24 36 -26 -27 28 43 37 30 -32 -33 -34 -35 -36 55 65 -39 57 58 41 -43 47 -45 68 -47 -48 49 -50 -51 -52 69 -54 67 84 86 76 -59 59 60 -62 75 -64 -65 -66 -67 -68 -69 -70 -71 -72 72 -74 83 -76 -77 -78 78 -80 -81 -82 -83 -84 -85 85 -87 -88
leaf_value=-0.0072306071620257678 0.015297201750272443 0.025300227504571456 -0.0069102831718576537 0.0026718669515328987 -0.0012649113972051998 -0.0013147427037437445 -0.00037076805360776167 0.020983628001609311 -0.0071186067230094912 -0.0097630382008243172 -0.0077696467227074406 -0.004416863182019495 0.023006903964690045 -0.0074988161964945604 -0.01197487439752992 0.0039832986839851052 -0.010612161399238556 -0.0057433472996177484 -0.0058261187623489573 -0.0022338282718546744 0.006230019122835286 -0.0095982755448630764 -0.0056738123492461713 -0.0030669680437621109 0.0020122756539252807 0.0025872135887631603 0.0092467914759883345 0.00073883779629995122 0.009379712018682795 0.024955968555308451 0.0012563811403485988 -0.00045573745543137204 -0.0018411132314360911 -0.0015307798118098174 -0.0090832962728339267 0.00011821105431625235 0.0017992201660670269 0.0014319832152622823 0.013451150528173255 0.0055466000250055424 0.035974783469131452 0.0071448167388710217 -0.0076656835025644349 -0.0038220598376460151 0.009314964935914008 0.010409936636332662 0.0067094328080834556 -0.0023208532417474947 -0.013997713113975305 0.0037155635851543758 -0.016117091456366226 -0.010136431632452174 0.0038609734836713774 0.0028884917929863081 -0.0074751056297193445 0.016040667448652693 -0.00179738287398843 0.025132569535537563 0.0037727416666308608 -0.0036294063929960055 0.01914400626877567 0.020616550370154505 0.0059260728895894127 0.0072267449261731028 0.0021017402378557593 0.024138908314320369 0.0039533496612761303 0.022015795499845968 -0.00032808216706146844 -0.0045272592108757436 0.0041360769795046768 0.0041087119161775489 0.026234867730521506 -0.002508996083256589 0.0022875257717544328 -6.9998435765211055e-05 -0.0098903986032168115 -0.0050458746938672307 -0.00040905628694859356 -0.0022467950688264257 -0.005882573339001264 0.0099414333227895047 0.024803808827029861 0.012699310570245509 -0.0042227913139983664 0.010924140535427444 0.0035860989629128708
leaf_weight=105 78 28 625 34 117 389 733 165 112 102 425 107 437 416 40 309 615 121 364 2225 1719 198 396 1292 1292 940 467 2340 1915 309 32 179 490 223 363 222 559 161 298 1064 23 69 88 478 214 653 1613 932 163 555 2008 557 309 115 1434 116 2420 111 1040 450 30 34 854 286 55 21 1273 35 204 678 29 525 31 1740 167 57 147 987 1113 4735 109 187 24 38 705 45 105
leaf_count=105 78 28 625 34 117 389 733 165 112 102 425 107 437 416 40 309 615 121 364 2225 1719 198 396 1292 1292 940 467 2340 1915 309 32 179 490 223 363 222 559 161 298 1064 23 69 88 478 214 653 1613 932 163 555 2008 557 309 115 1434 116 2420 111 1040 450 30 34 854 286 55 21 1273 35 204 678 29 525 31 1740 167 57 147 987 1113 4735 109 187 24 38 705 45 105
internal_value=-3.82436e-05 0.000903125 0.00201375 -0.0103603 -0.000138876 0.00274243 0.00421797 0.00752185 0.0112889 0.00625502 -0.00245459 0.00677224 0.0162854 -0.00229962 0.00754554 0.00835291 -0.0131863 0.00999759 -0.000881786 -0.00180929 0.00483648 -0.0010913 -0.000780951 0.00115567 -0.00108212 -0.000801146 0.0106358 0.000201069 0.0112593 0.0149445 0.0227398 -0.00832584 0.00253673 0.00604236 -0.0147898 0.00274992 -0.00130583 0.0100599 0.0106565 0.00210318 0.000382832 0.0143814 -0.000210529 0.000852095 0.00212051 0.00670961 0.00542428 -0.00129185 -0.00661372 -6.60633e-05 -0.0158029 -0.00458541 0.00565022 0.00150478 -0.00431191 0.00512151 -0.00304512 0.016628 0.00359163 0.0018847 -0.0022005 9.54203e-05 0.0047717 0.0111662 0.0162753 0.00261268 0.00346607 0.00736934 0.00460243 -0.00705922 0.0218383 0.00162451 0.00534718 -0.0031917 -0.00227196 0.0076299 -0.00226187 -0.00319467 -0.00258963 -0.00185924 0.00257756 0.00561972 0.00597385 -0.00218246 -0.00604614 -0.00331042 0.0101354
internal_weight=49568 45425 34135 4143 17269 7400 16866 3610 1502 10128 11290 9395 972 9869 7944 6631 3199 3873 6114 3790 2108 6036 944 6738 6440 3165 3602 3738 3293 808 341 794 1451 2758 2405 548 1872 2485 2324 4866 2258 92 2166 3374 530 2535 1882 1829 342 1487 2042 3429 337 271 5176 443 2992 409 2608 1520 480 179 961 506 220 580 1313 150 418 1235 466 2896 556 2194 269 91 2567 2298 2100 5148 413 304 1088 1778 2184 750 221
internal_count=49568 45425 34135 4143 17269 7400 16866 3610 1502 10128 11290 9395 972 9869 7944 6631 3199 3873 6114 3790 2108 6036 944 6738 6440 3165 3602 3738 3293 808 341 794 1451 2758 2405 548 1872 2485 2324 4866 2258 92 2166 3374 530 2535 1882 1829 342 1487 2042 3429 337 271 5176 443 2992 409 2608 1520 480 179 961 506 220 580 1313 150 418 1235 466 2896 556 2194 269 91 2567 2298 2100 5148 413 304 1088 1778 2184 750 221
is_linear=0
shrinkage=0.0719


Tree=10
num_leaves=88
num_cat=0
split_feature=22 21 21 20 22 22 12 18 19 18 21 17 10 11 18 4 22 22 17 3 3 16 20 12 14 10 10 12 9 18 3 10 11 11 10 9 22 21 21 22 22 22 3 22 18 22 16 12 22 14 17 14 12 9 17 20 14 12 10 19 10 48 12 10 10 10 11 21 20 18 3 18 19 18 5 10 20 10 9 20 16 17 20 12 5 12 20
split_gain=80.2788 28.6269 26.576 19.685 18.5166 24.8708 17.6649 6.26185 5.63124 7.22391 5.37106 5.95243 4.95421 6.57909 4.93216 5.28714 4.67259 10.1069 6.019 4.53888 4.34569 4.15736 4.07618 4.29829 3.92345 3.75295 3.61982 3.16621 3.12005 2.99978 3.86225 2.97389 5.61715 10.5614 7.07667 4.00395 2.80441 2.69961 2.69716 2.62117 3.64539 3.99669 2.86468 2.61326 2.59777 2.57064 2.46208 2.4231 2.42286 2.40608 2.39124 2.33741 2.31205 2.19832 2.17349 2.16006 2.36672 2.06886 2.04853 2.35739 2.12052 2.77323 2.03425 2.01857 3.73764 2.99024 3.51238 2.01087 1.99858 1.98626 1.94915 2.60511 1.95672 1.94745 2.05049 1.93949 1.88156 1.8784 1.85716 1.83134 1.82846 1.81213 2.4136 2.2207 1.82934 1.78541 1.73085
threshold=2.3449999094009404 -0.093499999493360506 0.004500000039115549 0.63499999046325695 59.114999771118171 4.2650001049041757 5.760434865951539 16.085630416870121 1.0000000180025095e-35 1.5407733321189883 -0.013500000350177286 2.089499950408936 20.500000000000004 4.5000000000000009 7.7963271141052255 1.0000000180025095e-35 12.465000152587892 7.4049999713897714 0.69049999117851268 71.692512512207045 34.501827239990241 6.4603493213653573 1.5149999856948855 2.3437391519546513 6.7502601146698007 21.500000000000004 21.500000000000004 2.4870191812515263 8.2750000953674334 2.5428824424743657 101.48165893554689 16.500000000000004 5.5000000000000009 4.5000000000000009 18.500000000000004 4.1549999713897714 3.3349999189376835 -0.27650000154972071 1.3665000200271609 3.6650000810623173 24.029999732971195 6.0750000476837167 145.39366149902347 1.985000014305115 8.7437705993652362 0.40500000119209295 0.71383625268936168 0.15419580787420276 1.6449999809265139 9.0822887420654315 4.8525002002716073 2.2072987556457524 2.0718253850936894 4.1949999332427987 1.1144999861717226 -8.7349996566772443 5.3146760463714608 14.681281089782717 20.500000000000004 110.49324417114259 2.5000000000000004 1.0000000180025095e-35 0.70100000500679027 20.500000000000004 16.500000000000004 18.500000000000004 3.5000000000000004 0.75850000977516185 3.4250000715255742 165.66514587402347 67.672954559326186 74.173553466796889 236.62454223632815 3.9618796110153203 3.5000000000000004 22.500000000000004 -2.7949999570846553 10.500000000000002 8.6050000190734881 -8.9849996566772443 6.1188330650329599 3.217499971389771 -2.0549999475479122 2.4870191812515263 13.500000000000002 10.222361087799074 -12.345000267028807
decision_type=2 2 2 2 2 2 2 2 2 2 2 2 2 2 2 2 2 2 2 2 2 2 2 2 2 2 2 2 2 2 2 2 2 2 2 2 2 2 2 2 2 2 2 2 2 2 2 2 2 2 2 2 2 2 2 2 2 2 2 2 2 2 2 2 2 2 2 2 2 2 2 2 2 2 8 2 2 2 2 2 2 2 2 2 8 2 2
left_child=3 7 6 37 5 36 12 8 62 57 -8 26 31 51 15 38 17 54 -19 -11 43 28 -16 68 79 -15 39 -18 73 75 -31 81 33 -33 35 -35 -4 -1 78 -12 41 -41 53 45 -28 -5 -37 -27 67 63 -26 -14 76 -43 -7 -42 -57 80 60 -60 -21 -62 -2 64 -39 66 -66 -22 -24 77 71 -54 -72 -20 -75 -17 -9 -58 -6 -13 -10 84 -83 -84 -3 -38 -64
right_child=1 2 4 20 14 16 10 52 9 19 11 24 13 25 22 29 27 18 21 58 48 -23 23 -25 50 47 44 -29 -30 30 -32 32 -34 34 -36 46 85 49 -40 40 55 42 -44 -45 -46 -47 -48 -49 -50 -51 -52 -53 70 -55 -56 56 69 -59 59 -61 61 -63 86 -65 65 -67 -68 -69 -70 -71 72 -73 -74 74 -76 -77 -78 -79 -80 -81 -82 82 83 -85 -86 -87 -88
leaf_value=-0.011877552655935155 0.017596730676952454 0.002588566986884496 -0.0029668196641681106 0.0071832995995705666 -0.0042235562772675499 0.0010516608190895445 -0.00032582455190391439 0.014108572753695084 0.0026875779364105689 0.010257909073854181 0.00097908206701798864 -0.0043383575422225144 -0.00032703427076019901 -0.0017237235164722239 0.00033458531358083061 0.0034622885638688648 0.012368405034514807 -0.00055321653692746889 0.02032946410227655 0.0018248876854096683 -0.0046673449280500538 0.022327336984711538 0.00086740746735294362 -0.0050851991025163724 0.0036994146056760664 -0.01760940838148357 0.02162904025047831 8.9414592691180905e-05 -0.002660453625069972 -0.0018667976630694504 0.014347718637450905 0.00095399086299838396 -0.0062768729771302519 0.03095363576985883 0.006828159453481631 0.030754268793406814 -0.0010804743685863235 0.00084135343050994571 -0.0088023898795920041 0.0081018858023349117 -0.00080049323462125612 -0.0011094938250729458 0.0026025137683147424 -0.008644588299379927 0.0073797760318320684 -0.015526967869415846 0.0081496874130784717 -0.0060203469966511733 -0.004586060795148548 -0.0073935876357397066 -0.0027096318353589817 0.0093417678867536626 0.0032452029557142616 0.022872288749514733 0.0068058559522741081 0.012353522487099047 0.0094066218826218753 -0.00018442865597440082 0.010507099337845209 -0.001933568869437011 -0.0027671019895988492 -0.012395717697985862 -0.009784471779336135 -0.0063821263607126092 -0.0026378025160563277 0.0021139693311339174 0.030305251368883675 -0.013295492351591134 0.020256951618940758 -0.014078612736540019 -0.0044051975147955426 -0.0067401779826672661 -0.0081529062247592179 0.0045304578836834648 0.029575538523695311 0.018492312648024346 -0.0010655012748957216 0.0051265081113456507 0.00066956563915460349 0.0076988545948542542 0.008520077538693601 -0.013275641286922131 -0.0059357020445210918 0.0029829962933043681 -0.0021545849047786684 0.0039712345615561554 -0.0035717130724654089
leaf_weight=97 22 4921 2308 26 876 445 568 52 494 163 247 68 299 400 1046 1343 130 113 152 480 187 392 65 3981 1259 185 185 661 65 1212 81 702 189 140 334 33 861 471 369 394 154 21 50 389 104 1705 104 190 477 155 395 227 312 286 1445 510 998 373 139 181 2512 165 266 113 22 67 68 564 48 23 2072 238 1109 112 20 46 224 1140 738 1513 640 82 223 409 459 623 1841
leaf_count=97 22 4921 2308 26 876 445 568 52 494 163 247 68 299 400 1046 1343 130 113 152 480 187 392 65 3981 1259 185 185 661 65 1212 81 702 189 140 334 33 861 471 369 394 154 21 50 389 104 1705 104 190 477 155 395 227 312 286 1445 510 998 373 139 181 2512 165 266 113 22 67 68 564 48 23 2072 238 1109 112 20 46 224 1140 738 1513 640 82 223 409 459 623 1841
internal_value=-3.54666e-05 0.000860927 0.00190388 -0.00937521 -8.89236e-05 0.00264534 0.00393478 -0.00227648 -0.00101903 0.000266947 0.00640589 0.00692668 0.00173611 -0.00236251 -0.00213243 -0.000439086 0.00698407 0.00838788 0.0148812 -0.00146568 -0.0120121 0.0172385 -0.00366877 -0.00469226 0.00461761 -0.00657604 0.00874264 0.00211083 0.0115151 0.00164161 -0.000848975 0.00243845 0.00530491 0.00697408 0.0138864 0.0223874 -0.00139864 -0.000482041 -0.00325456 0.00815473 0.00864962 0.0131067 0.0186227 -0.0139856 0.0165105 -0.0151843 0.0136141 -0.0117447 -0.00860288 0.000748663 0.00216723 0.00384057 -0.00455914 0.0212232 0.00545244 0.0074638 0.00794129 0.0044537 -0.00201605 0.00346204 -0.00257216 -0.00336157 -0.0041292 0.00245543 0.00404987 0.0136584 0.022223 -0.0111506 0.00912728 0.00689876 -0.00502907 -0.00107091 -0.00571261 0.0147688 0.00834545 0.00396197 0.00178377 0.00712567 -0.00198453 0.00717944 0.00598164 0.00173151 -0.00166979 -0.000159743 0.00218341 0.0010385 -0.00435731
internal_weight=49568 45227 33944 4341 17132 7327 16812 11283 7276 5147 7915 7347 8897 1301 9805 4665 3535 2744 854 3640 3348 741 5140 4094 3235 775 4112 791 349 2682 1293 7596 1502 1313 611 277 3792 993 1983 3823 3576 751 357 2120 289 1731 137 375 1228 896 1654 526 4007 307 1890 2825 2671 1507 3477 320 3157 2677 2129 741 628 157 90 751 113 2161 3731 550 3181 284 132 1389 276 2138 1614 1581 1134 6094 714 632 5380 1484 2107
internal_count=49568 45227 33944 4341 17132 7327 16812 11283 7276 5147 7915 7347 8897 1301 9805 4665 3535 2744 854 3640 3348 741 5140 4094 3235 775 4112 791 349 2682 1293 7596 1502 1313 611 277 3792 993 1983 3823 3576 751 357 2120 289 1731 137 375 1228 896 1654 526 4007 307 1890 2825 2671 1507 3477 320 3157 2677 2129 741 628 157 90 751 113 2161 3731 550 3181 284 132 1389 276 2138 1614 1581 1134 6094 714 632 5380 1484 2107
is_linear=0
shrinkage=0.0719


Tree=11
num_leaves=88
num_cat=0
split_feature=22 0 0 20 15 17 22 3 22 22 10 8 22 20 20 0 20 15 20 3 0 10 20 20 20 0 13 16 20 12 3 10 3 13 12 16 7 0 10 3 12 15 20 8 20 15 3 15 3 15 20 1 20 0 20 0 10 16 0 7 22 12 13 15 10 10 10 56 8 16 19 12 1 19 13 9 20 13 12 3 12 7 20 20 13 7 17
split_gain=69.2047 20.7763 34.6296 16.0243 9.8635 8.26415 7.83472 9.31105 11.5905 14.7183 6.48915 5.39245 5.22372 5.21875 6.25357 4.40948 4.21618 3.88484 3.84027 5.13711 3.73666 3.62941 3.4331 9.63054 3.15345 3.06451 2.69979 2.65844 2.57183 5.88749 2.99105 3.72764 2.64643 2.72341 2.54594 2.70044 2.5053 2.47645 2.42025 2.36571 2.36548 2.2893 2.17916 2.16179 2.16104 2.15385 2.06879 2.03895 2.03079 1.98346 2.76948 1.97378 1.96774 1.9625 1.95562 1.92994 2.63518 5.08503 2.88722 2.17466 2.07578 1.92925 2.73491 1.92038 1.90877 3.2192 2.23111 1.84682 2.15194 1.8377 1.81104 2.18745 1.77655 1.76971 1.84172 1.72983 1.69496 2.20098 2.19311 1.89524 2.44449 1.67327 2.41781 2.15903 1.66786 1.66503 1.64262
threshold=2.2549999952316289 225.46174621582034 39.672224044799812 0.63499999046325695 -1.0053418874740598 2.089499950408936 3.5749999284744267 75.676643371582045 6.0750000476837167 11.484999656677248 2.5000000000000004 18.500000000000004 3.7649999856948857 8.0050001144409197 -2.0549999475479122 71.856250762939467 -21.535000801086422 -8.8552727699279767 5.0650000572204599 92.850154876708999 19.477614402771 22.500000000000004 1.3149999976158144 -1.2250000238418577 13.364999771118166 20.135589599609379 4.5697314739227304 2.6245439052581792 -1.0000000180025095e-35 6.1693377494812021 106.87542724609376 20.500000000000004 42.60780334472657 0.27188029885292059 4.8644959926605233 6.5889489650726327 39.500000000000007 8.9932513236999529 22.500000000000004 33.259111404418952 2.9688577651977544 0.62880185246467601 -2.4650000333786006 12.500000000000002 -5.4749999046325675 0.72958755493164074 48.906379699707038 -1.7081666588783262 53.295047760009773 -0.68651515245437611 7.5150001049041757 0.75000000000000011 5.7249999046325692 16.373490333557132 32.164999008178718 8898.5610351562518 21.500000000000004 7.0613801479339608 5654.4458007812509 204.50000000000003 246.08000183105472 0.62165176868438732 10.862388610839846 0.5577935278415681 20.500000000000004 16.500000000000004 18.500000000000004 1.0000000180025095e-35 19.500000000000004 5.4790201187133798 154.0100021362305 7.7465474605560312 5.6499998569488534 317.63397216796881 13.822432994842531 7.3250000476837167 2.1950000524520878 8.8679456710815447 9.0573215484619158 35.686277389526374 6.4858803749084482 180.50000000000003 -2.3249999284744258 3.1049998998641972 14.79451370239258 127.50000000000001 0.037499999627470977
decision_type=2 2 2 2 2 2 2 2 2 2 2 2 2 2 2 2 2 2 2 2 2 2 2 2 2 2 2 2 2 2 2 2 2 2 2 2 2 2 2 2 2 2 2 2 2 2 2 2 2 2 2 2 2 2 2 2 2 2 2 2 2 2 2 2 2 2 2 2 2 2 2 2 2 2 2 2 2 2 2 2 2 2 2 2 2 2 2
left_child=3 2 12 37 11 10 -4 8 -8 15 36 22 48 14 41 70 -12 81 28 21 24 40 23 -3 51 46 -19 -16 32 30 -30 86 33 -18 35 -9 -6 42 84 -22 -20 -7 -1 -11 -27 -15 -14 -28 53 -36 -51 -5 -17 -2 -42 56 58 -58 60 -59 -34 -45 -63 -62 65 -44 -67 69 -69 -54 71 -10 -33 74 -60 -24 77 78 85 80 -78 -13 -83 -84 -31 -29 -32
right_child=1 4 6 20 5 13 7 34 9 43 16 17 25 45 27 52 18 26 19 -21 39 -23 75 -25 -26 44 47 76 29 38 31 72 55 -35 49 -37 -38 -39 -40 -41 54 -43 64 61 -46 -47 -48 -49 -50 50 -52 -53 67 -55 -56 -57 57 59 73 -61 63 62 -64 -65 -66 66 -68 68 -70 -71 -72 -73 -74 -75 -76 -77 79 -79 -80 -81 -82 82 83 -85 -86 -87 -88
leaf_value=-0.014402001030349585 -0.0091820411011228828 -0.0046350245938656214 -0.00020965253581748986 0.012220588088530318 -0.0017010849214380821 -0.0019947201834797298 0.0061758266192929274 0.0057006204969387853 0.014453899714034281 0.00092230194691445737 -0.0056351300426149093 -0.0025155433943607037 -0.0057044529670504662 -0.0038782018253622715 -0.0008042962498173076 0.027058927601298497 -0.00650371622445306 0.002015119482814806 0.016886604057795154 0.0080168559251285448 -0.009861781946683388 0.0099829797559673073 -0.0067830836755861813 0.0055106576440714919 -0.015274931173434736 -0.010560263869153021 -0.0089815829199655813 0.0058633781556964321 -0.00053348506370820472 0.0056700341994200326 -0.0014533578311469952 -0.005233620203415606 0.001377857093774485 0.0077902942685516537 -0.0050135368793051685 0.022208175651218631 0.0056511423639019299 -0.0050285168503281527 0.017554432883755512 -0.0013070438299006071 -0.0028026912625644935 -0.0063704002696635832 0.0018149859155820295 -0.0024605449506791637 0.0041760273698072566 -0.010542107675183199 0.0012318804773340413 -0.0036554538106960605 0.0010118231607139302 0.0019101244046697639 0.018868586305162263 -0.010491821073382222 0.01194592683345201 -0.0026270703780691333 -0.017031411436487169 -0.0031375775747734202 0.00015488661089549646 0.01025843830478366 0.0012367407163560191 0.02811787695528116 -0.0029479081930895031 0.015805672459027632 -0.001246130912848084 -0.011090891157903199 -0.0055838859014913037 0.024613831058597598 0.0044045637282294466 0.024667594585096955 -0.0055370798152608505 0.02284123490367226 0.0180107580298259 0.00015260198093903241 0.016923082273156712 0.0072482691207483184 -0.0049871023997522289 -1.5789411596816724e-06 -0.0097703234171982525 0.00094679550091295354 0.013391216232386181 -0.0027358405143931932 0.011714235523272682 -0.0028278091310135361 0.041001553451439604 0.0082071797668899372 -0.00054740000196630838 -0.0035700326611618656 0.0062236256930806172
leaf_weight=37 262 928 657 20 271 1806 1999 358 128 310 523 60 357 880 2602 253 82 170 31 274 475 119 632 1010 1233 53 1294 627 2739 1949 166 280 461 426 199 60 2033 396 82 259 2592 942 301 59 1653 352 588 524 728 835 53 1212 101 2432 51 835 297 112 3217 52 814 209 63 184 94 66 50 20 31 408 177 98 20 232 266 282 36 797 174 498 113 27 21 21 251 114 1065
leaf_count=37 262 928 657 20 271 1806 1999 358 128 310 523 60 357 880 2602 253 82 170 31 274 475 119 632 1010 1233 53 1294 627 2739 1949 166 280 461 426 199 60 2033 396 82 259 2592 942 301 59 1653 352 588 524 728 835 53 1212 101 2432 51 835 297 112 3217 52 814 209 63 184 94 66 50 20 31 408 177 98 20 232 266 282 36 797 174 498 113 27 21 21 251 114 1065
internal_value=-3.28893e-05 0.000778403 0.00333157 -0.00892876 -0.00014761 0.000369966 0.00719702 0.00810522 0.00997756 0.0140686 0.00120269 -0.00310267 -0.000498436 -0.00143879 -0.00074397 0.0187169 0.000720397 -0.00585212 0.000920831 -0.00137586 -0.0113579 -0.00229826 -0.00106085 0.000651084 -0.0127001 0.00189682 -0.00663735 0.000779706 0.00144164 0.00246475 0.00088839 0.0034339 0.000480615 0.00547775 0.00330628 0.00807652 0.00478521 -0.000694212 0.00541322 -0.00684678 -0.00284581 -0.00349565 0.00243303 0.00524644 0.00371665 -0.00578434 -0.0013857 -0.0074479 -0.0023548 0.00146946 0.00292529 -0.0101209 0.0217697 -0.00326555 -0.00307826 8.78471e-05 0.000566266 0.00577531 0.000101629 0.0159375 -0.00260804 0.00928818 0.0118464 -0.00445189 0.00365722 0.00574673 0.0159259 0.0193753 0.00625589 0.0206845 0.0125516 0.00826424 -0.00374761 0.00116652 0.000760655 -0.00469367 0.002528 0.00371302 0.0061196 -0.000603511 0.00650546 0.0062284 0.0138703 0.0246681 0.00495947 0.00440849 0.00518623
internal_weight=49568 45425 12091 4143 33334 28365 6018 5361 3856 1857 19424 4969 6073 8941 7709 1216 17120 2117 16597 3067 3199 2793 2852 1938 2465 2651 1988 4961 13530 6552 4270 1531 6978 508 1505 418 2304 944 2282 734 2674 2748 548 641 1706 1232 945 1818 3422 1087 888 1232 813 2694 2643 6470 5635 461 5174 164 1459 331 272 998 511 417 116 560 51 509 403 226 300 3715 3483 914 2359 1712 915 647 149 129 69 42 2200 741 1231
internal_count=49568 45425 12091 4143 33334 28365 6018 5361 3856 1857 19424 4969 6073 8941 7709 1216 17120 2117 16597 3067 3199 2793 2852 1938 2465 2651 1988 4961 13530 6552 4270 1531 6978 508 1505 418 2304 944 2282 734 2674 2748 548 641 1706 1232 945 1818 3422 1087 888 1232 813 2694 2643 6470 5635 461 5174 164 1459 331 272 998 511 417 116 560 51 509 403 226 300 3715 3483 914 2359 1712 915 647 149 129 69 42 2200 741 1231
is_linear=0
shrinkage=0.0719


Tree=12
num_leaves=88
num_cat=0
split_feature=22 0 0 20 18 4 20 20 22 22 22 20 20 20 22 12 0 10 8 2 39 15 47 15 20 14 0 22 20 0 0 19 15 15 19 0 13 20 9 20 0 16 20 10 20 15 20 13 19 0 12 0 19 19 20 16 10 22 18 20 10 9 2 12 10 12 0 11 10 11 10 22 20 12 10 1 12 15 0 10 9 9 10 18 14 14 14
split_gain=59.6261 18.9501 28.7468 14.711 10.1639 8.74147 6.96912 8.74983 6.47427 8.0768 13.9923 5.95768 7.47037 4.89215 4.31493 4.00076 3.8869 3.67505 3.53165 3.45336 3.43434 3.20112 3.18387 3.454 3.43223 3.26412 3.12809 3.08458 2.91243 2.89994 6.13738 3.03926 2.89632 2.86434 2.72539 2.72166 2.65864 2.58485 2.58179 2.4775 2.47005 2.46671 2.45878 2.42269 2.39379 2.38519 2.35371 2.20096 2.12992 3.1074 2.1906 2.437 2.1568 2.11773 2.11342 2.7729 3.12168 3.15959 2.09802 2.09451 2.08369 2.22827 2.07161 2.04612 2.03317 2.03315 2.0158 2.02683 2.18891 2.76725 2.0001 2.46526 2.27267 1.95462 1.94659 1.93415 1.92767 1.89216 1.88694 1.81733 1.81206 1.79438 1.77145 1.76328 1.75563 1.74352 1.74253
