tree
version=v4
num_class=1
num_tree_per_iteration=1
label_index=0
max_feature_idx=64
objective=regression
feature_names=Column_0 Column_1 Column_2 Column_3 Column_4 Column_5 Column_6 Column_7 Column_8 Column_9 Column_10 Column_11 Column_12 Column_13 Column_14 Column_15 Column_16 Column_17 Column_18 Column_19 Column_20 Column_21 Column_22 Column_23 Column_24 Column_25 Column_26 Column_27 Column_28 Column_29 Column_30 Column_31 Column_32 Column_33 Column_34 Column_35 Column_36 Column_37 Column_38 Column_39 Column_40 Column_41 Column_42 Column_43 Column_44 Column_45 Column_46 Column_47 Column_48 Column_49 Column_50 Column_51 Column_52 Column_53 Column_54 Column_55 Column_56 Column_57 Column_58 Column_59 Column_60 Column_61 Column_62 Column_63 Column_64
feature_infos=[0.1218130812048912:18379.76953125] [0.10000000149011612:48.599998474121094] [0:371.70001220703125] [0.0020935435313731432:179.99812316894531] [-1:180] [-127:127] [0:1] [0:473] [0:120] [0:78.830001831054688] [0:23] [0:6] [0.0017241379246115685:92.779998779296875] [0.00043290044413879514:100.76451873779297] [0.00029027575510554016:75.576469421386719] [-98.5:44.5] [0.00030950171640142798:83.408088684082031] [0.0010000000474974513:41.299999237060547] [0:252.43711853027344] [-1:359] [-8032.52978515625:15580.4296875] [-1316.8079833984375:2163.947998046875] [0.029999999329447746:18379.76953125] [0:1] [0:1] [0:1] [0:1] [0:1] [0:1] [0:1] [0:1] [0:1] [0:1] [0:1] [0:1] [0:1] [0:1] [0:1] [0:1] [0:1] [0:1] [0:1] [0:1] [0:1] [0:1] [0:1] [0:1] [0:1] [0:1] [0:1] [0:1] [0:1] [0:1] [0:1] [0:1] [0:1] [0:1] [0:1] [0:1] [0:1] [0:1] [0:1] [0:1] [0:1] [0:1]
tree_sizes=7630 8061 8047 8079 8053 8041 8003 7993 7983 8067 8112 8069 8042 8093 8062 8099 8076 8075 8108 8071 8083 8039 8008 8047 7976 8028 8044 8081 8086 8042 8052 7966 8027 8043 8101 8071 7979 8124 8048 8033 8051 8021 8063 8027 8011 8025 8043 8052 8114 8026 8075 8086 8052 8056 8065 8043 8022 8084 8032 8063 8013 8033 7982 8081 8105 7984 8013 7930 8007 8065 7903 7984 7947 7964 7842 7984 7940 8041 8011 8025 8033 7928 7971 7984 8036 7979 8065 8065 8033 7939 7967 7992 8069 7986 7978 7938 7979 7988 8076 7998 7936 7989 7924 7975 8012 8022 7921 7995 7983 7944 8058 8032 8002 8026 7998 7969 7920 8004 8015 7985 8008 7996 8038 7956 8004 7917 7994 7968 8005 7892 7922 7981 7930 8025 8025 8035 8020

Tree=0
num_leaves=88
num_cat=0
split_feature=22 22 0 17 7 21 0 22 13 0 0 7 18 21 20 21 0 7 18 12 17 21 21 22 7 17 9 13 18 10 7 0 12 3 2 22 20 8 3 18 20 22 0 0 18 2 16 16 12 18 4 18 18 18 18 12 21 7 17 4 18 12 3 13 17 9 22 21 21 22 7 0 21 22 9 22 16 21 3 0 0 3 0 0 2 22 2
split_gain=16.0116 10.2385 13.9762 3.17017 1.744 1.55795 1.66306 1.38354 1.2401 0.988926 0.830544 0.817715 0.802746 0.760946 0.692706 0.837168 0.64804 0.608498 0.586702 0.539564 0.50364 0.46178 0.727224 0.431139 0.412478 0.402502 0.455173 0.390052 0.382597 0.377939 0.457248 0.371687 0.362003 0.354574 0.425104 0.344395 0.342136 0.337491 0.331257 0.324316 0.336818 0.318604 0.331689 0.317451 0.313274 0.296345 0.311097 0.295523 0.295114 0.289691 0.289573 0.329224 0.289537 0.299062 0.462337 0.289444 0.285443 0.273098 0.271559 0.261237 0.311527 0.259164 0.267758 0.254544 0.241032 0.239654 0.238394 0.233971 0.233517 0.37002 0.38838 0.332867 0.236431 0.233341 0.279653 0.25576 0.232284 0.232258 0.23075 0.224359 0.26661 0.224171 0.224092 0.224048 0.223875 0.223773 0.23393
threshold=0.92500001192092907 3.0749999284744267 11.891116619110109 1.0724999904632571 139.50000000000003 -0.078500002622604356 14.342658519744875 1462.3549804687502 6.5490245819091806 9.6486153602600115 8.4501309394836444 230.50000000000003 5.1490600109100351 0.31049999594688421 11.295000076293947 -0.88449999690055836 6961.7392578125009 100.50000000000001 7.5984139442443857 6.4192461967468271 0.81749999523162853 -1.0000000180025095e-35 1.0000000180025095e-35 1198.8550415039065 91.500000000000014 0.73450002074241649 5.6749999523162851 4.251312494277955 1.0000000180025095e-35 17.500000000000004 33.500000000000007 6714.2106933593759 19.263397216796879 16.075226783752445 205.65000152587893 0.7150000035762788 10.84500026702881 12.500000000000002 106.49237060546876 3.3480035066604619 30.57499980926514 665.90499877929699 5572.0471191406259 6.583472967147828 9.3222064971923846 311.05000305175787 4.4269523620605478 9.6603908538818377 11.273401260375978 25.395102500915531 0.55000001192092907 9.8561925888061541 142.3150329589844 8.8300385475158709 1.0000000180025095e-35 13.771921157836916 0.13049999624490741 70.500000000000014 1.5214999914169314 1.0000000180025095e-35 5.9564771652221689 13.640731811523439 115.14908599853517 7.4291746616363534 3.0195000171661381 4.2049999237060556 448.69000244140631 1.1035000085830691 -1.7245000004768369 1093.8499755859377 177.50000000000003 10444.935546875002 -1.799499988555908 1.1050000190734866 7.0150001049041757 2.185000061988831 14.549947261810305 1.2074999809265139 62.262138366699226 5817.3369140625009 5844.9506835937509 75.41379547119142 16.495923995971683 6116.3571777343759 150.65000152587893 642.17999267578136 239.65000152587893
decision_type=2 2 2 2 2 2 2 2 2 2 2 2 2 2 2 2 2 2 2 2 2 2 2 2 2 2 2 2 2 2 2 2 2 2 2 2 2 2 2 2 2 2 2 2 2 2 2 2 2 2 2 2 2 2 2 2 2 2 2 2 2 2 2 2 2 2 2 2 2 2 2 2 2 2 2 2 2 2 2 2 2 2 2 2 2 2 2
left_child=10 2 9 8 14 -4 33 11 -3 36 13 16 28 -1 15 27 18 -12 58 56 -8 45 23 29 50 26 -14 -5 -10 30 63 41 52 34 -7 -19 43 67 73 -18 68 42 -20 -2 -9 46 -21 -27 -13 59 -11 -52 53 54 79 -44 -17 -56 -6 -16 65 62 81 -23 -36 -61 83 -24 72 70 -70 -71 -41 74 -22 82 -63 -67 -58 -29 -81 -49 -75 -57 -45 86 -39
right_child=1 3 5 4 7 6 20 44 12 24 17 48 25 -15 49 19 39 35 31 21 38 22 37 -25 -26 47 -28 32 -30 -31 -32 -33 -34 -35 64 -37 -38 85 -40 40 -42 -43 55 84 -46 -47 -48 61 -50 -51 51 -53 -54 -55 57 66 78 -59 -60 60 -62 76 -64 -65 -66 77 -68 -69 69 71 -72 -73 -74 75 -76 -77 -78 -79 -80 80 -82 -83 -84 -85 -86 -87 -88
leaf_value=0.48833762267570002 0.48851065934018578 0.4900385389520806 0.49021893117017445 0.48766284810250549 0.49199488709339095 0.49249543591530537 0.49164889159657787 0.49268177496382448 0.48889668282817456 0.49135000337006107 0.48617360977043006 0.49374354793528097 0.48934265485297784 0.48515139909117105 0.48798384970367237 0.49094282138009582 0.50045687495722146 0.4874882744225949 0.49031870040167536 0.49001726570765058 0.49308168452133366 0.49430326832645388 0.49016589436857144 0.49914654714071643 0.49073197526088763 0.48812994982626706 0.48670130900497782 0.48878182825022332 0.49235287103024544 0.49006967278067126 0.49516559969256851 0.48626878567868981 0.48608017651729496 0.49777754514275496 0.49970689762165743 0.4925179275382679 0.48742749161216831 0.49518870700529677 0.49272909767362105 0.49456880054635544 0.50218732611041084 0.48843382771029858 0.49559841458864012 0.49335736217552806 0.48854938534240111 0.48883095463196347 0.4922450117159779 0.49143142941303464 0.49746678413616946 0.48763501114284552 0.49952933033227859 0.49351638386995783 0.49303731582736793 0.48921330261813945 0.49034345926345829 0.49115089674957568 0.49032542706065502 0.49412585087796262 0.49489322367374394 0.4886413795702273 0.48962863006266405 0.48706943288459392 0.48878326189025884 0.48948748115490071 0.49195654032960617 0.48808115778680716 0.48612083023848873 0.49265888581021311 0.49224368434631399 0.48677365438143499 0.49820982292723287 0.49392524635392565 0.48665360402016689 0.50036729494024301 0.5028436398825944 0.49900874538488182 0.49379380093082836 0.49544262722934473 0.48808787107701129 0.49511421686409668 0.49002710617223122 0.49680757597029479 0.50280083281518884 0.49640690051078762 0.48994257036823774 0.49123565901802652 0.49162550700451285
leaf_weight=451 455 5364 109 394 319 209 32 117 325 119 299 194 433 2883 296 2150 47 109 384 598 41 93 955 73 405 901 1575 451 337 148 544 85 111 353 91 198 478 242 26 35 26 173 164 161 492 338 703 106 266 450 78 124 182 1107 153 157 637 271 360 52 583 148 96 144 28 26 34 244 88 49 164 106 44 333 25 208 32 134 383 73 194 66 540 58 256 331 161
leaf_count=451 455 5364 109 394 319 209 32 117 325 119 299 194 433 2883 296 2150 47 109 384 598 41 93 955 73 405 901 1575 451 337 148 544 85 111 353 91 198 478 242 26 35 26 173 164 161 492 338 703 106 266 450 78 124 182 1107 153 157 637 271 360 52 583 148 96 144 28 26 34 244 88 49 164 106 44 333 25 208 32 134 383 73 194 66 540 58 256 331 161
internal_value=0.490328 0.490912 0.494255 0.490366 0.490995 0.498553 0.499036 0.492446 0.489322 0.490127 0.486027 0.493132 0.488367 0.485582 0.490596 0.490802 0.492575 0.488483 0.491886 0.491194 0.500644 0.491694 0.492234 0.493807 0.492265 0.487916 0.48727 0.489769 0.490652 0.493384 0.494016 0.490822 0.490096 0.496187 0.494466 0.490723 0.488975 0.491417 0.500887 0.494706 0.494173 0.491224 0.491833 0.489826 0.489348 0.490725 0.491219 0.48888 0.495902 0.489171 0.494191 0.495851 0.49028 0.490056 0.490871 0.493247 0.490472 0.492755 0.493535 0.489808 0.490483 0.490384 0.491807 0.491366 0.497906 0.492846 0.491688 0.490671 0.493739 0.494434 0.496137 0.491647 0.490194 0.501069 0.49682 0.501326 0.48828 0.49423 0.489483 0.489762 0.491408 0.49351 0.501876 0.492581 0.491255 0.492632 0.493772
internal_weight=32977 29037 4071 24966 15583 1995 1886 3362 9383 2076 3940 2753 4019 3334 12221 10680 2293 606 1734 7744 1205 4574 2935 1002 726 3357 2008 2936 662 929 781 1055 2542 681 328 307 1350 1933 1173 559 512 970 797 872 609 1639 1301 1349 460 1541 321 202 2431 2249 1142 413 3170 424 679 1091 795 448 268 237 119 212 249 1199 486 407 252 155 79 1147 66 1081 180 160 1020 718 267 172 873 215 417 734 403
internal_count=32977 29037 4071 24966 15583 1995 1886 3362 9383 2076 3940 2753 4019 3334 12221 10680 2293 606 1734 7744 1205 4574 2935 1002 726 3357 2008 2936 662 929 781 1055 2542 681 328 307 1350 1933 1173 559 512 970 797 872 609 1639 1301 1349 460 1541 321 202 2431 2249 1142 413 3170 424 679 1091 795 448 268 237 119 212 249 1199 486 407 252 155 79 1147 66 1081 180 160 1020 718 267 172 873 215 417 734 403
is_linear=0
shrinkage=1


Tree=1
num_leaves=88
num_cat=0
split_feature=22 1 0 0 15 7 15 0 0 0 7 20 21 13 21 22 18 0 20 0 20 21 22 7 1 3 15 21 7 20 20 7 0 20 3 20 18 4 3 8 2 1 7 18 13 17 15 18 22 10 10 1 18 3 17 2 22 1 3 10 18 18 1 0 7 22 22 7 17 0 21 15 21 21 21 13 15 0 17 22 21 21 1 20 21 3 20
split_gain=13.8078 10.0742 7.767 4.40532 4.34471 1.77385 1.82421 1.22103 3.11799 0.968182 0.808135 0.725334 0.684635 0.648803 0.599829 0.53458 0.532717 0.469849 0.453267 0.441596 0.43792 0.442068 0.42422 0.438683 0.406497 0.465982 0.370308 0.359412 0.350793 0.339184 0.346817 0.338209 0.337213 0.323979 0.445533 0.326773 0.43022 0.409702 0.332413 0.303704 0.301812 0.380077 0.299149 0.298936 0.284996 0.267102 0.362758 0.265302 0.311867 0.327377 0.427874 0.260985 0.256519 0.254498 0.254094 0.303408 0.25203 0.295961 0.246248 0.240247 0.240135 0.239199 0.257806 0.252764 0.233164 0.29714 0.231994 0.229747 0.229435 0.222869 0.221132 0.270298 0.258037 0.220949 0.682578 0.220812 0.219547 0.217565 0.215498 0.204125 0.203883 0.294217 0.319519 0.208592 0.200731 0.200684 0.198882
threshold=0.86500000953674328 8.7500000000000018 33.479749679565437 13.904901504516603 -1.322539687156677 111.50000000000001 -2.0168439149856563 33.479749679565437 11.577150821685793 10.45655679702759 193.50000000000003 0.21499999612569812 0.092500001192092909 9.1702113151550311 -0.25450000166893 1.044999957084656 22.69635105133057 7686.9003906250009 -26.489999771118161 7.1755788326263437 11.144999980926515 -0.14649999886751172 1.1050000190734866 137.50000000000003 20.650000572204593 47.873104095458991 0.51310068368911754 -1.8215000033378599 252.50000000000003 -3.445000052452087 0.16499999910593036 26.500000000000004 6714.2106933593759 -9.8150000572204572 149.41496276855472 13.605000019073488 14.309468269348146 1.5500000119209292 34.522901535034187 7.5000000000000009 149.05000305175784 2.3500000238418584 108.50000000000001 5.8037810325622567 5.1264231204986581 2.1384999752044682 -0.81913921236991871 17.0842399597168 3517.170043945313 22.500000000000004 21.500000000000004 17.849999427795414 1.0000000180025095e-35 45.731531143188484 1.4024999737739565 245.05000305175784 927.76501464843761 10.449999809265138 6.3254871368408212 12.500000000000002 2.5383158922195439 11.151165485382082 9.8499999046325701 608.18322753906261 124.50000000000001 0.66500002145767223 878.32000732421886 62.500000000000007 0.85749998688697826 14.342658519744875 1.4254999756813052 0.53594872355461132 0.36949999630451208 0.019499999471008781 -1.0000000180025095e-35 0.20791304856538775 -0.43417844176292414 19.056216239929203 0.44550000131130224 1045.539978027344 -0.4315000027418136 0.13049999624490741 1.0500000119209292 4.805000066757203 3.1154999732971196 45.731531143188484 19.154999732971195
decision_type=2 2 2 2 2 2 2 2 2 2 2 2 2 2 2 2 2 2 2 2 2 2 2 2 2 2 2 2 2 2 2 2 2 2 2 2 2 2 2 2 2 2 2 2 2 2 2 2 2 2 2 2 2 2 2 2 2 2 2 2 2 2 2 2 2 2 2 2 2 2 2 2 2 2 2 2 2 2 2 2 2 2 2 2 2 2 2
left_child=12 4 3 9 13 18 17 8 15 -3 33 -10 -1 27 -5 -6 24 28 -4 -14 21 -20 23 -16 76 -26 47 44 -7 -28 -31 -29 -27 34 51 37 38 56 -37 -23 41 -17 -43 -15 -2 46 58 48 52 50 -50 -8 -9 -49 -18 -56 57 -35 -11 -41 -54 -39 -63 -64 -21 -66 -19 -52 -44 -13 72 -72 -22 74 -33 -51 -12 -71 -76 -61 -55 82 -82 -83 -75 -67 -47
right_child=1 2 5 14 7 6 10 26 11 45 16 69 19 43 22 40 54 66 20 64 70 39 -24 -25 25 32 29 31 -30 30 -32 73 -34 35 -36 36 -38 61 -40 59 -42 42 68 -45 -46 86 -48 53 49 75 67 -53 60 80 55 -57 -58 -59 -60 79 -62 62 63 -65 65 85 -68 -69 -70 77 71 -73 -74 84 78 -77 -78 -79 -80 -81 81 83 -84 -85 -86 -87 -88
leaf_value=-0.0015737983177617242 -0.00035895510944776964 -0.0008946768476342852 -0.0037151151542118973 0.0017900330417784608 -0.0029175841665042583 -0.0029194006043375127 0.00059213655833177344 0.00046809166601962645 0.0021641893303603519 -0.0054216018722160015 0.0045627360670889962 0.0057175320769969045 -0.0050340799880876736 -0.00082073620373993245 -0.0032486558780653262 -0.0014157273074374426 5.4008240189054886e-05 0.0086953409380419108 4.4839666053918422e-05 -0.0040838343421726042 0.0032306841932314436 -0.00038585272380660461 0.010284082301468756 0.0081866283794714157 0.0087744218904170952 0.002800422433889469 -0.0022221358567417948 0.00024300271897367595 0.0029902871640039327 0.0005230388603161899 -0.0011428207118413768 -0.0019233683102029692 -0.0061920932911648033 -0.00053250802802444768 0.0030923227696039576 0.006436599106623698 -0.0013520952450229132 0.007492999604189682 0.00025292638906944837 0.0029259095092644396 -0.00034305481771308705 0.0048138985346387287 0.0064566254996421433 -0.003140751521061161 0.0092102775543886888 0.0033483881928424858 0.0066375628694081597 -0.0017221101507546716 -0.0001698922429716676 -0.0043986501774264551 0.007342412230022792 -0.0037067899556730891 0.003797545598771808 -0.00093259842290784913 0.0069818511995649087 0.00057496244603835343 0.0068819147227689422 0.0030911613789580072 0.0034762877153772715 0.00092932385466092354 0.0012976268466564306 0.0009342104667804255 0.012784708215746043 0.0045960891135339568 -0.0041894605881334177 -0.00071297276656273471 0.0010765052273022748 0.0004071357141577157 -0.0019063417950230582 0.010300716030419797 0.0012712677655840241 -0.0019435521128460538 -0.0027723178579053907 -0.002456205956926446 2.9100029401027156e-06 0.00057406002391141326 0.0077811882872512086 0.005604020476856009 0.0035246844148500555 0.0064810759403882484 8.9401262808022692e-05 -0.0025122730664227438 0.003067105842227906 0.00080430198709117052 0.0045769752959294646 0.0055042462729588092 -0.0018825090624399088
leaf_weight=451 35 279 133 51 281 411 284 1815 215 21 158 271 2469 331 24 117 137 28 1672 422 41 318 940 60 42 62 594 505 59 1282 1300 1371 33 175 332 99 177 162 84 802 691 222 22 2337 29 177 288 544 1353 147 63 98 253 684 92 67 58 342 67 794 959 97 22 210 120 142 83 42 74 162 364 215 350 1574 205 66 398 79 162 36 405 209 348 183 21 33 47
leaf_count=451 35 279 133 51 281 411 284 1815 215 21 158 271 2469 331 24 117 137 28 1672 422 41 318 940 60 42 62 594 505 59 1282 1300 1371 33 175 332 99 177 162 84 802 691 222 22 2337 29 177 288 544 1353 147 63 98 253 684 92 67 58 342 67 794 959 97 22 210 120 142 83 42 74 162 364 215 350 1574 205 66 398 79 162 36 405 209 348 183 21 33 47
internal_value=-2.59409e-05 0.000491974 0.00229144 0.0063764 -0.000494358 0.00134483 0.00252165 0.000298501 0.00186316 0.0025968 0.00320889 0.00568663 -0.00420474 -0.00198889 0.00946439 -0.000110538 0.00491123 -0.00117494 0.000420239 -0.00457633 0.000540593 0.000904301 0.00984401 0.00488773 0.00600428 0.0024658 -2.70903e-05 -0.00139673 -0.00217188 -0.000672255 -0.000314667 -0.00148635 -0.000295311 0.00242091 0.00116464 0.00304806 0.00116431 0.00368173 0.00361274 0.00163987 0.000587615 0.0020721 0.00336373 -0.00285392 0.00393559 0.00422477 0.00540073 0.000262315 0.000575536 -0.0002116 0.000171339 -0.00050377 0.00101094 -0.000356672 0.00234316 0.00429884 0.00237068 0.00185944 0.00132267 0.00203622 0.00182167 0.00521165 0.00408021 0.0053841 -0.00299634 -0.00143165 0.00302238 0.00459366 0 0.00716058 -0.000814757 7.29136e-05 -0.00213604 -0.00174917 -0.00118528 -0.00284532 0.00687138 0.00877219 0.00156473 0.00117333 4.79965e-05 0.000636108 0.00146909 -0.000957189 -0.00236194 0.000444231 0.00223896
internal_weight=32977 29340 10389 1954 18951 8435 3710 12381 2134 879 3129 727 3637 6570 1075 1407 989 581 4725 3186 4592 3622 1024 84 693 137 10247 3902 470 3176 2582 3838 95 2140 714 1426 360 1066 183 1950 1126 435 318 2668 64 600 376 7071 4698 1671 1458 382 3027 2373 296 159 575 517 88 1632 1212 491 329 232 717 295 111 105 96 512 970 579 391 3333 1738 213 556 241 367 830 1829 1145 753 392 1595 175 224
internal_count=32977 29340 10389 1954 18951 8435 3710 12381 2134 879 3129 727 3637 6570 1075 1407 989 581 4725 3186 4592 3622 1024 84 693 137 10247 3902 470 3176 2582 3838 95 2140 714 1426 360 1066 183 1950 1126 435 318 2668 64 600 376 7071 4698 1671 1458 382 3027 2373 296 159 575 517 88 1632 1212 491 329 232 717 295 111 105 96 512 970 579 391 3333 1738 213 556 241 367 830 1829 1145 753 392 1595 175 224
is_linear=0
shrinkage=0.0719


Tree=2
num_leaves=88
num_cat=0
split_feature=22 1 22 15 0 7 15 22 0 3 3 0 9 7 21 9 1 0 18 18 0 22 2 18 20 0 18 2 20 21 1 15 13 0 21 21 20 3 0 7 8 3 1 21 18 18 4 18 13 3 1 4 18 9 0 15 20 15 0 49 3 0 3 19 1 7 9 15 22 20 20 1 15 15 19 3 21 15 15 18 8 5 64 22 9 13 20
split_gain=11.9166 8.69004 7.88601 3.78252 2.92292 1.56514 1.67137 1.30655 2.88218 0.685454 0.642981 0.614801 0.608307 0.588031 0.568187 0.522711 0.479969 0.451155 0.422492 0.394358 0.371967 0.351139 0.374064 0.341959 0.340388 0.340013 0.332198 0.332161 0.482531 0.432377 0.544045 0.330103 0.359125 0.32745 0.327018 0.378174 0.321495 0.315863 0.328759 0.303457 0.296462 0.29234 0.288762 0.295118 0.292646 0.273404 0.392087 0.271527 0.269432 0.267114 0.273003 0.259527 0.455093 0.258827 0.257732 0.241087 0.239951 0.233422 0.230732 0.229966 0.228991 0.228034 0.228013 0.221669 0.221497 0.274946 0.237291 0.220084 0.219554 0.218247 0.228877 0.216673 0.216238 0.210492 0.210293 0.210156 0.209872 0.209374 0.338191 0.203223 0.203218 0.202687 0.200071 0.192933 0.190453 0.189937 0.188916
threshold=0.92500001192092907 8.7500000000000018 2.7549999952316289 -2.0168439149856563 13.904901504516603 125.50000000000001 -2.0168439149856563 4.4349999427795419 11.891116619110109 83.702663421630874 90.77524566650392 8.4501309394836444 5.4749999046325692 220.50000000000003 0.31049999594688421 5.9449999332427987 14.750000000000002 10.720604896545412 22.415303230285648 6.5888314247131357 7870.3662109375009 1.044999957084656 149.05000305175784 15.445600509643556 -4.0050001144409171 10377.577636718752 17.0842399597168 116.64999771118165 -9.8150000572204572 0.456499993801117 11.050000190734865 -0.52419510483741749 8.7509903907775897 16.495923995971683 0.29050000011920935 -0.90749999880790699 9.4250001907348651 24.319099426269535 12795.746093750002 252.50000000000003 8.5000000000000018 102.40880584716798 14.34999990463257 1.1804999709129336 7.5984139442443857 6.2804577350616464 1.0000000180025095e-35 0.51658108830451976 2.7211465835571294 151.2083435058594 12.550000190734865 11.250000000000002 2.5383158922195439 5.6250000000000009 12341.315917968752 -2.5138095617294307 10.694999694824221 -4.4660918712615958 5725.5285644531259 1.0000000180025095e-35 47.873104095458991 5718.5874023437509 153.991569519043 225.01316070556643 2.3500000238418584 107.50000000000001 5.8350000381469735 -3.8525657653808589 878.32000732421886 -13.99499988555908 16.195000648498539 11.050000190734865 0.27840487658977514 10.580852985382082 155.77825164794925 45.731531143188484 -1.3684999942779539 0.18019608408212665 -0.27126984298229212 106.91517257690431 33.500000000000007 -4.4999999999999991 1.0000000180025095e-35 0.61500000953674328 7.6600000858306894 9.5941343307495135 8.2449998855590838
decision_type=2 2 2 2 2 2 2 2 2 2 2 2 2 2 2 2 2 2 2 2 2 2 2 2 2 2 2 2 2 2 2 2 2 2 2 2 2 2 2 2 2 2 2 2 2 2 2 2 2 2 2 2 2 2 2 2 2 2 2 2 2 2 2 2 2 2 2 2 2 2 2 2 2 2 2 2 2 2 2 2 2 10 2 2 2 2 2
left_child=11 3 4 12 17 16 20 8 21 33 -10 14 -2 27 -1 -13 31 81 71 25 39 -5 64 47 -18 -14 -11 59 49 30 -30 -4 69 -6 35 -25 40 38 58 57 -26 -37 43 84 -45 46 -34 -9 -43 50 85 52 -49 62 -54 -19 -17 -7 -31 -8 -27 -38 -48 -41 -23 66 77 -21 -22 72 82 -15 -33 -42 -69 -58 -61 78 -66 -50 -57 -3 -71 -16 -39 -29 -67
right_child=1 2 5 7 9 6 13 23 10 26 -12 15 19 18 83 56 24 55 -20 67 68 22 -24 34 36 60 -28 28 29 37 -32 32 45 -35 -36 41 61 42 -40 63 73 48 -44 44 -46 -47 53 51 79 -51 -52 -53 54 -55 -56 80 75 -59 -60 76 -62 -63 -64 -65 65 86 -68 74 -70 70 -72 -73 -74 -75 -76 -77 -78 -79 -80 -81 -82 -83 -84 -85 -86 -87 -88
leaf_value=-0.0017351328936906611 -0.00073872870454369109 0.0060694045559731126 -0.00094282675650531761 -0.0025866021461062308 0.007660590376119358 -0.0048667525578260677 0.0034150884036245389 -0.00013434467317370545 0.0071395571824730865 -0.0027334963264327152 0.00040936011811912814 -0.0037612585405206287 -0.0014420666755002882 0.0041243757583637611 -0.004948103772124398 0.0058889524454479253 -0.0027174364606326724 -0.0021443550414582055 0.0024022225327922902 -0.0033322078610394492 0.0088882045297716105 -0.0016858975305794738 -0.00042018549977497049 -0.0014718643313419849 -0.00080828667177159968 0.0093121321410059837 0.0065701226388686753 -0.0014489482190277808 0.0019488310425390925 0.0011474530171492897 0.0065774587549669358 0.00076934654969983184 0.00086189666550360808 0.010433655680315622 -0.0016056618091525266 -0.00045577604986699071 -0.0037883276213308585 0.0061946546801878244 -0.0032967224335673086 -0.00074419646497236847 0.0020635706950202447 -7.3266427911823054e-05 -0.0021476419146931143 0.0051203091176761457 -0.0032074112707949401 0.0010249687385607703 0.0019056042900861955 0.0039043226198725981 0.002819806336276182 0.0024741007027339126 -0.002637762491130514 -2.2292573069090868e-05 0.00054409718191599128 0.0063012871506652494 0.0047110647672895887 0.0042190603553596759 -0.0012091722230422304 -0.0012765830236077856 0.0076703534620870296 0.0015297550347039247 0 6.3649070363188813e-05 0.0080954286504900264 0.0080108223978273118 -0.00087396169051167337 0.0028123372660210813 0.0067646552006323047 -0.0011255540319871165 0.0009955470950722045 0.00067491089620123391 -0.0030149706120689759 0.0084169565029352973 -0.003938851258338729 0.007961282629702247 -0.0029347493814058205 0.0040774159528930466 0.0082896441458124182 -0.0011694865216569116 0.0085973027278581082 -0.00034131559545077318 0.01153647570421454 -0.00058190264462118057 0.0050989877724900972 -0.0037175214494046455 -0.0010780685295618275 0.0050431044388677708 -0.0030258505008801165
leaf_weight=451 1394 27 478 212 355 151 562 4032 500 35 87 299 725 89 1807 37 349 29 144 1905 24 61 692 902 185 26 45 42 245 42 288 89 313 627 1153 1401 147 86 25 36 193 541 144 31 73 1038 231 300 477 171 196 1189 1257 181 82 454 223 254 91 32 29 170 36 25 33 61 113 608 80 1512 84 214 114 38 749 47 105 54 46 133 21 191 55 1076 23 51 54
leaf_count=451 1394 27 478 212 355 151 562 4032 500 35 87 299 725 89 1807 37 349 29 144 1905 24 61 692 902 185 26 45 42 245 42 288 89 313 627 1153 1401 147 86 25 36 193 541 144 31 73 1038 231 300 477 171 196 1189 1257 181 82 454 223 254 91 32 29 170 36 25 33 61 113 608 80 1512 84 214 114 38 749 47 105 54 46 133 21 191 55 1076 23 51 54
internal_value=-2.39537e-05 0.000479433 0.00216712 -0.000437191 0.00651065 0.00124837 0.00249382 0.000212411 0.00195199 0.00891155 0.0061466 -0.00373449 -0.00203659 0.00325273 -0.00411792 -0.00162057 0.000477603 0.00297545 0.00563657 -0.00248354 -0.00103513 9.30935e-05 0.000605443 -7.75653e-05 -0.000869244 -0.00102583 0.00246655 0.00276871 0.00216439 0.00301669 0.00445485 0.000831017 0.00106385 0.00943389 -0.000556861 -0.000205984 7.10033e-06 0.0015231 0.00420113 -0.00190625 0.00132517 0.000240397 0.000330407 0.0020182 -0.000699514 0.00178794 0.00282513 0.000243929 0.00109009 0.000216857 -0.00110954 0.000784192 0.00137087 0.00419083 0.00080127 0.00415782 0.000455667 -0.00262171 0.00563051 0.00406863 0.0044125 -0.00171421 0.00275017 0.00280036 0.00229358 0.00297338 0.00433022 -0.00283128 0.00284255 0.000359814 0.000634557 0.00716489 -0.00186157 0.00304529 -0.00212611 -0.000279054 0.00673012 0.00224184 0.0046073 0.00212622 0.00454818 0.000229695 0.000831891 -0.00448975 0.00463564 0.00208261 4.77929e-05
internal_weight=32977 29037 10221 18816 1784 8437 3224 13380 1913 1062 587 3940 5436 2654 3334 606 5213 722 447 4042 570 1326 1114 11467 1082 780 80 2207 1508 1048 533 4131 3653 982 4607 3454 733 515 158 466 416 2552 357 213 104 1799 761 6860 1151 460 289 2828 1639 448 1339 504 307 405 133 699 55 317 267 61 422 361 246 3262 104 1854 1651 303 203 231 1357 270 137 133 79 610 475 218 1567 2883 109 93 115
internal_count=32977 29037 10221 18816 1784 8437 3224 13380 1913 1062 587 3940 5436 2654 3334 606 5213 722 447 4042 570 1326 1114 11467 1082 780 80 2207 1508 1048 533 4131 3653 982 4607 3454 733 515 158 466 416 2552 357 213 104 1799 761 6860 1151 460 289 2828 1639 448 1339 504 307 405 133 699 55 317 267 61 422 361 246 3262 104 1854 1651 303 203 231 1357 270 137 133 79 610 475 218 1567 2883 109 93 115
is_linear=0
shrinkage=0.0719


Tree=3
num_leaves=88
num_cat=0
split_feature=22 1 0 15 0 7 15 0 0 7 0 9 20 21 21 18 15 22 16 1 22 7 8 0 15 20 20 16 15 0 2 0 8 19 20 21 15 0 15 8 1 2 20 0 7 2 20 16 14 9 15 20 1 8 10 8 10 18 16 21 18 19 22 18 2 9 20 18 20 15 15 7 22 0 22 21 22 0 22 21 10 13 15 7 0 46 9
split_gain=10.271 7.48926 5.81358 3.27507 3.26567 1.33684 1.37628 0.919273 2.35243 0.752551 0.734135 0.634306 0.541039 0.514851 0.458527 0.442006 0.426884 0.395412 0.382073 0.355685 0.348455 0.365137 0.331658 0.330782 0.314046 0.286802 0.284902 0.275734 0.302168 0.255807 0.302094 0.52019 0.304432 0.276102 0.252287 0.252052 0.251107 0.248299 0.245004 0.240614 0.236944 0.316678 0.231721 0.231097 0.229547 0.228601 0.341509 0.228713 0.252658 0.245631 0.228042 0.222777 0.219218 0.254231 0.252525 0.324079 0.274495 0.244593 0.331709 0.215207 0.214689 0.507967 0.213482 0.211821 0.227274 0.209553 0.228972 0.351705 0.200563 0.199899 0.196333 0.193812 0.191943 0.189721 0.189489 0.188163 0.212008 0.183191 0.214885 0.182313 0.182006 0.181515 0.180978 0.178859 0.177937 0.175438 0.332303
threshold=0.86500000953674328 8.7500000000000018 33.479749679565437 -1.322539687156677 13.904901504516603 111.50000000000001 -0.85513159632682789 33.479749679565437 11.577150821685793 193.50000000000003 10.45655679702759 5.2550001144409189 0.21499999612569812 0.092500001192092909 -0.25450000166893 5.9564771652221689 -5.4771242141723624 1.044999957084656 12.076574325561525 14.750000000000002 1.1050000190734866 137.50000000000003 30.500000000000004 7.1755788326263437 0.51310068368911754 -3.445000052452087 0.16499999910593036 4.5509815216064462 -1.7961481213569639 6238.5810546875009 299.34999084472662 6961.7392578125009 30.500000000000004 127.45138931274415 -4.0050001144409171 0.061499999836087234 5.6880199909210214 10525.144531250002 -3.9493589401245113 7.5000000000000009 2.3500000238418584 130.75000000000003 8.4049997329711932 11760.149414062502 108.50000000000001 33.049999237060554 -10.295000076293944 9.2594308853149432 9.0478024482727069 6.8150000572204599 5.6880199909210214 10.84500026702881 4.7500000000000009 43.500000000000007 22.500000000000004 8.5000000000000018 21.500000000000004 18.822721481323246 6.1258563995361337 -1.8215000033378599 9.6791834831237811 1.0000000180025095e-35 1045.539978027344 2.1216224431991582 87.049999237060561 7.6600000858306894 13.605000019073488 14.309468269348146 -10.565000057220457 0.25663924217224127 -0.57299441099166859 84.500000000000014 548.34500122070324 14.342658519744875 0.66500002145767223 -1.4764999747276304 2.5249999761581425 5741.2387695312509 6514.1948242187509 1.6735000014305117 11.500000000000002 0.20791304856538775 -0.2990384697914123 88.500000000000014 19.056216239929203 1.0000000180025095e-35 6.5050001144409189
decision_type=2 2 2 2 2 2 2 2 2 2 2 2 2 2 2 2 2 2 2 2 2 2 2 2 2 2 2 2 2 2 2 2 2 2 2 2 2 2 2 2 2 2 2 2 2 2 2 2 2 2 2 2 2 2 2 2 2 2 2 2 2 2 2 2 2 2 2 2 2 2 2 2 2 2 2 2 2 2 2 2 2 2 2 2 2 2 2
left_child=13 3 4 11 10 19 16 8 17 45 -3 -2 75 -1 -6 37 -7 -5 -11 60 21 -16 -18 -15 52 -26 77 42 -29 33 31 32 -31 -20 -21 39 -37 68 79 -36 -19 44 -12 -39 -42 85 47 48 -47 -49 65 -43 54 57 55 56 -9 58 -54 -40 61 -4 -60 64 -63 66 -48 82 -13 -41 -62 -25 -50 -14 -73 -10 -77 -27 -79 -17 -38 -56 -68 -66 -75 86 -8
right_child=1 2 5 7 14 6 9 24 12 18 27 15 73 23 20 38 22 40 29 34 -22 -23 -24 71 25 26 -28 28 -30 30 -32 -33 -34 -35 35 36 80 43 59 69 41 51 -44 -45 -46 46 50 49 72 -51 -52 -53 53 -55 81 -57 -58 -59 62 -61 70 63 -64 -65 83 -67 67 -69 -70 -71 -72 74 -74 84 -76 76 -78 78 -80 -81 -82 -83 -84 -85 -86 -87 -88
leaf_value=-0.0013436433104384382 -0.00048188723003288837 -0.00078390127908971113 8.5943354670626635e-05 -0.0025084717269687521 0.0014520152004684911 -0.0041129938012654885 0.010026405736283326 0.00094443499434080443 -0.0025170123306547713 0.0061226031264918421 0.0055915412735139617 0.0020027771545273005 0.0048822369873066729 -0.004344971509779025 -0.0034147865660392749 -0.0031434275074130012 -0.0007381539758104566 -0.0012124775353640116 0.00084300582179373459 -0.0026386640101098242 0.008899835715195481 0.0070188556271163285 0.0021739057038494595 -0.0043418941150373536 -0.002039450786302425 -0.00073020048676084416 -0.0010359600902695924 -0.00023962539561877243 0.0054856631107592455 0.0030474977062739479 -0.0042358140062632088 0.0084138808388724787 -0.0046932846803826329 0.0080924243494527349 -0.0015399276924481498 -0.0027419742286506716 -0.0026260792860590678 0.0080218801137292538 0.0036504215381037227 -0.00014342118766465407 0.0044376664824898526 0.0010024137743349544 -9.2880047137519181e-05 -0.00075733929580734454 -0.00018104084203820521 -0.00042557756358523415 0.0041783390383926325 -0.0019549553633263521 0.0022853478995858178 0.006172727408208554 -0.00087188066342954709 -0.0022944118091577583 0.00067147069158665922 0.005901886863765614 -0.0037179981535252751 -0.00036703288312131196 0.0061501638163995419 -0.00028768487785169598 0.0024538847099235526 -0.0020108997880408036 -0.001608920438550773 0.0077544463894242115 0.0080438953357533372 0.0017466941285377506 0.001591174132090136 0.0010868400615497047 -0.0012190777934581365 -0.0011080298106062277 -0.0014239189449230033 0.0042027212500364173 0.00045165406881310767 -0.0036778461478660404 0.0082018730903985829 0.0090847609768300083 -0.00071785183704319553 0.0082326942702402907 0.0017129977810509266 0.0013077031190239085 -0.0048714031014992472 0.0021225102952200556 0.0044447138646170259 -0.00019156906922980369 0.0052063683210936138 0.0064614743466785756 0.0048310941540481633 0.000724892971895354 0.0023207109459064748
leaf_weight=451 1611 279 888 281 51 123 60 686 40 486 50 98 271 2469 24 1900 506 302 43 294 940 60 336 224 594 431 1300 54 356 63 40 55 45 78 107 237 29 31 35 86 197 408 140 30 76 136 630 214 112 21 88 143 2089 47 168 2447 57 1149 246 1986 275 71 42 529 142 260 27 126 845 145 1815 175 39 162 318 32 143 821 30 34 52 140 123 55 79 41 58
leaf_count=451 1611 279 888 281 51 123 60 686 40 486 50 98 271 2469 24 1900 506 302 43 294 940 60 336 224 594 431 1300 54 356 63 40 55 45 78 107 237 29 31 35 86 197 408 140 30 76 136 630 214 112 21 88 143 2089 47 168 2447 57 1149 246 1986 275 71 42 529 142 260 27 126 845 145 1815 175 39 162 318 32 143 821 30 34 52 140 123 55 79 41 58
internal_value=-2.21952e-05 0.000424481 0.00197601 -0.000425933 0.00551019 0.00115699 0.00217863 0.000262419 0.00162004 0.00299976 0.00225541 -0.00172352 0.00494112 -0.0036263 0.00816906 -0.00212634 -0.000154377 -9.40756e-05 0.00484259 0.000354248 0.008501 0.00400614 0.000420744 -0.00394859 -2.00546e-05 -0.000614213 -0.0002853 0.00367312 0.00472511 0.00291435 0.00133727 0.00272123 -0.000153205 0.00553819 -0.000888083 -9.94668e-05 -0.00155622 -0.000775215 -0.00246866 0.00126322 0.00050609 0.00113918 0.00138903 0.00366066 0.00314213 0.00222697 0.00199059 0.000439136 0.00180473 -0.00121732 0.00263429 0.000141965 0.000246441 0.000642701 -0.000157556 3.14472e-05 0.00134738 0.000571843 0.000988443 -0.00191154 0.000667593 0.00127173 0.00327835 0.00258957 0.00424336 0.00290119 0.00341893 0.00167586 -0.00106498 0.00257316 0.000179253 -0.00257993 0.0038311 0.00621446 -0.00177396 0.00189641 0.0029204 0.000473824 0.00108674 -0.00304948 0.00188035 -0.00212372 0.00403205 0.00296442 0.00770146 0.00485052 0.00626144
internal_weight=32977 29340 10389 18951 1954 8435 3710 12381 2134 2745 879 6570 727 3637 1075 4959 965 1407 810 4725 1024 84 842 3186 10247 3176 2582 600 410 324 203 163 108 121 950 656 318 1004 3955 338 1126 824 190 61 273 1935 1776 522 287 235 1254 551 7071 3573 3498 3190 743 3526 2377 2021 3775 1685 288 797 268 1166 906 276 943 231 2090 717 151 512 493 215 175 1282 851 1934 81 308 150 197 241 159 118
internal_count=32977 29340 10389 18951 1954 8435 3710 12381 2134 2745 879 6570 727 3637 1075 4959 965 1407 810 4725 1024 84 842 3186 10247 3176 2582 600 410 324 203 163 108 121 950 656 318 1004 3955 338 1126 824 190 61 273 1935 1776 522 287 235 1254 551 7071 3573 3498 3190 743 3526 2377 2021 3775 1685 288 797 268 1166 906 276 943 231 2090 717 151 512 493 215 175 1282 851 1934 81 308 150 197 241 159 118
is_linear=0
shrinkage=0.0719


Tree=4
num_leaves=88
num_cat=0
split_feature=22 1 22 13 22 9 22 22 1 8 17 20 20 18 1 21 22 18 1 13 21 1 3 18 17 21 21 12 12 12 22 1 9 1 17 20 1 9 18 2 5 3 1 3 8 18 22 18 21 21 21 20 13 13 20 19 18 18 18 20 18 13 2 2 9 18 8 1 12 21 2 9 3 8 20 3 17 22 20 2 3 2 20 1 1 22 21
split_gain=8.87255 6.45496 5.892 1.8909 1.50684 1.19167 0.786605 0.821504 0.905217 0.689036 0.56036 0.474579 0.540581 0.469814 0.456565 0.43895 0.473266 0.435394 0.39781 0.406326 0.388589 0.398368 0.377076 0.367256 0.364447 0.362449 0.441199 1.01096 0.340571 0.333099 0.315013 0.329405 0.441191 0.324852 0.284366 0.27785 0.276325 0.303101 0.274352 0.287818 0.273277 0.273111 0.51703 0.256437 0.253798 0.2891 0.253081 0.249726 0.249614 0.398564 0.314669 0.389317 0.246728 0.241305 0.236347 0.226847 0.224923 0.221584 0.21888 0.21676 0.236361 0.215385 0.213817 0.362123 0.219863 0.21187 0.211538 0.210314 0.276655 0.209909 0.208367 0.206833 0.205878 0.204907 0.202801 0.200719 0.199564 0.19722 0.208924 0.196139 0.228971 0.195906 0.195532 0.19469 0.183491 0.307659 0.18145
threshold=0.92500001192092907 8.7500000000000018 2.7549999952316289 9.215055465698244 1.2549999952316286 5.4449999332427987 4.4349999427795419 1.3350000381469729 2.4500000476837163 31.500000000000004 1.2245000004768374 -13.284999847412108 8.9849996566772479 7.2430589199066171 9.9499998092651385 0.31049999594688421 0.7150000035762788 8.9837965965271014 11.150000095367433 13.645472526550295 -0.10949999839067458 10.750000000000002 58.424039840698249 0.48552088439464575 2.4225000143051152 0.019499999471008781 -0.051500000059604638 3.3045545816421513 11.340582847595217 11.07537889480591 1.8650000095367434 6.7500000000000009 8.3150000572204608 5.8500001430511483 0.65549999475479137 0.024999999441206459 10.650000095367433 5.6050000190734872 23.434688568115238 132.05000305175784 5.5000000000000009 156.51737213134768 21.44999980926514 12.994161128997805 15.500000000000002 6.5888314247131357 548.34500122070324 2.5383158922195439 1.0875000357627871 -0.33050000667572016 -1.1265000104904173 -7.5650000572204581 2.8151844739913945 10.97771215438843 -12.974999904632567 115.44222259521486 1.0000000180025095e-35 2.1216224431991582 100.76840972900392 -1.4350000023841856 23.94110202789307 9.7822751998901385 306.34999084472662 295.75000000000006 8.5950002670288104 152.76203918457034 19.500000000000004 10.550000190734865 8.3758096694946307 1.4994999766349795 196.44999694824222 6.1749999523162851 12.242009639739992 31.500000000000004 -4.0050001144409171 29.793487548828129 1.0615000128746035 1.485000014305115 10.194999694824221 132.05000305175784 77.711334228515639 239.65000152587893 -6.7449998855590811 12.449999809265138 8.4499998092651385 79.770000457763686 1.2894999980926516
decision_type=2 2 2 2 2 2 2 2 2 2 2 2 2 2 2 2 2 2 2 2 2 2 2 2 2 2 2 2 2 2 2 2 2 2 2 2 2 2 2 2 10 2 2 2 2 2 2 2 2 2 2 2 2 2 2 2 2 2 2 2 2 2 2 2 2 2 2 2 2 2 2 2 2 2 2 2 2 2 2 2 2 2 2 2 2 2 2
left_child=15 3 4 6 14 11 7 -2 -9 18 40 -4 70 53 -3 -1 -17 23 28 48 -6 29 30 -8 83 26 52 35 44 77 31 -10 55 86 -25 59 -18 -38 39 -21 54 42 67 -26 62 56 -30 76 49 50 -20 -52 -19 -5 -11 -33 -46 -41 73 -28 -61 -50 63 64 -7 82 -27 68 -12 -63 -13 -51 -57 -29 -73 -39 -36 78 -22 -56 -81 -72 -47 -16 -15 -86 -32
right_child=1 2 5 13 20 9 17 8 22 10 41 12 -14 84 24 16 36 25 19 38 21 -23 -24 34 43 66 27 58 46 -31 33 32 -34 -35 47 -37 37 75 -40 57 -42 -43 -44 -45 45 65 -48 -49 61 71 51 -53 -54 -55 79 72 -58 -59 -60 60 -62 69 -64 -65 -66 -67 -68 -69 -70 -71 81 74 -74 -75 -76 -77 -78 -79 -80 80 -82 -83 -84 -85 85 -87 -88
leaf_value=-0.001310168771155815 -0.00091033311093117043 0.00040416804127532853 -0.0019884729067078284 0.0012871129466143572 0.00093255915203950643 0.0015013813815228513 -0.00019322273099877372 -0.0020669076741440203 0.0005284470241921764 -0.00074970573973067312 0.0085689577738444749 0.00035354694717170114 -0.0012150144076629519 -0.0025989488237821434 0.0040811414380690896 -0.0040674828208769097 -0.0030176506265497272 -0.0026166675495669684 0.0033425898789069515 0.0034924951830098585 0.0093721449576282569 0.0091608626458032465 0.00057027563324212678 0.00018372466919952331 -0.0027748700112939198 -0.00090419588277920466 -0.002919304185352101 0.0029189187478388555 -0.0037371883238096031 0.00131201788627242 0.0051843106642963143 0.0087073105545288961 -0.0010713597159235175 0.0071039510169673241 0.0068265966229486726 -0.0018379715236872683 -0.0033513976471545685 -0.00019487575132410577 -0.0013506388065861643 0.0027784782443404654 -0.0026327956716542902 0.0085429591150348611 -0.0027203679837615995 0.003489933696595443 1.5713034041645645e-05 -0.0014040964592680965 0.00033302298315362561 0.0011585077796938546 -0.0024367954099621066 0.0027548907137393418 -0.0031413067791408586 0.0036965816336048674 -0.00062113719305427787 -0.0018358601676105259 0.0066352091264416093 0.00031948854319245644 0.0062597328425061886 -0.00050268135478623614 0.00043682157761532596 -0.00093193366317682663 0.0015792897862186342 -0.00064360943286691978 -0.001186744376595291 0.0056533894956198386 -0.00056716488109681041 0.0065476539954152646 -0.0023565434587067995 0.0059098061810277094 0.00035040924604788095 0.0049703530376552204 0.0042741322400185831 0.011724103980546928 0.0064455954857474684 0.0074809181335481149 0.0053339619141733168 0.004788605261359399 0.0024533450182905687 0.0081427844949453852 0.0034337774425483789 -0.00083987653562454768 0.005720919296530274 0.001378460713918567 0.0018700712629026236 0.0074660092576425887 0.004498659292924174 -0.0020148555812776006 0.0010644446976731201
leaf_weight=540 630 223 557 298 47 612 4480 217 248 90 28 873 772 2331 215 2417 668 377 308 265 42 490 267 1094 52 1695 103 482 143 63 113 84 62 211 79 571 116 140 210 156 75 89 50 95 40 135 174 673 74 166 109 71 2185 224 73 52 128 332 170 320 488 63 305 79 467 37 754 325 90 74 156 29 65 58 300 59 181 277 124 67 46 561 308 156 51 141 112
leaf_count=540 630 223 557 298 47 612 4480 217 248 90 28 873 772 2331 215 2417 668 377 308 265 42 490 267 1094 52 1695 103 482 143 63 113 84 62 211 79 571 116 140 210 156 75 89 50 95 40 135 174 673 74 166 109 71 2185 224 73 52 128 332 170 320 488 63 305 79 467 37 754 325 90 74 156 29 65 58 300 59 181 277 124 67 46 561 308 156 51 141 112
internal_value=-2.05702e-05 0.000413779 0.00186833 -0.000376205 0.00562282 0.00107413 -5.93195e-05 0.00125012 0.00220312 0.00169566 0.00347852 -9.987e-05 0.000344369 -0.00201658 0.00313745 -0.00322231 -0.00352522 -0.000256359 0.00133228 0.00204348 0.007386 0.00768786 0.00296857 0.00016962 0.00430899 -0.000641546 -0.000274777 0.000473257 0.000699368 0.00625616 0.00364194 0.00242065 0.00419481 0.00506721 0.000972873 -0.000594034 -0.00218918 -0.00042386 0.000940573 0.00158309 0.00119946 0.00484844 0.00417607 0.00125571 0.0010301 0.00221589 -0.00149468 0.00189535 0.00293077 0.00341309 0.00194585 -0.000429357 -0.00091582 -4.79177e-05 0.00225048 0.00583243 0.0047889 0.000540765 0.00270479 0.000182727 0.000581453 0.000671166 0.000503064 0.000950432 0.000603632 0.00130978 -0.00135243 0.00496046 0.00232315 0.00236934 0.00110318 0.0048542 0.00374564 0.00341385 0.00590533 0.00126928 0.00379239 0.00695327 0.00495231 0.00371648 0.00180736 0.00201219 0.000866294 0.00551161 -0.00242283 -0.000270838 0.00314537
internal_weight=32977 29037 10221 18816 1784 8437 15771 2061 1431 5518 933 2919 2362 3045 741 3940 3400 13710 4585 2157 1043 996 1214 6507 518 7203 4754 2192 2428 506 947 511 263 436 2027 1482 983 315 963 753 351 582 493 147 2111 648 317 933 1194 983 488 180 2562 522 276 201 168 488 710 911 808 211 1463 1158 1079 480 2449 443 118 137 1590 495 117 540 329 199 260 443 166 186 113 717 443 371 2523 192 225
internal_count=32977 29037 10221 18816 1784 8437 15771 2061 1431 5518 933 2919 2362 3045 741 3940 3400 13710 4585 2157 1043 996 1214 6507 518 7203 4754 2192 2428 506 947 511 263 436 2027 1482 983 315 963 753 351 582 493 147 2111 648 317 933 1194 983 488 180 2562 522 276 201 168 488 710 911 808 211 1463 1158 1079 480 2449 443 118 137 1590 495 117 540 329 199 260 443 166 186 113 717 443 371 2523 192 225
is_linear=0
shrinkage=0.0719


Tree=5
num_leaves=88
num_cat=0
split_feature=22 15 22 0 12 7 3 0 12 18 0 9 20 21 9 15 1 1 21 3 46 20 0 21 7 20 3 12 7 2 8 21 2 2 21 12 7 3 7 4 22 0 0 20 20 10 22 16 0 20 39 10 18 17 21 12 8 10 7 1 3 9 1 10 0 11 3 12 18 21 17 0 9 8 18 15 20 7 22 18 17 12 18 7 18 18 3
split_gain=7.64383 5.71468 5.22184 5.21088 1.3797 1.52739 0.841658 0.775422 0.567082 0.451846 0.430941 0.422686 0.408682 0.511748 0.3918 0.386806 0.374465 0.361886 0.337818 0.328511 0.420996 0.316494 0.314509 0.41339 0.302714 0.297944 0.296539 0.293256 0.288569 0.283449 0.279763 0.274371 0.272274 0.267132 0.26341 0.262988 0.262857 0.259968 0.255871 0.283863 0.252969 0.328643 0.239388 0.238955 0.453562 0.573768 0.328389 0.282949 0.276077 0.274776 0.264055 0.26282 0.238769 0.238672 0.234612 0.273297 0.224983 0.224497 0.218037 0.217991 0.215879 0.208541 0.255752 0.228256 0.205443 0.202489 0.201302 0.276377 0.242869 0.200928 0.199791 0.199685 0.257543 0.196438 0.196064 0.193924 0.190625 0.226212 0.187023 0.185952 0.193511 0.197248 0.185689 0.182509 0.178968 0.177726 0.216582
threshold=0.92500001192092907 -1.7393398284912107 3.0749999284744267 11.891116619110109 7.7954015731811532 139.50000000000003 106.49237060546876 14.826558589935305 14.583409309387209 18.822721481323246 9.3968434333801287 4.7850000858306894 11.295000076293947 -1.0000000180025095e-35 5.6050000190734872 -3.3951516151428218 11.050000190734865 8.9499998092651385 0.31049999594688421 21.112826347351078 1.0000000180025095e-35 -1.5549999475479124 9.6486153602600115 1.7354999780654909 187.50000000000003 23.625000000000004 16.075226783752445 13.378519058227541 33.500000000000007 205.65000152587893 11.500000000000002 -1.1265000104904173 26.44999980926514 29.94999980926514 1.1035000085830691 13.378519058227541 233.00000000000003 44.376731872558601 91.500000000000014 1.1500000357627871 725.44500732421886 1050.0738525390627 7015.7644042968759 1.0000000180025095e-35 -1.0000000180025095e-35 22.500000000000004 7.8949999809265146 1.2039079666137698 7449.1855468750009 -0.30500000715255732 1.0000000180025095e-35 21.500000000000004 1.34542453289032 3.0195000171661381 1.0565000176429751 10.250675678253176 15.500000000000002 9.5000000000000018 277.50000000000006 12.949999809265138 109.32726287841798 9.1449999809265154 3.1499999761581425 10.500000000000002 5753.1584472656259 4.5000000000000009 92.224754333496108 8.661346912384035 142.3150329589844 -0.4315000027418136 1.5314999818801882 5806.2749023437509 3.6750000715255742 17.500000000000004 9.1303830146789569 0.0050641025882214316 7.4849998950958261 188.50000000000003 0.61500000953674328 18.822721481323246 2.1564999818801884 8.7432126998901385 36.428581237792976 213.50000000000003 9.1303830146789569 24.518841743469242 83.702663421630874
decision_type=2 2 2 2 2 2 2 2 2 2 2 2 2 2 2 2 2 2 2 2 2 2 2 2 2 2 2 2 2 2 2 2 2 2 2 2 2 2 2 2 2 2 2 2 2 2 2 2 2 2 2 2 2 2 2 2 2 2 2 2 2 2 2 2 2 2 2 2 2 2 2 2 2 2 2 2 2 2 2 2 2 2 2 2 2 2 2
left_child=10 11 3 22 31 8 7 26 12 19 18 -2 13 37 -12 -13 21 -11 -1 -7 24 -15 23 -3 -21 56 29 84 -18 -5 -8 85 42 -23 73 54 52 -6 39 -24 41 -29 -19 44 48 51 47 -45 -33 -50 -48 58 -22 -31 55 -34 -16 66 61 -38 -30 62 63 75 -52 -53 67 -39 -68 -69 -58 72 -64 -35 -41 -46 -28 -78 -20 80 81 -40 -14 -43 -17 -4 -87
right_child=1 2 4 6 5 9 30 -9 -10 17 14 15 82 16 25 27 28 32 78 20 36 33 38 -25 -26 -27 76 40 60 53 -32 43 35 34 -36 -37 59 57 79 74 -42 83 -44 46 45 -47 50 -49 49 -51 64 65 -54 -55 -56 -57 70 -59 -60 -61 -62 -63 71 -65 -66 -67 68 69 -70 -71 -72 -73 -74 -75 -76 -77 77 -79 -80 -81 -82 -83 -84 -85 -86 86 -88
leaf_value=-0.0014378849907694406 -0.00028031994299900902 0.00051951404239837669 -0.00037789360166977978 0.0015466503963068412 0.004670705637491882 0.0071315498837131973 -0.0039394615722978706 0.0078920178515183102 -0.001153361516359088 -0.0025436733873666919 -0.0034461109987543883 -0.0022204169838332274 -1.0434050803359573e-05 0.0081050938020657722 -0.0018091045025522194 -0.00017169214874399613 0.00050395781385091567 0.0083772858439295269 -0.0039856337243252349 0.0028377192078471087 0.0040312909005155058 0.0058359062329383319 0.0011792314854035674 -0.0030279716488298635 0.005494744634836588 -0.0017859732601287583 0.008798763379616565 0.0052208687210218083 0.0037006201076241444 0.0076816592841859755 0.003382013903032919 -0.00033122021736199555 0.00077449371054100831 0.00021638543264928923 0.0043204643128759721 -0.00043921550368367074 0.00010926230645923304 0.010782566636050043 0.0015145497913812435 0.0089839839338135951 0.0084946044319734737 -0.0032855140277202404 0.0013144173673793466 -0.0026696081040592529 7.731310978219898e-05 -0.0023314311690830749 -0.00046265369286569536 0.0042050857715092071 0.0021564449952297376 -0.00084012394921481191 0.0098054202101173337 0.00025539767526338859 -0.00080363594522975701 0.00012578794619628507 -0.00063716099019513835 0.005851615204564807 0.0016251628848681814 -0.00011953485562238602 0.0087610269159467107 0.0081978023589884229 0.0075807792104184519 -0.00085737392509648176 0.0082203555208957904 -7.4870437068312032e-06 0.0012090590502423328 0.0079819772443664953 0.00054791391401229881 0.0054743148376370518 0.0055271766133532926 -0.0020220311988132004 0.0081113187494672237 0.0058353352486508626 0.00015853971766259899 0.0035325192607120865 0.0033972276785661001 0.0038536826644892004 0.0042926920991187703 0.011470960968376739 -0.0028326346896621439 -0.0014388024612536263 -0.0027599265337962574 0.0080450738418784973 -0.0027252766108891752 0.0022283149646833591 -0.0016736436558491851 0.0032138640429995196 -0.0025533870470905409
leaf_weight=470 1325 720 824 209 76 125 49 997 824 103 163 3225 801 36 32 572 108 60 1824 477 68 62 157 222 425 101 105 57 287 94 60 2710 91 847 109 232 29 26 80 56 24 86 44 39 105 171 4494 143 514 227 22 25 235 29 78 143 48 1533 23 45 103 146 26 338 44 65 672 41 55 33 53 139 100 104 83 222 217 26 1249 153 32 35 156 48 1487 36 448
leaf_count=470 1325 720 824 209 76 125 49 997 824 103 163 3225 801 36 32 572 108 60 1824 477 68 62 157 222 425 101 105 57 287 94 60 2710 91 847 109 232 29 26 80 56 24 86 44 39 105 171 4494 143 514 227 22 25 235 29 78 143 48 1533 23 45 103 146 26 338 44 65 672 41 55 33 53 139 100 104 83 222 217 26 1249 153 32 35 156 48 1487 36 448
internal_value=-1.89808e-05 0.000384166 0.000943307 0.00357134 0.000480696 0.00119545 0.00621322 0.00661117 0.000594125 0.002833 -0.00299077 -0.00143552 0.000879843 0.00119285 -0.00073572 -0.00171338 0.00216858 0.00140365 -0.0032427 0.00359566 0.003248 0.00145583 0.000501736 -0.000313695 0.0040926 0.00114092 0.0047293 -0.000993132 0.00382059 0.0031756 6.62983e-05 -4.73754e-05 0.00203519 0.00124011 0.000968789 0.0013842 0.00122019 0.000528457 0.00179502 0.00329574 0.00152806 0.000638726 0.00541476 8.60879e-05 0.00044331 0.00155539 -0.000275771 0.00271732 4.28219e-06 0.00123488 -0.000395816 0.00211662 0.000272657 0.00592183 0.0027486 0.00388856 0.0033836 0.000393935 0.00180721 0.00506395 0.00473221 0.00165609 0.00205354 0.0012949 0.00411489 0.00586528 0.00134896 0.00438073 0.000928276 0.00209541 0.00505516 0.00394725 0.00184324 0.000581833 0.00566718 0.00264922 0.00620391 0.00507171 -0.00351787 0.000305434 0.00213896 0.00352527 -0.00045576 -0.00129056 -0.00125769 -0.00102416 -0.00211892
internal_weight=32977 29037 22213 3324 18889 8028 1786 1677 5873 2155 3940 6824 5049 4092 397 5499 1656 751 3543 1404 1279 1158 1538 942 902 234 680 2274 498 332 109 10861 648 1122 1060 544 377 2436 596 296 215 191 104 9553 4811 1360 4742 182 3451 741 4560 1189 303 123 312 234 133 2360 1099 74 390 1076 930 665 66 90 827 100 727 74 101 265 126 951 139 327 348 243 3073 300 147 115 957 134 2059 1308 484
internal_count=32977 29037 22213 3324 18889 8028 1786 1677 5873 2155 3940 6824 5049 4092 397 5499 1656 751 3543 1404 1279 1158 1538 942 902 234 680 2274 498 332 109 10861 648 1122 1060 544 377 2436 596 296 215 191 104 9553 4811 1360 4742 182 3451 741 4560 1189 303 123 312 234 133 2360 1099 74 390 1076 930 665 66 90 827 100 727 74 101 265 126 951 139 327 348 243 3073 300 147 115 957 134 2059 1308 484
is_linear=0
shrinkage=0.0719


Tree=6
num_leaves=88
num_cat=0
split_feature=0 22 15 0 1 7 20 22 22 22 15 12 0 9 7 18 17 20 20 14 20 0 22 18 18 12 18 18 14 13 18 56 15 12 7 10 7 18 12 12 9 20 4 12 1 18 16 17 22 4 20 20 0 22 8 13 20 18 18 15 20 18 20 7 20 20 12 4 0 0 22 17 49 18 13 15 1 0 17 22 10 1 15 18 18 13 0
split_gain=6.62958 7.3626 2.96604 2.01807 1.19168 1.38439 1.05888 0.927759 0.570655 0.560784 0.535056 0.438012 0.356218 0.344666 0.336485 0.318733 0.272004 0.249314 0.434597 0.276413 0.249142 0.270033 0.249017 0.24581 0.341963 0.361384 0.543544 0.243975 0.24301 0.23869 0.236022 0.231311 0.252466 0.223605 0.208677 0.224426 0.217828 0.193193 0.187691 0.228571 0.186739 0.215127 0.179643 0.210908 0.193026 0.195386 0.17716 0.176447 0.200967 0.17128 0.170805 0.331429 0.289037 0.212371 0.179888 0.178142 0.179237 0.168912 0.168772 0.267538 0.172766 0.183224 0.166489 0.198408 0.175968 0.164908 0.164795 0.172823 0.162265 0.161167 0.192017 0.177573 0.159955 0.166445 0.159289 0.178215 0.205736 0.15821 0.157548 0.211699 0.186231 0.155224 0.153873 0.153144 0.153056 0.151142 0.201328
threshold=9.6486153602600115 4.4349999427795419 -2.0168439149856563 14.342658519744875 9.7500000000000018 125.50000000000001 -0.7849999964237212 1.044999957084656 0.89499998092651378 0.86500000953674328 -2.0757689476013179 14.583409309387209 11.891116619110109 4.6749999523162851 220.50000000000003 28.602620124816898 1.2635000348091128 8.8249998092651385 -0.03499999921768903 10.962528705596926 6.9849998950958261 7.1755788326263437 2.7549999952316289 15.661842823028566 1.0000000180025095e-35 1.6542997360229494 5.9564771652221689 5.4602046012878427 7.6072387695312509 14.242022514343263 2.5383158922195439 1.0000000180025095e-35 -2.1356906890869136 13.771921157836916 91.500000000000014 5.5000000000000009 76.500000000000014 152.76203918457034 7.6267478466033944 10.297586917877199 6.0099999904632577 24.244999885559086 1.6500000357627871 4.1443152427673349 11.949999809265138 28.959664344787601 5.2406229972839364 2.0074999332427983 1.2549999952316286 7.0499999523162851 0.044999999925494201 -0.054999999701976769 5741.2387695312509 4981.3649902343759 25.500000000000004 5.2851386070251474 -2.6550000905990596 20.211473464965824 12.208616733551027 5.9794852733612069 -13.99499988555908 93.881195068359389 -15.52500009536743 108.50000000000001 7.6349999904632577 -5.5350000858306876 12.567204475402834 2.0499999523162846 5572.0471191406259 5720.7248535156259 540.63500976562511 2.0845000743865971 1.0000000180025095e-35 4.5260970592498788 0.10024875774979593 0.32909947633743292 9.9499998092651385 5.1707530021667489 3.0195000171661381 1.5349999666213991 13.500000000000002 9.9499998092651385 0.15042373538017276 0.48552088439464575 2.5383158922195439 7.2106750011444101 6022.4018554687509
decision_type=2 2 2 2 2 2 2 2 2 2 2 2 2 2 2 2 2 2 2 2 2 2 2 2 2 2 2 2 2 2 2 2 2 2 2 2 2 2 2 2 2 2 2 2 2 2 2 2 2 2 2 2 2 2 2 2 2 2 2 2 2 2 2 2 2 2 2 2 2 2 2 2 2 2 2 2 2 2 2 2 2 2 2 2 2 2 2
left_child=7 3 13 9 23 11 -5 20 -8 40 33 17 34 -3 29 -16 -17 18 37 42 74 -22 47 24 -4 -26 49 -15 77 81 -31 32 -14 -10 35 36 -11 58 -19 -40 -2 -42 44 -44 69 -46 57 -12 -49 -27 51 52 -25 -53 -55 65 -57 -24 59 72 -60 -62 -13 -64 -65 -54 67 -21 -68 71 -71 -20 -6 -74 -1 -76 -77 -9 -34 80 -80 -7 -37 -50 -51 86 -58
right_child=1 2 4 6 5 14 8 28 10 12 22 62 31 27 15 16 -18 38 19 66 21 -23 46 50 25 26 -28 -29 -30 30 -32 -33 78 -35 -36 82 -38 -39 39 -41 41 -43 43 -45 45 -47 -48 48 83 84 -52 53 55 54 -56 56 85 -59 60 -61 61 -63 63 64 -66 -67 68 -69 -70 70 -72 -73 73 -75 75 76 -78 -79 79 -81 -82 -83 -84 -85 -86 -87 -88
leaf_value=0.0032816275407211194 -0.0034615612538983378 -0.00031686821683414346 -0.00013290538232539731 0 0.0011009190001611277 -0.00033204755421715787 -0.0014937659492957349 -0.0015017115751979916 -0.00029940079048181966 0.011381853367372241 0.0080027392826180731 -0.002952500399622613 6.2860554778715376e-05 -0.00062235841286159023 0.0057977110289298365 -0.0034217934213823724 0.0045396237830612682 -0.0055835500593688541 0.0016335764304594178 0.010140435180018198 -0.0035630669982408486 -0.0019961285850059068 0.0040301782548571516 -0.0014297098535055704 -4.4243799626446081e-05 0.0025446746901410392 0.00047818736381295603 -0.002017991951661672 -0.0023386225861745259 0.0035650889004369391 0.00050859646184931372 0 0.0050655713271568299 0.0065257894707587052 0.00027698507599116366 0.0031580752977187015 0.0030581071529194397 0.004946263349632907 0.0017505613361407596 -0.0010828682399773963 0.0037301803063926409 -0.0024800064752587493 -0.0027860497674543345 0.0039665737052139603 0.0059934926192054304 -0.00019644423278180996 0.0067107022303407411 0.0021180973709858122 0.0032353243456119799 0.0099773748594632321 -0.00079860735168268721 0.002777683605012442 -0.0023208681202693789 0.00051960407166957577 -0.0065958944433974218 0.00038558131276250992 0.0010858357025462413 -0.0026932520092818489 -0.0020320186331075998 -0.005009437199380194 -0.00049323300967565019 0.0026004117660631317 -0.0011292754717102827 0.004880031180781016 -0.00082651650407070457 3.7488733139733937e-05 0.0074117748020602302 0.0025953899350649899 -0.00021278857558606001 0.0071211272181202576 -0.00010888685763336774 -0.0059511815774600787 0.0083970173141988402 0.0011776334376807534 -0.0030275279311851957 -0.0017376259666784016 0.002398698179018807 0.00056623598117073245 -0.00230176938324737 0.0059533477238604563 0.0048579280932981687 0.0031539872677568046 -0.00023193014644172272 0.0073009048565804468 0.0034282123157298203 0.00042412992657743227 0.0073242938177423781
leaf_weight=31 114 1055 4314 165 522 69 49 273 83 27 626 190 78 796 290 41 48 34 24 52 2441 753 65 815 1424 723 1195 3615 327 173 545 86 473 35 439 161 44 48 225 425 58 57 26 247 61 45 80 59 59 32 2361 329 204 144 21 700 49 27 237 34 376 134 488 60 51 608 23 24 37 22 134 45 34 34 380 263 81 638 57 50 28 1050 119 330 48 78 62
leaf_count=31 114 1055 4314 165 522 69 49 273 83 27 626 190 78 796 290 41 48 34 24 52 2441 753 65 815 1424 723 1195 3615 327 173 545 86 473 35 439 161 44 48 225 425 58 57 26 247 61 45 80 59 59 32 2361 329 204 144 21 700 49 27 237 34 376 134 488 60 51 608 23 24 37 22 134 45 34 34 380 263 81 638 57 50 28 1050 119 330 48 78 62
internal_value=-1.74824e-05 0.00042287 -1.1701e-05 0.00357375 0.000413698 0.00126719 0.0054494 -0.00237724 0.00608586 0.00191968 0.0063601 0.000402228 0.00240744 -0.00148739 0.00268366 0.00464102 0.000842116 0.000818721 0.00119799 0.00261137 -0.00291583 -0.00319449 0.00679905 3.26877e-05 0.000292319 0.000829162 0.00145298 -0.00176674 -0.00065706 0.00227838 0.00124876 0.00350793 0.00394859 0.0017025 0.00132866 0.00263643 0.00626102 0.000459053 -0.000374541 -9.79722e-05 -0.00139576 0.000628958 0.00194518 0.00331372 0.000808412 0.00334061 0.00422153 0.00720936 0.00609481 0.00290032 -0.000340771 1.74662e-05 -0.00031595 0.00172098 -0.000369904 0.000216121 0.000920458 0.00202808 0.000300008 0.00117397 -0.000426491 0.000314393 -0.00109515 -0.00050156 0.00223415 -0.00055173 0.00555043 0.00779283 0.00266567 -0.000372716 0.000893702 -0.00327446 0.00153482 0.00482649 -0.00173347 -0.00195188 -0.00075593 -5.05477e-05 0.00444271 0.00224069 2.54406e-05 0.00293665 0.00170782 0.00669112 0.00608119 0.0028874 0.00459437
internal_weight=32977 27790 24421 3369 18955 5848 1578 5187 1413 1791 1364 3632 1562 5466 2216 379 89 2843 2159 740 3949 3194 1246 13107 7736 3422 1998 4411 1238 1837 718 772 686 118 790 351 71 1419 684 650 229 115 604 273 331 106 172 1074 448 803 5371 3010 2516 494 165 1701 889 92 1371 624 747 510 789 599 111 812 136 76 60 225 156 69 590 68 755 724 344 911 608 135 85 1119 280 389 80 189 111
internal_count=32977 27790 24421 3369 18955 5848 1578 5187 1413 1791 1364 3632 1562 5466 2216 379 89 2843 2159 740 3949 3194 1246 13107 7736 3422 1998 4411 1238 1837 718 772 686 118 790 351 71 1419 684 650 229 115 604 273 331 106 172 1074 448 803 5371 3010 2516 494 165 1701 889 92 1371 624 747 510 789 599 111 812 136 76 60 225 156 69 590 68 755 724 344 911 608 135 85 1119 280 389 80 189 111
is_linear=0
shrinkage=0.0719


Tree=7
num_leaves=88
num_cat=0
split_feature=22 15 22 0 14 3 9 0 1 1 9 7 17 22 2 0 19 3 5 0 19 3 19 13 0 15 49 19 22 15 0 2 13 9 2 3 3 17 7 9 2 14 17 7 10 1 14 22 3 23 22 2 1 16 22 19 49 15 15 3 0 0 9 22 3 0 0 4 9 2 0 7 3 22 9 1 3 22 3 13 22 17 13 3 2 10 9
split_gain=5.36817 4.6803 3.26695 3.92326 0.896744 0.61353 0.592607 0.573183 0.495071 0.462968 0.433375 0.379705 0.365615 0.353003 0.340725 0.317645 0.310867 0.394492 0.299171 0.283259 0.273849 0.350417 0.258402 0.246168 0.243055 0.236905 0.217089 0.215547 0.212381 0.250572 0.211688 0.207831 0.205796 0.211493 0.253568 0.201879 0.200984 0.19627 0.204968 0.20058 0.195574 0.195027 0.196175 0.190946 0.190004 0.239734 0.183033 0.227062 0.180807 0.190477 0.215194 0.307101 0.176877 0.330189 0.175485 0.175301 0.174718 0.200786 0.173231 0.164895 0.288057 0.515241 0.310095 0.28789 0.25933 0.217857 0.194948 0.19177 0.187305 0.182476 0.174647 0.171155 0.161908 0.179776 0.310181 0.176931 0.152089 0.151556 0.17088 0.148892 0.148773 0.147726 0.147186 0.146469 0.18948 0.150097 0.145275
threshold=0.86500000953674328 -1.322539687156677 3.4850000143051152 11.891116619110109 8.4565382003784197 104.7129249572754 5.3849999904632577 15.299817562103273 4.7500000000000009 9.4499998092651385 4.6749999523162851 220.50000000000003 1.3004999756813052 3.9150000810623173 99.750000000000014 13.904901504516603 88.505554199218764 21.112826347351078 3.5000000000000004 7686.9003906250009 199.81801605224612 16.075226783752445 168.71240234375003 11.880625247955324 9.6486153602600115 0.17082043737173083 1.0000000180025095e-35 18.789449691772464 0.61500000953674328 5.9794852733612069 6566.8098144531259 31.550000190734867 11.710397243499758 8.3150000572204608 162.34999847412112 11.805029869079592 126.54680252075197 1.0515000224113467 182.50000000000003 2.8099999427795415 6.8500001430511483 16.705487251281742 0.38850000500679022 72.500000000000014 22.500000000000004 0.15000000223517421 8.9936046600341815 2.7549999952316289 146.80693817138675 1.0000000180025095e-35 490.82499694824224 51.45000076293946 7.6499998569488534 3.8054562807083134 878.32000732421886 113.77207946777345 1.0000000180025095e-35 2.8014705181121831 -5.4771242141723624 106.49237060546876 5783.0234375000009 5725.5285644531259 7.8250000476837167 843.07000732421886 28.710605621337894 5720.7248535156259 5767.3957519531259 1.9499999880790713 9.3899998664855975 309.94999694824224 493.64106750488287 107.50000000000001 22.731675148010257 469.83999633789068 6.0450000762939462 16.150000572204593 12.573526382446291 1.075000047683716 30.460567474365238 8.2563166618347186 1.9450000524520876 3.998499989509583 15.080966949462892 49.884098052978523 245.05000305175784 16.500000000000004 5.5050001144409189
decision_type=2 2 2 2 2 2 2 2 2 2 2 2 2 2 2 2 2 2 10 2 2 2 2 2 2 2 2 2 2 2 2 2 2 2 2 2 2 2 2 2 2 2 2 2 2 2 2 2 2 2 2 2 2 2 2 2 2 2 2 2 2 2 2 2 2 2 2 2 2 2 2 2 2 2 2 2 2 2 2 2 2 2 2 2 2 2 2
left_child=28 9 3 24 25 7 82 20 -8 10 -2 14 -13 15 22 35 17 -16 23 30 21 32 27 -12 77 44 -26 -10 29 -1 58 -29 33 -5 -35 -11 54 39 48 -27 -24 42 -30 -7 -4 -46 47 -9 59 86 51 -51 -40 -54 -21 -20 72 -58 -15 60 61 71 -62 64 -63 67 -66 -61 -67 -70 -69 -39 73 74 -18 -76 -75 78 -3 -53 -45 -22 -6 84 -74 -85 -50
right_child=1 2 4 5 6 43 8 46 11 13 18 12 -14 19 16 -17 56 -19 55 36 81 -23 40 -25 26 37 -28 31 41 -31 -32 -33 -34 34 -36 -37 -38 38 52 -41 -42 -43 -44 80 45 -47 -48 -49 49 50 -52 79 53 -55 -56 -57 57 -59 -60 65 62 63 -64 -65 66 68 -68 70 69 -71 -72 -73 83 76 75 -77 -78 -79 -80 -81 -82 -83 -84 85 -86 -87 -88
leaf_value=-0.0031749677186450852 -0.00022489728039675768 -0.0023256604496180119 0.0005910398036764957 0.0032240856006220493 0.00044493121947921071 -0.0026068042032388744 -0.0017744907109763215 0.0063849806439799589 0.00044508927485995594 -0.0039916185110570497 -0.0011874955561535039 0.0017862240873798283 0.0061186529375688772 -0.0031456274658576513 0.0070435784279390947 0.0060611834352486483 0.011610920239971491 -0.0014318694509024498 -0.001318664505287266 0.0059338848500510594 0.0069834561107404809 0.0050234477001695216 0.0050732762957622132 -0.0025667722871024873 0.00070054172263379541 0.0026938245888779625 0.0037499748627425706 0.0061635721825538609 0.0047792580622417133 0.0017106726334570896 -0.0043457495315186072 0.0031212687146058944 -0.0041493139630794911 -0.0065550401083975529 0.0038525574847110486 0.0029555175870476461 0.0087029829001249517 0.00051740192715279824 0.00019853120560897594 -0.0012779097053249092 -0.0027385890150833834 0.0024219105406456552 -0.0021829391936943913 0.0074417687348231057 -0.0027947861263351139 0.00073553299560645113 0.0079176144771303178 0.0012284254641447756 0.0032074268210667226 -0.0028980812955794826 -0.0021394945822822563 0.001086788286882877 0.0089092133920030837 0.0014926214220450447 -0.00061285747000636626 -0.0035635605993929358 0.0031424581080141505 -0.0034288510531302928 0.00012690252057683167 -0.0017758850076065146 -0.00020485934088403459 0.0089168435889564798 -0.0024438554299765318 -0.0011827055154463289 0.0011940960773867528 0.0011579097948657901 0.006123992050874447 0.0074113276591130199 0.0079259605879130959 0 0.00032865898850743943 -0.0017420876568340735 -0.0016372488726355639 -0.0021173521294903536 0.0072022290249881714 -0.00056947133466328178 0.0048670721031414191 0.00048092724855077168 0.00052246261810353896 0.0064195153719588029 0.00066780704442181028 0.0011927835634388518 -0.0013114626873958581 0.0017728528247077232 0.0050209930100399763 -0.00023857637017253848 -0.0018943605970352497
leaf_weight=2088 1339 288 6127 192 927 57 191 406 116 37 3732 196 212 102 31 94 29 330 261 30 199 299 22 821 454 70 166 154 21 55 84 510 30 28 21 52 24 609 178 993 66 51 1417 25 199 197 433 51 89 83 567 94 43 116 70 611 453 25 457 244 1508 54 407 56 106 790 70 23 43 23 87 242 183 42 25 37 26 600 173 39 54 27 336 756 25 254 42
leaf_count=2088 1339 288 6127 192 927 57 191 406 116 37 3732 196 212 102 31 94 29 330 261 30 199 299 22 821 454 70 166 154 21 55 84 510 30 28 21 52 24 609 178 993 66 51 1417 25 199 197 433 51 89 83 567 94 43 116 70 611 453 25 457 244 1508 54 407 56 106 790 70 23 43 23 87 242 183 42 25 37 26 600 173 39 54 27 336 756 25 254 42
internal_value=1.91412e-05 0.000342819 0.000886953 0.00289646 0.000496709 0.0052078 0.00132165 0.0055827 0.00178254 -0.0011768 -0.00138562 0.00197786 0.00404391 0.000307201 0.00170366 0.00314617 0.0012286 -0.00069668 -0.00167162 -0.000366688 0.00417231 0.00332266 0.00291343 -0.00143679 0.000389659 0.00018502 0.0015213 0.00333076 -0.0025879 -0.00304834 -0.000976527 0.00383087 0.00143632 0.00214268 -0.00204036 3.74836e-05 0.00277416 -0.000119192 5.28331e-05 -0.00101386 -0.00075537 -0.00192345 -0.00207941 0.000540597 0.000492111 -0.00103183 0.00684113 0.00581535 -5.85349e-05 -0.000976536 -0.00140288 0.000518431 0.00177123 0.00351513 0.00132459 -0.00289469 0.00160471 0.0027932 -0.000465476 0.000137709 -0.000143141 0.00076228 -0.000682109 0.0034028 0.00453083 0.0008483 0.00316998 -0.000646715 0.00146967 0.00516103 0.0018338 -0.000122007 0.00119021 0.00335427 0.00544736 0.00252141 0.000514062 -0.000269112 -0.00125107 0.00267055 0.00284518 0.00630343 -2.02221e-05 0.000905525 -0.000824177 0.00126437 0.00155143
internal_weight=32894 29262 21548 3503 18045 1822 4946 1686 3683 7714 6764 3492 408 950 3084 183 2216 361 5425 767 796 570 868 4553 1681 13099 620 780 3632 2143 643 664 271 241 49 89 124 6576 5513 1063 88 1489 1438 136 6523 396 890 457 5176 914 783 216 337 159 100 872 1855 478 559 4262 3052 1137 1915 286 230 1210 176 354 856 66 110 851 1377 159 91 62 68 1061 461 133 79 226 1263 1218 208 1010 131
internal_count=32894 29262 21548 3503 18045 1822 4946 1686 3683 7714 6764 3492 408 950 3084 183 2216 361 5425 767 796 570 868 4553 1681 13099 620 780 3632 2143 643 664 271 241 49 89 124 6576 5513 1063 88 1489 1438 136 6523 396 890 457 5176 914 783 216 337 159 100 872 1855 478 559 4262 3052 1137 1915 286 230 1210 176 354 856 66 110 851 1377 159 91 62 68 1061 461 133 79 226 1263 1218 208 1010 131
is_linear=0
shrinkage=0.0719


Tree=8
num_leaves=88
num_cat=0
split_feature=22 1 22 13 0 8 1 16 20 21 0 0 18 3 2 2 21 3 8 2 18 13 1 2 0 0 0 0 20 9 8 14 21 16 0 16 22 0 0 3 18 20 3 22 2 12 3 17 19 3 19 9 3 0 0 20 21 12 12 0 2 8 19 3 0 0 2 3 19 10 9 12 0 18 22 13 2 20 16 1 12 17 20 19 18 12 9
split_gain=4.624 3.3156 2.87685 1.37064 1.19843 0.794402 0.653973 0.553861 0.528376 0.822715 0.503348 1.04339 0.433013 0.38949 0.350374 0.323573 0.313753 0.309944 0.308542 0.305996 0.288849 0.288193 0.282099 0.33094 0.327096 0.491984 0.272265 0.269933 0.268018 0.262715 0.261744 0.281543 0.240711 0.225436 0.220562 0.272095 0.21783 0.217678 0.307099 0.24259 0.230469 0.238065 0.21588 0.208075 0.207885 0.207056 0.278519 0.430641 0.22948 0.223476 0.218763 0.203207 0.199509 0.196704 0.195948 0.195358 0.437441 0.389029 0.191793 0.190921 0.185756 0.250921 0.240621 0.202533 0.179767 0.40038 0.202403 0.180655 0.179994 0.179557 0.249291 0.243472 0.177325 0.201329 0.177091 0.175005 0.172819 0.171707 0.212724 0.172184 0.180804 0.190817 0.170182 0.168923 0.33165 0.406107 0.166276
threshold=0.86500000953674328 9.2500000000000018 2.7549999952316289 10.022244930267336 13.904901504516603 31.500000000000004 6.6499998569488534 9.5255422592163104 11.295000076293947 -0.39149999618530268 33.479749679565437 11.266421318054201 9.3222064971923846 83.702663421630874 276.05000305175787 339.05000305175787 -0.078500002622604356 100.66774749755861 12.500000000000002 169.15000152587893 17.733350753784183 4.5310721397399911 11.250000000000002 8.2500000000000018 6961.7392578125009 6714.2106933593759 9812.1523437500018 10067.756347656252 6.9849998950958261 5.1749999523162851 15.500000000000002 9.2385840415954608 -1.3404999971389768 0.97816440463066112 10.45655679702759 8.5481295585632342 0.7150000035762788 5779.4787597656259 5721.9492187500009 58.424039840698249 92.471801757812514 2.3449999094009404 8.8036127090454119 1.1050000190734866 317.05000305175787 12.675304889678957 87.645030975341811 1.3655000329017641 264.50437927246099 51.317535400390632 321.37229919433599 4.9449999332427987 29.216562271118168 5725.5285644531259 7047.2343750000009 -3.6350001096725459 1.0000000180025095e-35 4.4402701854705819 11.148316860198976 9440.2998046875018 126.75000000000001 27.500000000000004 190.51258850097659 59.928428649902351 5723.6938476562509 5779.4787597656259 318.55000305175787 130.98928070068362 18.789449691772464 22.500000000000004 7.8250000476837167 0.12524510174989703 9.3968434333801287 19.047762870788578 234.09000396728518 2.8151844739913945 241.34999847412112 18.664999961853031 7.125190496444703 10.949999809265138 10.716441154479982 2.5464999675750737 -0.51499998569488514 14.683333396911623 1.9199849963188174 13.771921157836916 5.555000066757203
decision_type=2 2 2 2 2 2 2 2 2 2 2 2 2 2 2 2 2 2 2 2 2 2 2 2 2 2 2 2 2 2 2 2 2 2 2 2 2 2 2 2 2 2 2 2 2 2 2 2 2 2 2 2 2 2 2 2 2 2 2 2 2 2 2 2 2 2 2 2 2 2 2 2 2 2 2 2 2 2 2 2 2 2 2 2 2 2 2
left_child=28 3 4 6 34 8 12 -7 9 14 11 42 26 43 17 22 -13 19 -14 -4 29 53 58 -24 25 -25 59 -28 -1 -19 37 -32 51 -23 -3 44 -30 38 -11 -40 -39 -42 -8 -6 77 -33 47 -47 76 -49 -50 -16 -38 -12 -53 -35 64 -58 -9 69 61 -10 -62 -64 66 -66 -57 -67 -69 70 -2 -71 -44 -74 -51 -29 -48 79 -79 80 81 -36 -61 -31 85 -85 -20
right_child=1 2 5 -5 13 7 10 15 60 30 21 16 18 -15 32 -17 -18 20 86 -21 -22 33 23 24 -26 -27 27 75 36 83 31 45 -34 55 35 -37 52 40 39 -41 41 -43 72 -45 -46 46 48 49 50 74 -52 54 -54 -55 -56 56 57 -59 -60 82 62 -63 63 -65 65 67 -68 68 -70 71 -72 -73 73 -75 -76 -77 -78 78 -80 -81 -82 -83 -84 84 -86 -87 -88
leaf_value=-0.0010606669345207291 0.00059498132469067014 -0.00018242921203185107 0.00096333741403354137 -0.0017711097973645308 0.0027625157041768393 0.0050133765081916554 -0.0024907608025964982 0.0032240091781152065 0.00019843789196059041 0.0013005640303012957 -0.0023388423104946997 -0.001997586418666293 -0.00010355893454210521 0.0010418630718559729 -0.0027338670340137702 -0.0036236959282424435 0.004637570643395812 -0.0010868816539169523 -0.00023754186356390511 0.0064094745188513552 -0.001270549982636983 -0.0019080090087130984 -0.0045930834855842893 0.0038878446690128344 0.0068804030660134389 -0.0033521915212090278 0.0075470817845633758 -0.00023155884897435372 -0.0030299390082567414 -0.0010269431944575707 0.0011001143496080328 0.0049398203974522457 -0.0021490639002108443 5.7964084100713992e-05 0.0034903997665974248 0.005801767315773837 -0.0024782818130959644 -9.7930604350091068e-05 0.0094037258042239183 0.0030549693075792575 0.0050263425336647847 -0.0023726142477345875 -0.00042934138214701788 0.0065588167217662235 0.0069160011956218275 -0.0041147282395998025 0.0035990923892930617 0.0074150283475903 0.0088999973717661645 0.006401260503069519 0.00042346949218965849 0.00038529108820669098 3.6230341695099655e-05 -0.00011887821036541047 0.0064711201814091823 0.00171903830459381 0.007391415674915483 0.00019434281745168378 -0.003161997294316328 0.002316913214555954 -0.002250810405157848 0.0074746782365165713 0.00064365635454066803 -0.002889647610191926 0.0082626050876793943 0.0017985093253232388 -0.0043454559356378352 0 0.0075053664817901315 -0.0033771775407376312 -0.00052570194380573241 0.00074490080698506834 0.0049194322455579694 -4.5405825629912084e-05 -0.00029609505809760769 0.0024018916101134495 -0.0037593927624403902 -0.0032858758010493256 0.0035660787261302704 0.0047568563455149442 -0.0044354873236521703 -0.00183328825990144 -0.0043221378928794329 0.010100615281871854 0.0015281894166863999 -0.00054413853156832863 -0.0013916993172712901
leaf_weight=641 2900 190 139 2499 85 361 149 35 275 572 291 39 2689 84 102 59 532 207 849 88 440 175 28 197 105 64 38 229 2287 82 416 293 535 1374 116 113 452 740 45 108 94 29 280 810 38 67 73 40 72 26 21 327 252 719 30 200 40 1372 78 25 524 27 416 105 72 381 33 23 62 173 1586 128 87 80 92 298 21 74 34 95 27 49 91 56 348 27 2769
leaf_count=641 2900 190 139 2499 85 361 149 35 275 572 291 39 2689 84 102 59 532 207 849 88 440 175 28 197 105 64 38 229 2287 82 416 293 535 1374 116 113 452 740 45 108 94 29 280 810 38 67 73 40 72 26 21 327 252 719 30 200 40 1372 78 25 524 27 416 105 72 381 33 23 62 173 1586 128 87 80 92 298 21 74 34 95 27 49 91 56 348 27 2769
internal_value=1.78694e-05 0.000318281 0.00145944 -0.000194918 0.00411195 0.00084133 2.767e-05 0.0028099 0.00055742 0.000892759 0.00064503 0.00198314 -0.000281911 0.00576128 -8.12071e-05 0.0013998 0.00417972 0.000655951 -0.000687978 0.00308635 0.000178052 0.000315162 0.00198964 0.00289985 0.00348036 0.00210231 0.000185976 0.00168059 -0.00240173 0.001067 0.00174978 0.00259286 -0.00111249 0.000607153 0.00191446 0.00264902 -0.00268824 0.00115296 0.00207221 0.00493967 0.000377616 0.00326024 -0.000116845 0.00620125 0.0018201 0.00346991 0.0024181 0.000699785 0.00447135 0.00275823 0.00701456 8.99171e-05 -0.00157442 -0.000761127 0.000904168 0.000731644 0.00115445 0.000400113 -0.00116048 1.32007e-05 -0.00070777 0.000857786 -0.00116275 -6.33264e-05 0.00253247 0.00325674 0.000848691 0.00247759 0.00549011 8.35839e-05 0.000198177 -0.00161543 0.000668511 0.00252515 0.00115708 0.00125252 0.00192686 0.00132312 -0.00110414 0.00224578 0.000989448 0.0018933 -0.00286837 0.0019413 0.0025122 0.00660583 -0.0011216
internal_weight=32894 29262 9079 20183 1715 7364 17684 927 6437 5090 5909 1167 11775 979 2381 566 571 1387 6307 227 1160 4742 507 394 366 261 5468 565 3632 720 2709 1121 994 3732 736 546 2991 1588 725 153 863 123 596 895 433 705 412 225 187 158 93 459 704 1010 357 3557 2183 1412 113 4903 1347 302 1045 521 771 538 233 466 85 4787 4486 301 447 167 118 527 94 395 108 287 192 165 116 513 431 83 3618
internal_count=32894 29262 9079 20183 1715 7364 17684 927 6437 5090 5909 1167 11775 979 2381 566 571 1387 6307 227 1160 4742 507 394 366 261 5468 565 3632 720 2709 1121 994 3732 736 546 2991 1588 725 153 863 123 596 895 433 705 412 225 187 158 93 459 704 1010 357 3557 2183 1412 113 4903 1347 302 1045 521 771 538 233 466 85 4787 4486 301 447 167 118 527 94 395 108 287 192 165 116 513 431 83 3618
is_linear=0
shrinkage=0.0719


Tree=9
num_leaves=88
num_cat=0
split_feature=0 22 0 17 21 8 22 22 12 13 20 21 21 12 16 46 0 19 19 3 19 2 19 13 12 19 16 8 8 20 3 19 9 20 3 20 21 3 19 2 8 19 20 22 3 8 14 13 17 21 22 20 3 13 16 0 16 21 13 3 0 0 0 20 5 5 0 20 13 21 20 20 22 2 2 16 14 8 14 20 9 21 12 21 0 2 21
split_gain=4.00332 3.78004 2.67088 1.03159 0.838111 0.659875 0.592493 0.562126 0.555746 0.48793 0.472096 0.462148 0.547714 0.561396 0.444262 0.350651 0.342185 0.366679 0.386948 0.341295 0.332507 0.3409 0.330579 0.32371 0.291508 0.262769 0.255809 0.242309 0.241164 0.240928 0.238488 0.229099 0.225223 0.22186 0.251243 0.214463 0.367916 0.30107 0.25207 0.297814 0.242591 0.212799 0.210737 0.202627 0.275061 0.196301 0.187388 0.212515 0.186133 0.272361 0.185124 0.184647 0.183791 0.182333 0.222911 0.179223 0.203152 0.176497 0.175211 0.172836 0.308247 0.183216 0.172801 0.171448 0.166632 0.163611 0.163149 0.168006 0.221373 0.161358 0.299776 0.170608 0.158512 0.218038 0.256678 0.199536 0.174053 0.162948 0.157173 0.278444 0.154324 0.161697 0.151729 0.203736 0.151468 0.149364 0.171305
threshold=8.4501309394836444 4.4349999427795419 11.891116619110109 1.0724999904632571 -0.078500002622604356 28.500000000000004 1462.3549804687502 0.83499997854232799 6.5164730548858651 6.5490245819091806 11.434999942779543 -0.026500000618398186 0.061499999836087234 3.406003594398499 3.519330739974976 1.0000000180025095e-35 15.299817562103273 199.81801605224612 112.79117965698244 69.03088760375978 49.903263092041023 84.049999237060561 178.44841003417972 3.3324979543685918 9.7574734687805194 340.49441528320318 12.538285732269289 8.5000000000000018 14.500000000000002 9.5850000381469744 57.675914764404304 42.423587799072273 3.5749999284744267 -4.1749999523162833 8.8036127090454119 14.984999656677248 -0.21649999916553495 47.141952514648445 226.32380676269534 317.05000305175787 38.500000000000007 258.73251342773443 7.6349999904632577 843.07000732421886 50.583015441894538 16.500000000000004 5.9409148693084726 3.953280091285706 1.2145000100135805 1.2894999980926516 2.7549999952316289 -3.445000052452087 111.01207733154298 7.2498300075531015 2.2806313037872319 10.45655679702759 6.9258913993835458 0.41550000011920935 1.6983886957168581 111.8927574157715 5723.6938476562509 5794.7294921875009 5.3658461570739755 2.9250000715255742 8.5000000000000018 6.5000000000000009 19.056216239929203 1.3049999475479128 0.10024875774979593 0.092500001192092909 -1.0000000180025095e-35 -6.9249999523162833 1134.2099609375002 327.94999694824224 268.15000915527349 0.41393437981605535 10.962528705596926 5.5000000000000009 9.8343429565429705 11.885000228881838 5.7850000858306894 1.3274999856948855 6.2253205776214608 3.8545000553131108 6.9709887504577646 126.75000000000001 1.6895000338554385
decision_type=2 2 2 2 2 2 2 2 2 2 2 2 2 2 2 2 2 2 2 2 2 2 2 2 2 2 2 2 2 2 2 2 2 2 2 2 2 2 2 2 2 2 2 2 2 2 2 2 2 2 2 2 2 2 2 2 2 2 2 2 2 2 2 2 10 10 2 2 2 2 2 2 2 2 2 2 2 2 2 2 2 2 2 2 2 2 2
left_child=8 2 24 9 46 10 20 -6 29 66 11 23 13 15 58 51 17 18 31 50 26 22 -22 -5 33 32 -7 -25 -26 62 80 48 -11 -2 -35 36 40 -37 -38 -40 -23 43 -21 44 -16 59 47 -4 -9 -50 -18 -13 -17 -36 -55 56 -30 -12 -14 -46 -61 -62 -1 -53 -34 78 67 68 -3 70 71 -8 73 74 75 -15 -76 -77 79 -52 -20 -82 -59 85 -10 -84 -87
right_child=1 3 4 5 7 6 69 16 84 25 57 12 14 72 41 52 19 -19 30 42 21 35 -24 27 28 -27 -28 -29 55 -31 -32 -33 64 34 53 37 38 -39 39 -41 -42 -43 -44 -45 45 -47 -48 -49 49 -51 65 63 -54 54 -56 -57 -58 82 -60 60 61 -63 -64 -65 -66 -67 -68 -69 -70 -71 -72 -73 -74 -75 76 77 -78 -79 -80 -81 81 -83 83 -85 -86 86 -88
leaf_value=-0.0010056973790000508 -0.0054953597674055202 0.0066358301698976252 -0.0036993312197342752 -0.0020016952995251169 -0.0010512823507159257 0.0013401317015378585 0.0015722546409527843 0.0077856895811165326 -0.002769951310291579 0.00088657429970670802 0.0028650479071038121 -0.0046147896982421336 -0.0035000544995464323 -0.0032977351714211559 0.0035786057333270795 0.0088621857649541658 0.006216037591956069 0.005757224326031425 0.0026905805103343886 -0.00039788770400994234 0.0069217791383555903 0.00039163153893052025 -0.00053263905619347859 -0.0011509220151583344 -0.0029717821377926151 0.0048040195776425697 -0.0050232661736669751 0.00023911643276104837 0.0014552003520170941 -0.0029143112550476212 0.0062371693878219741 0.0058024112673064239 -0.0012178325287126111 -0.00099957514712926553 0.00070734721023306792 0.0024907476769515189 0.0027550464931011005 -0.0031598990984702501 0.0080596347186742932 0.00024686642217855095 0.0050068223478947982 -0.0010507026450333457 0.0056824620341687183 -4.4033112492396552e-05 -0.00037067575996406417 0.0027137794068137675 -0.0030191559695126359 0.0039137365607353628 0.0046762958438763312 -0.0017127852325383745 0.0056837606317208141 0.00013813909746649368 0.00024986351209924351 -0.0023618842116814942 0.0037651279102151186 0.0017709668820982557 -0.0027302537140689795 -0.0056940284567743374 -0.00056726421745211789 -0.0016546294590535455 0.011690370119672352 0.0025341460513302826 0.00080826718953096904 -0.0040350149208522824 -0.002659566425897045 -0.0020158647621251547 -0.00021802286058593336 0.0070991369188817596 -0.00059633344905628662 -0.0020967211651154727 0.0053779472384120905 -0.0027566080292084701 0.0035485236910229017 -0.00061414086213071014 0.0031566084222653615 -0.001310474305136883 0.0077867641507467968 0.0020114068637551901 0.0082280196048590704 -0.0023472064050367365 0.0023268440795848459 -0.0022288264119437887 0.00033036859593708537 0.0052189729979564481 -0.0015453126528634762 -0.0019718919077173647 -0.00018232031655325578
leaf_weight=780 27 28 27 434 97 97 89 26 2436 234 61 52 115 41 308 33 869 274 84 80 165 313 37 756 226 37 49 4545 92 231 37 209 3193 220 372 120 206 82 133 32 73 247 46 454 425 240 94 62 62 77 63 672 22 34 275 167 169 36 1323 37 23 24 415 55 481 23 4928 29 98 202 54 99 342 167 303 81 50 1107 41 34 55 147 316 27 679 881 408
leaf_count=780 27 28 27 434 97 97 89 26 2436 234 61 52 115 41 308 33 869 274 84 80 165 313 37 756 226 37 49 4545 92 231 37 209 3193 220 372 120 206 82 133 32 73 247 46 454 425 240 94 62 62 77 63 672 22 34 275 167 169 36 1323 37 23 24 415 55 481 23 4928 29 98 202 54 99 342 167 303 81 50 1107 41 34 55 147 316 27 679 881 408
internal_value=1.66225e-05 0.000334139 0.00238587 -1.67111e-06 0.0038942 0.00035718 0.00167106 0.00427924 -0.0019653 -0.000611552 0.000187636 0.00034966 0.000784231 0.00149526 0.000132657 -7.88912e-05 0.00452359 0.00352053 0.00263744 0.00536381 0.00244232 0.0028495 0.0055432 -0.000113697 8.92713e-05 -0.00121164 -0.000777321 4.03747e-05 -0.00107148 -0.000786971 0.000804299 0.00421349 -0.00126928 0.000910166 0.00110507 0.00227933 0.00283501 0.000183748 0.0044547 0.00656056 0.00127135 0.000900053 0.00180083 0.0012207 0.00176644 0.0010177 -0.000770668 0.00157425 0.00218472 0.00111789 0.00579709 -0.000473775 0.00546567 0.0017889 0.00308235 -6.18271e-05 -0.00124473 -0.000921845 -0.000803657 0.000212744 0.00319622 0.00707155 -0.000373517 -0.000173918 -0.00140731 0.00351925 -0.00014529 0.00214996 0.000989726 -0.000593333 0.00065057 -0.000693157 0.00212439 0.00184439 0.0021056 0.00161102 0.00381999 0.00178268 0.00446105 0.00284136 9.21309e-05 -0.000975248 -0.00106193 -0.00095812 -0.00250386 -0.00106369 -0.00140751
internal_weight=32894 28353 3989 24364 2407 15336 1751 2224 4541 9028 13585 11856 6121 2925 3196 834 2127 971 697 1156 1307 1161 202 5735 1582 3945 146 5301 654 1426 323 374 3908 928 901 959 757 202 371 165 386 1758 126 1511 1057 749 183 89 165 139 1030 779 55 681 309 428 261 1729 1438 509 84 47 1195 727 3674 161 5083 155 126 444 242 188 2091 1749 1582 1229 353 1188 138 97 286 202 1668 1632 3115 1605 1289
internal_count=32894 28353 3989 24364 2407 15336 1751 2224 4541 9028 13585 11856 6121 2925 3196 834 2127 971 697 1156 1307 1161 202 5735 1582 3945 146 5301 654 1426 323 374 3908 928 901 959 757 202 371 165 386 1758 126 1511 1057 749 183 89 165 139 1030 779 55 681 309 428 261 1729 1438 509 84 47 1195 727 3674 161 5083 155 126 444 242 188 2091 1749 1582 1229 353 1188 138 97 286 202 1668 1632 3115 1605 1289
is_linear=0
shrinkage=0.0719


Tree=10
num_leaves=88
num_cat=0
split_feature=22 22 17 22 17 16 3 8 18 22 12 20 21 16 9 20 20 22 13 21 16 18 19 21 3 22 13 18 21 9 21 12 9 46 16 3 9 19 14 8 9 21 8 19 19 16 21 63 48 19 3 12 3 17 16 18 18 19 18 12 9 63 20 19 3 21 12 20 5 12 8 9 19 22 22 14 10 3 19 22 10 9 19 22 18 21 14
split_gain=3.44432 2.18496 1.44782 1.22004 0.866514 0.74671 0.637516 0.569227 0.513829 0.510527 0.422238 0.406115 0.412279 0.398655 0.38398 0.359327 0.289182 0.24072 0.229038 0.226631 0.222743 0.244614 0.220416 0.238184 0.329943 0.218703 0.215427 0.213353 0.209791 0.266805 0.238662 0.339063 0.312113 0.305006 0.276134 0.239198 0.229093 0.205597 0.209192 0.188159 0.183874 0.182698 0.212336 0.182662 0.178662 0.178482 0.177761 0.173314 0.170809 0.168363 0.266514 0.165779 0.205488 0.163373 0.18773 0.163233 0.205738 0.390965 0.4718 0.189205 0.17606 0.166159 0.173707 0.231491 0.163234 0.163111 0.169846 0.206369 0.16252 0.193784 0.179968 0.162076 0.161159 0.182349 0.158996 0.156888 0.156698 0.155963 0.155633 0.167076 0.155333 0.222412 0.153685 0.152699 0.219146 0.152093 0.151334
threshold=0.86500000953674328 4.4349999427795419 1.028500020503998 1.2549999952316286 1.0724999904632571 8.3061847686767596 69.817436218261733 28.500000000000004 7.5984139442443857 1462.3549804687502 8.9959492683410662 11.434999942779543 -0.49650000035762781 4.9624509811401376 4.6349999904632577 21.884999275207523 -39.555000305175774 1.2150000333786013 13.233996391296388 0.092500001192092909 2.9383113384246831 148.53274536132815 49.903263092041023 0.67350000143051159 47.141952514648445 1.735000014305115 3.3324979543685918 19.047762870788578 0.061499999836087234 6.3350000381469735 -0.026500000618398186 3.406003594398499 2.2749999761581425 1.0000000180025095e-35 4.4832890033721933 158.29822540283206 12.230000019073488 294.97096252441412 5.5655183792114267 4.5000000000000009 4.6349999904632577 -0.21649999916553495 34.500000000000007 213.80271911621097 80.746429443359389 12.538285732269289 1.2894999980926516 1.0000000180025095e-35 1.0000000180025095e-35 218.9671325683594 13.839187622070314 9.036753177642824 95.764816284179702 0.71849998831748974 9.9754858016967791 152.76203918457034 16.298170089721683 9.0294117927551287 1.6876910328865053 19.263397216796879 10.039999961853029 1.0000000180025095e-35 -6.1749999523162833 69.168697357177749 142.48329162597659 1.219500005245209 6.6517322063446054 8.9849996566772479 -126.49999999999999 11.557321548461916 12.500000000000002 9.555000305175783 83.033985137939467 1045.539978027344 0.61500000953674328 12.247332096099855 8.5000000000000018 96.534938812255874 94.049453735351577 1060.9899902343752 22.500000000000004 7.8150000572204599 231.5100021362305 5867.9448242187509 134.53620910644534 0.41550000011920935 16.705487251281742
decision_type=2 2 2 2 2 2 2 2 2 2 2 2 2 2 2 2 2 2 2 2 2 2 2 2 2 2 2 2 2 2 2 2 2 2 2 2 2 2 2 2 2 2 2 2 2 2 2 2 2 2 2 2 2 2 2 2 2 2 2 2 2 2 2 2 2 2 2 2 8 2 2 2 2 2 2 2 2 2 2 2 2 2 2 2 2 2 2
left_child=19 2 15 5 8 20 10 11 80 16 25 12 26 28 83 17 -9 -2 -16 -1 -4 -22 45 41 48 -5 -6 -11 30 -30 35 33 -33 72 39 47 51 53 -39 -34 -36 42 44 78 -24 -18 -8 -14 -25 50 -7 65 -53 -19 -55 56 57 60 -59 61 -28 62 63 64 -60 -31 67 -67 69 70 -15 -41 73 -32 -21 -65 -40 -35 -43 -80 81 82 -3 -10 -85 -13 -76
right_child=1 4 3 6 7 49 46 9 14 27 -12 85 13 68 18 -17 22 37 -20 74 21 -23 23 24 -26 -27 55 -29 29 36 31 32 34 77 40 -37 -38 38 76 71 -42 43 -44 -45 -46 -47 -48 -49 -50 -51 -52 52 -54 54 -56 -57 -58 58 59 -61 -62 -63 -64 75 -66 66 -68 -69 -70 -71 -72 -73 -74 -75 86 -77 -78 -79 79 -81 -82 -83 -84 84 -86 -87 -88
leaf_value=-0.00058105635606179077 -0.0027549151004322924 0.00032804351139859039 -0.0014419175754509909 0.0019144402942733738 -0.0020781733338114728 -0.00083749006730804518 0.00019168149638364886 -0.0034374132212851259 0.00086243275324343345 0.0013499805210420174 0.0050983419448655106 0.0026590530620408848 -0.00089231318171269561 0.0081125932474444412 -0.0010659290338913318 0.0063316814536392213 0.0012437768702794267 -0.0015722006400750175 -0.0025630560393358954 -0.002717404658808847 0.00045817709486403448 0.0075500188547029798 0.0048934263045868334 0.0039510454354440864 -0.0014431184671173417 0.0040464852470271937 -0.0010330955681435421 -0.0018559248335545866 -0.00092449832914749653 -0.00020992606762028411 -0.0012575322041591041 0.0058580424290433841 -0.0038912079940145584 0.0088525518652016189 -0.005092615415090266 0.0050797830773066446 -0.0045716393176328919 -0.0028259947102193192 0.0090256068793620019 0.0021976828925148154 0.00029738359273919656 0.0079435548882372479 0.0049295559418725257 0.0068365588944170044 0.00083741844473983202 -0.0048045746912584149 0.007023950021568145 0.0034315019399993318 -0.0019607895429952314 0.0074414305307762751 0.0055768912513944275 0.0015598151172358601 0.0081176596350416887 2.2678147090402675e-05 0.0060377242167767228 0.0020255340846808459 -0.00083420811202820954 0.0043891317147919965 0.0048969419058121563 -0.0027570888079903621 0.0020263792741450032 -0.0052258076272887104 0.0040916476247582542 0.00039460419752386549 0.0010910530059036079 0.0025647265523133984 0.0051492993559185962 -0.002417924028286837 0.0013069182520973666 -0.0002994124124774581 0.0015585541238742943 -0.00074015874030334129 -0.0014161958084414629 0.0022952972029627403 -0.0018137101624425866 -0.0026728542770020859 0.0016689186823038379 0.00072564319149504507 0.0035774738584351214 -0.0024873347260239509 -0.0015055638165442015 -0.00067087783571577865 0.0016961829659912723 -0.0010966357750206135 0.0045434074463271221 -0.00098557800811063453 0.0026527948660324797
leaf_weight=464 263 1618 366 530 303 53 333 44 695 180 876 61 749 59 3943 37 97 409 614 1869 834 26 71 171 142 481 1017 264 1236 524 131 89 29 28 49 40 41 22 30 1104 96 29 148 138 281 34 21 51 29 74 88 96 34 262 30 180 1545 192 91 84 107 23 83 501 169 129 66 64 2046 39 36 105 425 172 1259 104 32 23 92 31 266 864 579 538 38 1668 40
leaf_count=464 263 1618 366 530 303 53 333 44 695 180 876 61 749 59 3943 37 97 409 614 1869 834 26 71 171 142 481 1017 264 1236 524 131 89 29 28 49 40 41 22 30 1104 96 29 148 138 281 34 21 51 29 74 88 96 34 262 30 180 1545 192 91 84 107 23 83 501 169 129 66 64 2046 39 36 105 425 172 1259 104 32 23 92 31 266 864 579 538 38 1668 40
internal_value=1.54449e-05 0.00027473 0.00168309 0.00236344 5.38398e-07 0.000728935 0.00341327 0.000331012 -0.000552909 0.00155134 0.00393878 0.000173571 0.000323811 0.000649411 -0.000959956 -0.000623257 0.00226731 -0.000871346 -0.00126823 -0.00207281 4.13397e-05 0.00067568 0.00246815 0.00279151 0.00119451 0.00293143 -0.000227823 -0.000550242 0.000311097 -0.000226371 0.000692758 0.00107898 0.00172106 -0.000130861 0.0014529 -0.00033907 0.000675332 -0.000236899 0.0031191 0.00180158 -0.00150573 0.0034795 0.0026353 0.00492585 0.0016631 -0.000305733 0.000604512 -0.000613342 0.00308052 0.00463744 0.00314695 0.000913874 0.00329544 -0.000642843 0.000649785 -9.02943e-05 -0.000188229 0.000231585 0.001109 0.000509523 -0.000739479 0.000794855 0.000943736 0.000638603 0.00243335 0.000515067 0.00199212 0.000898662 0.00146775 0.00390356 0.00565699 0.00194033 -0.000510754 0.000750476 -0.00229046 -0.0001283 0.00527157 0.00523969 0.0031736 0.00202731 0.000159328 0.000304876 0.000689816 0.000143236 -0.000719926 -0.000855454 -0.00167412
internal_weight=32894 29262 4767 3682 24495 1441 2241 15340 9155 1751 1887 13589 11860 7461 5828 1085 1307 1048 4557 3632 1226 860 1263 1132 342 1011 4399 444 5281 2190 3091 2251 1472 779 1383 840 954 785 84 1238 145 790 500 290 352 131 354 800 200 215 141 913 130 701 292 4096 3916 2371 1247 1055 1124 971 948 865 260 783 259 193 2180 134 95 1209 728 303 3168 605 62 51 152 123 3327 3061 2197 1271 576 1729 1299
internal_count=32894 29262 4767 3682 24495 1441 2241 15340 9155 1751 1887 13589 11860 7461 5828 1085 1307 1048 4557 3632 1226 860 1263 1132 342 1011 4399 444 5281 2190 3091 2251 1472 779 1383 840 954 785 84 1238 145 790 500 290 352 131 354 800 200 215 141 913 130 701 292 4096 3916 2371 1247 1055 1124 971 948 865 260 783 259 193 2180 134 95 1209 728 303 3168 605 62 51 152 123 3327 3061 2197 1271 576 1729 1299
is_linear=0
shrinkage=0.0719


Tree=11
num_leaves=88
num_cat=0
split_feature=0 22 15 0 14 20 12 9 22 12 15 0 19 19 7 9 14 12 20 20 20 15 22 0 20 7 3 12 20 20 3 17 8 1 7 4 20 14 12 15 3 9 0 20 3 8 4 4 16 10 19 0 0 3 11 1 16 13 15 7 13 12 20 9 20 13 4 20 20 0 8 15 19 20 14 16 19 7 12 20 8 22 0 8 20 17 22
split_gain=3.02342 3.22428 2.08464 1.67886 0.630271 0.601814 0.488332 0.442968 0.413592 0.391059 0.310596 0.293381 0.320398 0.364141 0.2831 0.272581 0.263071 0.248516 0.241119 0.246186 0.240834 0.240667 0.229032 0.225525 0.222593 0.220828 0.279415 0.211208 0.317444 0.272007 0.236021 0.2046 0.201651 0.199733 0.197904 0.197039 0.203979 0.219163 0.195979 0.191854 0.181749 0.219843 0.181456 0.180205 0.25793 0.178029 0.191927 0.176487 0.200116 0.17598 0.173864 0.185041 0.33641 0.177003 0.169796 0.168783 0.188825 0.167101 0.170163 0.165226 0.169961 0.196069 0.165048 0.163066 0.162185 0.161741 0.159827 0.162806 0.264213 0.262109 0.204758 0.175818 0.229054 0.170136 0.169362 0.165092 0.204068 0.163579 0.156673 0.153881 0.180607 0.153512 0.153114 0.149015 0.201911 0.170704 0.158741
threshold=8.9283328056335467 4.4349999427795419 -1.322539687156677 11.891116619110109 8.4565382003784197 -0.7849999964237212 6.5164730548858651 5.3849999904632577 0.89499998092651378 5.2552778720855722 -0.52419510483741749 15.299817562103273 199.81801605224612 112.79117965698244 250.50000000000003 3.5749999284744267 5.9409148693084726 9.718809127807619 -19.714999198913571 17.404999732971195 9.5850000381469744 -3.3951516151428218 2.7549999952316289 4410.0012207031259 8.4049997329711932 79.500000000000014 54.035930633544929 5.2552778720855722 -13.99499988555908 -4.0050001144409171 15.189423084259035 2.6395000219345097 14.500000000000002 13.650000095367433 101.50000000000001 0.25000000745058065 7.3350000381469735 6.3174409866333017 6.6029515266418466 -3.5769935846328731 7.1521422863006601 8.4650001525878924 5.3658461570739755 17.775000572204593 11.362039089202883 8.5000000000000018 4.6499998569488534 0.84999999403953563 6.3025164604187021 16.500000000000004 14.683333396911623 6961.7392578125009 6935.1159667968759 50.583015441894538 4.5000000000000009 9.2500000000000018 5.3251795768737802 11.172717094421388 -0.11867732554674147 220.50000000000003 12.484690189361574 7.9153883457183847 2.9250000715255742 4.7850000858306894 14.984999656677248 4.7224748134613046 9.6500000953674334 -4.0050001144409171 11.295000076293947 6714.2106933593759 28.500000000000004 0.073431372642517104 86.440971374511733 12.045000076293947 12.806013107299806 12.244678020477297 151.01110839843753 186.50000000000003 8.3355040550231951 -1.0000000180025095e-35 22.500000000000004 1.3350000381469729 6104.4460449218759 27.500000000000004 17.404999732971195 0.73450002074241649 1433.1550292968752
decision_type=2 2 2 2 2 2 2 2 2 2 2 2 2 2 2 2 2 2 2 2 2 2 2 2 2 2 2 2 2 2 2 2 2 2 2 2 2 2 2 2 2 2 2 2 2 2 2 2 2 2 2 2 2 2 2 2 2 2 2 2 2 2 2 2 2 2 2 2 2 2 2 2 2 2 2 2 2 2 2 2 2 2 2 2 2 2 2
left_child=6 3 15 17 24 16 20 18 34 -9 64 12 13 35 50 -3 63 31 -6 23 42 -17 39 33 27 -15 -27 29 45 -4 49 40 -19 -20 -7 36 -10 -38 65 -13 -2 79 -1 54 -45 -29 57 -32 59 -30 53 52 66 -12 -37 56 -31 58 -47 60 61 -49 -57 -5 -11 -26 67 71 70 73 75 78 77 -70 -74 76 -69 -73 -52 -42 -81 -22 -78 86 85 -85 -23
right_child=1 2 4 5 7 8 -8 9 11 10 14 22 -14 25 -16 21 -18 32 19 -21 81 83 -24 -25 38 26 -28 28 30 55 47 -33 -34 -35 -36 43 37 -39 -40 -41 41 -43 -44 44 -46 46 -48 48 -50 -51 51 -53 -54 -55 -56 62 -58 -59 -60 -61 -62 -63 -64 -65 -66 -67 -68 68 69 -71 -72 72 74 -75 -76 -77 82 -79 -80 80 -82 -83 -84 84 -86 -87 -88
leaf_value=-0.00083564785928008905 -0.00061118993226324798 9.46348288746828e-05 -0.0016311799545108141 -0.002405765946962019 -0.0027869009396478206 -0.0030537514792460638 -0.0021461432166036826 -0.0012134076336473092 0.0054415749312753739 0.00063880177095773573 0.0044080399940161791 -0.0005099790785148534 0.005170127023408585 0.0042067556896084046 0.0049941989188694363 -0.0017076672109589889 -0.0029251683865450686 -0.0027641846024966349 0.0012878874756427077 -0.0022802666856563247 -0.0032053823398320736 -0.0016267966818700377 0.0026018326514156763 0.00028812251260463564 -0.0042144627179115726 -0.0014389961507162369 0.0064359011397061711 -0.0042292565199818144 0.0049751303149734938 0.00019955955503790347 0.00023413839495798458 -0.0007881713081478029 6.1383710106305522e-05 0.0070917061995383517 0.0026659030234869384 0.0083914944348851585 -0.0033820778304855942 0.0037663355298620843 -0.00018693826618593675 0.0054476211359026933 -0.0020855881611534055 -0.00086897546529560448 0.00095914545403045929 -0.0030599561533459006 0.0054562867452658918 0.00082414452062047909 0.0039439664539733521 0.00022858776131855224 0.0027737424051926282 -0.00015525130133864186 -0.0034943136350764881 0.0033190753474544757 -0.0044033637612618777 -0.00046184790693691867 0.0030408468164114019 0.0034542278240173438 -0.0010412648373792381 0.0024365851204316341 -0.0027788892435737732 0.0040870608009877553 -0.0038105719177613452 0.0017871310086684669 -0.0018585345672145306 0.0037093793779905508 -0.0029311661569642725 -0.0010680638891216133 0.0066428293605033887 0.0040985727406345224 -0.004607403971022537 -0.0051583581936615235 0.0067806488461212688 0.0042768390015466666 0.00032207880383869694 0.0019103368417702836 -0.0030427820997715395 0.0064491121894047661 0.00037449252084937018 -0.0017181558153179567 0.0025938791115968302 0.0047995535617464235 0.0010477876961870612 0.0026799283559646339 0.0047968607334309288 -0.0016489780591830844 0.0048208270364137554 0.00054641772055891527 -0.00020297230836858169
leaf_weight=780 123 860 512 30 149 64 3290 255 47 486 45 28 264 62 156 3083 100 197 83 163 226 1184 209 804 124 219 26 81 115 4609 2429 217 382 50 61 95 53 38 1094 899 25 80 464 29 49 95 44 1133 325 48 23 474 45 268 48 138 735 59 228 78 42 665 38 86 76 276 36 206 22 34 77 91 208 305 122 58 243 31 338 230 96 25 49 285 43 510 622
leaf_count=780 123 860 512 30 149 64 3290 255 47 486 45 28 264 62 156 3083 100 197 83 163 226 1184 209 804 124 219 26 81 115 4609 2429 217 382 50 61 95 53 38 1094 899 25 80 464 29 49 95 44 1133 325 48 23 474 45 268 48 138 735 59 228 78 42 665 38 86 76 276 36 206 22 34 77 91 208 305 122 58 243 31 338 230 96 25 49 285 43 510 622
internal_value=1.44102e-05 0.000298896 -3.46087e-06 0.00225941 0.000401507 0.00339776 -0.00165622 0.00109581 0.00375479 0.00149598 0.00170038 0.00399785 0.00304299 0.00219581 0.00200696 -0.00109606 -0.0002115 0.000227807 -7.08393e-05 0.000294647 -0.000576267 -0.00127532 0.00477722 0.000745417 0.000137079 0.000368136 -0.00059242 0.000245631 0.000574903 -4.55347e-05 0.000754714 0.00107476 -0.0008954 0.0034898 -0.000241278 0.00375133 0.0015915 -0.000367787 -0.000687559 0.0052648 0.00180926 0.00250619 -0.000164069 0.00508795 0.00225589 -0.00113461 -0.000539943 0.000660178 0.00112036 0.00344803 0.00183176 0.00204292 0.00172111 0.000229804 0.0066141 0.000101058 2.84018e-05 -0.00106338 -0.00171094 0.000838811 0.000699667 0.000806503 0.00229204 0.00210494 0.000151294 -0.0020501 0.0018721 0.00177558 0.00239478 0.00083263 0.00328146 0.00101526 6.42523e-05 0.00146369 -0.000913842 0.00279207 0.0023608 0.00273171 0.00219861 0.00328304 0.0037029 -0.00260859 0.00112572 -0.000770183 1.91077e-05 -0.000237265 -0.00113789
internal_weight=32894 28109 24352 3757 17765 2407 4785 4897 2191 3648 3393 2066 930 666 2831 6587 216 1350 1249 1100 1495 5727 1136 937 12868 307 245 11374 5342 6032 4835 771 579 133 125 359 138 91 1494 927 554 431 1244 221 78 507 426 4672 2243 163 2675 2362 1888 313 143 5520 5344 382 323 1918 1840 1798 176 116 562 400 1843 1807 994 361 633 813 452 327 330 556 498 122 361 351 326 251 292 2644 838 795 1806
internal_count=32894 28109 24352 3757 17765 2407 4785 4897 2191 3648 3393 2066 930 666 2831 6587 216 1350 1249 1100 1495 5727 1136 937 12868 307 245 11374 5342 6032 4835 771 579 133 125 359 138 91 1494 927 554 431 1244 221 78 507 426 4672 2243 163 2675 2362 1888 313 143 5520 5344 382 323 1918 1840 1798 176 116 562 400 1843 1807 994 361 633 813 452 327 330 556 498 122 361 351 326 251 292 2644 838 795 1806
is_linear=0
shrinkage=0.0719


Tree=12
num_leaves=88
num_cat=0
split_feature=0 22 15 0 14 20 12 9 18 19 19 22 0 12 15 16 9 14 0 2 20 7 7 18 15 20 20 12 12 13 17 0 20 20 17 13 18 0 20 22 0 13 12 0 20 0 18 2 8 18 0 15 2 20 20 8 13 19 2 0 14 20 2 1 0 20 2 20 1 15 2 18 15 7 2 12 1 22 0 20 10 22 18 1 12 9 1
split_gain=2.61156 3.28027 1.79752 0.955094 0.539121 0.521084 0.407982 0.381585 0.356375 0.487623 0.323383 0.320285 0.266249 0.260588 0.250321 0.232463 0.221644 0.21929 0.217232 0.278628 0.272167 0.226295 0.216763 0.21361 0.211201 0.217771 0.242943 0.373816 0.278977 0.250737 0.230758 0.218273 0.207723 0.212139 0.203897 0.23768 0.217611 0.200583 0.199798 0.196919 0.194398 0.192566 0.192281 0.189599 0.189066 0.214885 0.186245 0.21704 0.220584 0.18565 0.184727 0.183664 0.182742 0.196286 0.182738 0.197706 0.251314 0.359167 0.178634 0.177268 0.176672 0.172855 0.202178 0.171804 0.171499 0.170669 0.17039 0.169802 0.167897 0.196779 0.16784 0.166807 0.165619 0.16455 0.17455 0.162442 0.160393 0.17844 0.182797 0.185353 0.170871 0.166459 0.15992 0.210947 0.15929 0.214615 0.156746
