tree
version=v4
num_class=1
num_tree_per_iteration=1
label_index=0
max_feature_idx=64
objective=regression
feature_names=Column_0 Column_1 Column_2 Column_3 Column_4 Column_5 Column_6 Column_7 Column_8 Column_9 Column_10 Column_11 Column_12 Column_13 Column_14 Column_15 Column_16 Column_17 Column_18 Column_19 Column_20 Column_21 Column_22 Column_23 Column_24 Column_25 Column_26 Column_27 Column_28 Column_29 Column_30 Column_31 Column_32 Column_33 Column_34 Column_35 Column_36 Column_37 Column_38 Column_39 Column_40 Column_41 Column_42 Column_43 Column_44 Column_45 Column_46 Column_47 Column_48 Column_49 Column_50 Column_51 Column_52 Column_53 Column_54 Column_55 Column_56 Column_57 Column_58 Column_59 Column_60 Column_61 Column_62 Column_63 Column_64
feature_infos=[0.065316304564476013:18256.634765625] [0.10000000149011612:43.400001525878906] [0:360] [0.011701204814016819:179.98863220214844] [-1:180] [-127:127] [0:1] [0:511] [0:120] [0:56.779998779296875] [0:23] [0:6] [0.0015384615398943424:92.089996337890625] [0.00047846889356151223:77.199996948242188] [0.00033222589991055429:77.199996948242188] [-102.09999847412109:34.381816864013672] [0.00031758635304868221:93.392807006835938] [0.0020000000949949026:33.099998474121094] [0:253.85133361816406] [-1:359] [-126.62000274658203:1995.3599853515625] [-24.666000366210938:31.041999816894531] [0.019999999552965164:18204.439453125] [0:1] [0:1] [0:1] [0:1] [0:1] [0:1] [0:1] [0:1] [0:1] [0:1] [0:1] [0:1] [0:1] [0:1] [0:1] [0:1] [0:1] [0:1] [0:1] [0:1] [0:1] [0:1] [0:1] [0:1] [0:1] [0:1] [0:1] [0:1] [0:1] [0:1] [0:1] [0:1] [0:1] [0:1] [0:1] [0:1] [0:1] [0:1] [0:1] [0:1] [0:1] [0:1]
tree_sizes=7344 7820 7858 7891 7854 7884 7874 7860 7877 7845 7887 7815 7835 7888 7878 7858 7901 7888 7873 7910 7901 7903 7869 7884 7902 7876 7867 7890 7825 7841 7844 7894 7879 7850 7901 7893 7818 7828 7889 7866 7886 7923 7797 7827 7793 7864 7801 7893 7846 7870 7760 7832 7819 7835 7824 7795 7820 7849 7845 7807 7802 7848 7878 7815 7835 7798 7803 7873 7830 7811

Tree=0
num_leaves=88
num_cat=0
split_feature=22 21 20 0 20 0 0 0 22 22 20 11 10 11 3 10 4 10 11 16 13 39 22 11 21 13 16 12 17 21 3 16 7 0 10 10 11 21 0 17 22 0 20 13 22 7 39 11 11 10 8 22 12 20 4 3 14 7 12 12 13 10 20 14 20 3 12 13 13 18 14 13 16 14 16 22 13 18 13 22 13 14 20 0 12 3 10
split_gain=84.5761 63.5731 47.8328 30.4733 32.9149 25.5825 14.065 16.3056 33.6723 18.9652 16.0344 13.0554 25.0406 13.7531 11.0648 8.73851 7.46791 7.39802 11.8021 7.32974 6.9584 6.08344 5.86597 5.84851 5.61208 8.13998 5.60671 4.98765 5.16296 4.93496 4.93463 4.4446 4.19032 4.1801 4.05665 4.73063 13.0532 4.04979 3.842 3.81661 3.70527 3.63103 3.51729 3.51657 3.56811 3.41537 3.39911 3.39049 3.30548 3.26032 3.23898 3.18061 3.17856 3.10978 3.83351 3.06426 3.06359 3.06187 3.20258 3.00915 3.68721 2.95973 2.85523 2.81944 3.03676 3.47522 3.04937 2.74746 2.74132 2.70209 2.64631 5.40702 2.87303 2.62345 2.53872 2.48241 4.38304 2.86754 2.46258 2.45225 2.4377 2.96461 3.45601 3.37876 2.43296 2.39694 2.62339
threshold=11.625000000000002 1.0674999952316286 -1.424999952316284 5714.7094726562509 0.84499999880790722 40.843614578247077 97.921012878417983 705.78146362304699 26.800000190734867 47.625000000000007 0.44499999284744268 4.5000000000000009 14.500000000000002 5.5000000000000009 74.869369506835952 1.0000000180025095e-35 -1.0000000180025095e-35 22.500000000000004 3.5000000000000004 0.94100630283355724 0.93222594261169445 1.0000000180025095e-35 6.2449998855590829 4.5000000000000009 -1.0000000180025095e-35 8.0375738143920916 3.6923006772995 12.153541564941408 0.73350000381469738 0.7475000023841859 77.230457305908217 4.5504698753356942 71.500000000000014 5783.9565429687509 22.500000000000004 16.500000000000004 4.5000000000000009 0.80450001358985912 235.16753387451175 0.12049999833106996 11.269999980926515 5732.4763183593759 -0.82499998807907093 0.8608854115009309 2235.7399902343755 49.500000000000007 1.0000000180025095e-35 5.5000000000000009 4.5000000000000009 17.500000000000004 21.500000000000004 722.33499145507824 12.549193859100344 -3.9950000047683711 1.9499999880790713 55.082267761230476 8.9971628189086932 135.50000000000003 13.70161294937134 13.956439018249513 11.759870052337648 16.500000000000004 -1.0000000180025095e-35 7.0543198585510263 -5.2750000953674308 132.90509033203128 7.9656853675842294 12.351999759674074 3.8332940340042119 2.2524143457412724 6.1482114791870126 1.2672413587570193 5.2478330135345468 9.792490482330324 3.2268110513687138 745.77999877929699 9.5625419616699237 3.1136794090271001 6.3528790473937997 13.00500011444092 0.68222492933273327 3.2884619235992436 2.8950001001358037 5788.4582519531259 7.1480519771575937 74.106460571289077 22.500000000000004
decision_type=2 2 2 2 2 2 2 2 2 2 2 2 2 2 2 2 2 2 2 2 2 2 2 2 2 2 2 2 2 2 2 2 2 2 2 2 2 2 2 2 2 2 2 2 2 2 2 2 2 2 2 2 2 2 2 2 2 2 2 2 2 2 2 2 2 2 2 2 2 2 2 2 2 2 2 2 2 2 2 2 2 2 2 2 2 2 2
left_child=1 5 20 6 11 34 31 8 37 16 23 17 13 15 40 32 -10 27 -19 -14 -2 24 -3 43 47 53 -20 42 -29 33 38 -4 -13 41 35 -1 -37 -8 -18 62 45 -6 -5 -9 57 -7 51 85 78 61 -50 -44 -25 54 -26 -24 -30 58 -45 60 80 -21 -33 64 -16 -66 -67 70 -55 73 71 -53 -72 -12 -38 -51 77 -77 -11 -39 -35 82 -82 -83 -73 -22 -87
right_child=2 22 3 4 29 14 7 10 9 48 69 12 19 -15 63 -17 30 18 26 49 21 -23 55 52 25 -27 -28 28 56 -31 -32 39 -34 59 -36 36 74 79 -40 -41 -42 -43 46 44 -46 -47 -48 -49 50 75 -52 67 -54 68 -56 -57 -58 -59 -60 -61 -62 -63 -64 -65 65 66 -68 -69 -70 -71 72 84 -74 -75 -76 76 -78 -79 -80 -81 81 83 -84 -85 -86 86 -88
leaf_value=2.502264341032038 2.5135522079847341 2.4803383085013611 2.5024949963797027 2.4911296299895374 2.4997049133505973 2.4944892575443656 2.5088846546520456 2.5038949682548837 2.4933655583114565 2.5120780963380849 2.5050494011221383 2.5424962076987412 2.4702313222470957 2.4916790963014144 2.4773444443510644 2.5050944574060421 2.5180489849175203 2.5004995343288341 2.5446190590330122 2.4910784487373832 2.4980733030904156 2.4702837865366369 2.4621636034016063 2.4988941429246481 2.472339492414966 2.5033560942504107 2.5069869624087873 2.5278733421633022 2.52087727251747 2.4852160505187291 2.5190114107649308 2.4782715075538899 2.505802042642844 2.5159837822673676 2.5223608188167801 2.5043202176886621 2.4658432936454675 2.4867992613335588 2.5423979468423483 2.4835032040942959 2.5023826844479351 2.4783498566580273 2.4981293702610148 2.5118651723544989 2.5228754515116005 2.4778767485918465 2.5186184167694368 2.4820164802646909 2.4956953374236188 2.4838629826598235 2.5238672360114478 2.5009905584269307 2.5130898425052948 2.4821159476051191 2.4938963499782765 2.4827796171239451 2.5034217637833196 2.5043728514799559 2.53037795437334 2.4864929024667091 2.5124470484915173 2.4757604518047076 2.5015037776349445 2.4888045117067459 2.4968383127288996 2.4983806730064768 2.5301129641722189 2.525184108601914 2.4984562709716345 2.4899824297720867 2.4932229799098287 2.5076549892978321 2.504841891689082 2.4913620056348194 2.4910507752979583 2.4863895012563781 2.5298815179345313 2.5033391757665782 2.5303701562503838 2.5028653118181805 2.4928920085886905 2.5256851824660802 2.4709726644016201 2.4962887965305778 2.5185821822141059 2.4903807131414721 2.4758238412715863
leaf_weight=839 74 143 462 126 56 71 1019 309 22 146 170 50 121 430 24 1101 38 103 78 139 200 70 469 465 95 440 28 80 67 564 72 32 24 29 42 162 82 54 312 159 38 153 552 328 152 686 74 274 96 80 27 793 99 71 78 41 235 250 57 169 73 124 188 173 111 26 40 32 209 366 222 722 218 126 28 97 21 110 52 535 139 21 51 535 124 1155 68
leaf_count=839 74 143 462 126 56 71 1019 309 22 146 170 50 121 430 24 1101 38 103 78 139 200 70 469 465 95 440 28 80 67 564 72 32 24 29 42 162 82 54 312 159 38 153 552 328 152 686 74 274 96 80 27 793 99 71 78 41 235 250 57 169 73 124 188 173 111 26 40 32 209 366 222 722 218 126 28 97 21 110 52 535 139 21 51 535 124 1155 68
internal_value=2.49837 2.48725 2.50046 2.50227 2.4993 2.49283 2.50632 2.50786 2.51205 2.52447 2.50357 2.50195 2.49775 2.50268 2.48533 2.50671 2.5341 2.50474 2.51786 2.48632 2.49182 2.49121 2.46743 2.50735 2.49178 2.49639 2.5347 2.5039 2.51162 2.49078 2.53623 2.49776 2.53063 2.49335 2.50042 2.49959 2.49135 2.50614 2.53976 2.49199 2.48053 2.48408 2.50287 2.51041 2.51296 2.47943 2.50341 2.48935 2.51114 2.48973 2.50186 2.50298 2.50139 2.48963 2.48204 2.46382 2.5073 2.51059 2.51461 2.49526 2.49701 2.48385 2.49814 2.49554 2.50132 2.50458 2.51765 2.50425 2.49432 2.49411 2.50393 2.50526 2.49897 2.49921 2.47224 2.49476 2.49857 2.49541 2.5169 2.50139 2.49555 2.49475 2.48699 2.4974 2.50926 2.49076 2.48957
internal_weight=18786 2975 15811 13077 7541 2322 5536 4695 2373 765 2322 5751 2297 1605 1169 1175 444 3454 209 692 2734 2660 653 1660 2590 893 106 3245 382 1790 422 841 74 1226 1153 1111 272 1608 350 379 795 209 2863 1096 787 757 2737 1697 321 571 123 2663 564 453 173 510 302 635 385 1017 848 263 220 374 201 177 66 2111 280 662 2079 1639 440 296 110 308 228 207 198 589 775 746 190 556 846 1423 1223
internal_count=18786 2975 15811 13077 7541 2322 5536 4695 2373 765 2322 5751 2297 1605 1169 1175 444 3454 209 692 2734 2660 653 1660 2590 893 106 3245 382 1790 422 841 74 1226 1153 1111 272 1608 350 379 795 209 2863 1096 787 757 2737 1697 321 571 123 2663 564 453 173 510 302 635 385 1017 848 263 220 374 201 177 66 2111 280 662 2079 1639 440 296 110 308 228 207 198 589 775 746 190 556 846 1423 1223
is_linear=0
shrinkage=1


Tree=1
num_leaves=88
num_cat=0
split_feature=22 21 20 0 20 0 15 0 0 22 22 20 3 15 10 7 4 13 39 22 21 13 1 39 1 21 10 3 7 0 10 10 10 1 21 8 0 17 13 0 3 15 20 0 0 20 4 13 10 10 7 2 22 21 10 21 13 2 22 13 8 21 13 21 18 1 8 8 15 0 18 17 0 22 0 4 48 7 3 20 7 7 7 3 7 3 22
split_gain=72.8552 54.7619 41.2063 26.2503 28.3538 22.0369 17.8738 12.1162 14.0442 29.0059 16.334 13.8135 9.52999 7.72686 6.4553 7.91776 6.43539 5.99442 5.23946 5.16259 4.83413 7.01213 4.79689 4.65365 4.64383 4.25031 3.9931 3.86107 3.66404 3.59964 3.49419 4.07492 8.19532 4.59839 3.48815 3.27011 3.12864 3.09574 3.01108 2.94419 2.89873 2.79573 2.77041 2.94144 2.70162 2.68319 2.77953 2.74748 2.63067 10.8905 5.77431 3.39927 2.59403 2.58289 2.581 2.57863 2.56693 2.53603 2.46576 2.44596 2.60774 2.39286 2.38546 2.34268 2.32744 2.97779 2.25988 2.25255 2.17409 2.14435 2.78218 2.13479 2.12943 2.11251 2.06574 2.68806 2.293 1.95526 1.94483 2.27676 1.88384 1.88048 1.87115 2.17943 1.85698 2.0104 1.82539
threshold=11.625000000000002 1.0674999952316286 -1.424999952316284 5714.7094726562509 0.84499999880790722 40.843614578247077 -6.367708444595336 97.921012878417983 705.78146362304699 26.800000190734867 47.625000000000007 0.44499999284744268 74.869369506835952 -8.2309451103210431 22.500000000000004 54.500000000000007 -1.0000000180025095e-35 0.93222594261169445 1.0000000180025095e-35 5.0850000381469735 -1.0000000180025095e-35 8.0375738143920916 0.65000000596046459 1.0000000180025095e-35 5.3500001430511483 0.7475000023841859 1.0000000180025095e-35 77.230457305908217 22.500000000000004 5783.9565429687509 22.500000000000004 16.500000000000004 18.500000000000004 6.6499998569488534 0.80450001358985912 12.500000000000002 5732.4763183593759 1.0205000042915346 6.8526024818420419 4952.3527832031259 55.082267761230476 -0.44924241304397577 -25.354999542236325 4218.7744140625009 10394.905273437502 -3.7849999666213985 1.9499999880790713 4.2288708686828622 16.500000000000004 17.500000000000004 29.500000000000004 356.44999694824224 3.9650000333786015 -1.0895000100135801 21.500000000000004 -0.18949999660253522 11.932586193084719 134.25000000000003 11.269999980926515 9.1465473175048846 35.500000000000007 2.961499929428101 0.8608854115009309 -0.26250000298023218 2.2524143457412724 12.250000000000002 14.500000000000002 27.500000000000004 -4.5533480644226065 5875.0668945312509 55.121957778930671 2.3884999752044682 9341.2358398437518 13.00500011444092 5795.6623535156259 -1.0000000180025095e-35 1.0000000180025095e-35 119.50000000000001 147.01044464111331 -11.045000076293944 59.500000000000007 23.500000000000004 23.500000000000004 76.518241882324233 152.50000000000003 9.5332961082458514 6006.9548339843759
decision_type=2 2 2 2 2 2 2 2 2 2 2 2 2 2 2 2 2 2 2 2 2 2 2 2 2 2 2 2 2 2 2 2 2 2 2 2 2 2 2 2 2 2 2 2 2 2 2 2 2 2 2 2 2 2 2 2 2 2 2 2 2 2 2 2 2 2 2 2 2 2 2 2 2 2 2 2 2 2 2 2 2 2 2 2 2 2 2
left_child=1 5 17 7 6 30 59 22 9 34 16 13 35 39 23 81 -11 -2 20 -3 42 45 -4 26 -18 29 28 -26 -8 36 31 41 33 -33 -9 -7 -6 38 -12 -10 -21 77 -19 53 72 46 -22 -47 55 50 -50 68 -37 -44 63 -28 82 -46 -54 -5 -61 -27 -15 -14 65 -13 -24 -17 -51 -52 -71 -30 74 -36 -31 -76 -77 -1 -23 -80 -57 -16 -25 -84 85 -64 -70
right_child=2 19 3 4 25 12 14 8 11 10 37 64 54 62 15 67 24 18 -20 40 21 78 66 56 27 61 48 -29 71 44 -32 32 -34 -35 73 52 -38 -39 -40 -41 -42 -43 43 -45 57 47 -48 -49 49 51 69 -53 58 -55 -56 80 -58 -59 -60 60 -62 -63 84 -65 -66 -67 -68 -69 86 70 -72 -73 -74 -75 75 76 -78 -79 79 -81 -82 -83 83 -85 -86 -87 -88
leaf_value=0.0084176902294753244 0.014174261695105592 -0.012993751557317327 0.0039805832733775231 0.011764008100504977 0.001322579186957132 -0.0095620152827971087 0.032955308543661306 0.0098422957440575717 0.040963582408683925 -0.0045609889758689241 0.011267589611534625 0.0067048057263155219 -0.022180226249162247 0.0030972238025595688 0.039731113281614584 0.0073636661636716297 0.0092173891526623891 -0.026332769691477829 -0.02598319020771106 -0.033024094652815368 -0.0227522215164132 0.0012106535174460445 -0.0017483005558522071 0.03127673945253228 0.040607319350308639 -0.013602033615705023 -0.014350970086456565 0.021190033501361477 0.0041065622307723875 0.012167088983430876 0.022349550298814146 -0.026427407868093382 0.0068928943198607213 0.0015494116288555433 -0.010655167380926358 0.0029705454214194044 -0.018497057249381575 -0.0027513081173640859 0.030128966652192571 0.01201431884253625 -0.015951118127871658 0.0016088903540492118 -0.008291560134086844 -0.0093699850526466517 -0.02135659584909648 -0.014104384123623267 -0.0048241679480442159 0.0014395411463588759 -0.025848214523585288 0.0212528366474793 -0.015455957126616874 0.024987740327971318 -0.021815545751465226 0.0041865935132101 -0.020308099110810988 0.0043980118232272445 -0.0065430282869552618 -0.0006406957339435143 2.0319078717920521e-05 0.03098038281628079 0.010430564911805112 0.002685172455924977 0.02939332152495985 0.0011283779374484935 -0.007700860454820495 -0.0080432828802878484 -0.013564245947589029 -0.014320459870240996 0.0025135955337564474 0.005344850817595153 -0.015637499031505842 0.028604713034900052 0.015234752640130992 0.00425574376090938 -0.013475858735188202 -0.00026591664617117293 -0.016883776715968784 0.028994188536914465 0 0.01811346975804921 0.0009966076591061111 0.020452141281661354 0.026275652716410719 0.0045969666693214534 0.0046157842430819673 0.010353854735905525 -0.005432959669966651
leaf_weight=140 74 94 502 92 56 246 34 1019 50 22 205 179 24 483 44 109 33 43 70 501 101 287 186 38 325 513 48 64 152 49 42 102 127 43 54 25 153 60 56 29 58 670 167 1311 73 86 81 185 113 28 82 33 496 176 38 1450 27 53 28 139 42 51 30 312 366 117 153 32 742 107 47 21 38 535 110 648 46 29 58 95 2013 67 38 66 327 741 187
leaf_count=140 74 94 502 92 56 246 34 1019 50 22 205 179 24 483 44 109 33 43 70 501 101 287 186 38 325 513 48 64 152 49 42 102 127 43 54 25 153 60 56 29 58 670 167 1311 73 86 81 185 113 28 82 33 496 176 38 1450 27 53 28 139 42 51 30 312 366 117 153 32 742 107 47 21 38 535 110 648 46 29 58 95 2013 67 38 66 327 741 187
internal_value=8.55816e-05 -0.0102366 0.00202798 0.00370643 0.00094592 -0.00506212 0.00340589 0.00746624 0.00888989 0.0127805 0.0243069 0.00491266 -0.0120188 0.00841523 0.00251052 0.0137521 0.0332434 -0.00599925 -0.00656147 -0.0286325 -0.00603553 -0.00174969 -0.000478321 0.00196793 0.0352205 -0.0069561 0.00157511 0.0374196 0.0113562 -0.00457628 0.00198876 0.00121664 -0.00642743 -0.0181125 0.00729524 -0.0164721 -0.0131738 0.0119377 0.0153247 0.0303705 -0.0312574 0.00369798 -0.00828927 -0.00781856 -0.00280681 -0.00803107 -0.0147879 -0.00348342 0.0011571 -0.00155328 -0.0124756 0.00229443 -0.0195635 -0.00188102 -0.00254547 0.00219152 0.0137066 -0.0126639 -0.0206437 0.0213626 0.0262267 -0.0121245 0.00731647 -0.000528644 -0.0038662 0.000866332 -0.00708902 0.00242354 0.00150911 -0.00606129 -0.00104162 0.0070958 -0.00140988 0.00288417 -0.00215451 -0.00303066 -0.00137124 0.0119644 0.00471124 0.0112603 0.00242159 0.0281184 0.0175756 0.0125437 0.00917005 0.0110982 0.000911154
internal_weight=18786 2975 15811 13077 7541 2322 5751 5536 4695 2373 765 2322 1169 1660 5478 252 444 2734 2660 653 2590 893 841 5226 422 1790 5057 389 207 1226 1153 1111 272 145 1608 795 209 321 261 79 559 839 1697 1654 1017 453 182 271 4850 1339 349 990 549 343 374 3511 169 126 524 273 181 564 1581 336 662 296 339 141 957 236 154 173 891 589 853 804 694 169 440 153 3463 111 142 104 1098 771 929
internal_count=18786 2975 15811 13077 7541 2322 5751 5536 4695 2373 765 2322 1169 1660 5478 252 444 2734 2660 653 2590 893 841 5226 422 1790 5057 389 207 1226 1153 1111 272 145 1608 795 209 321 261 79 559 839 1697 1654 1017 453 182 271 4850 1339 349 990 549 343 374 3511 169 126 524 273 181 564 1581 336 662 296 339 141 957 236 154 173 891 589 853 804 694 169 440 153 3463 111 142 104 1098 771 929
is_linear=0
shrinkage=0.0719


Tree=2
num_leaves=88
num_cat=0
split_feature=22 20 20 0 20 0 15 22 22 11 10 0 0 11 10 3 3 10 11 10 0 13 13 0 39 21 10 10 11 10 3 20 14 1 13 0 13 21 22 0 21 7 14 21 20 11 0 14 20 13 15 14 22 20 13 18 20 10 21 13 15 14 39 10 20 3 8 11 20 14 7 1 1 49 10 10 13 8 0 20 14 1 15 14 15 14 15
split_gain=62.7557 48.3393 35.7421 21.7678 36.5991 28.231 21.975 12.762 16.4107 12.7218 17.3849 12.319 10.9584 10.9428 7.45902 5.90702 5.60647 5.59345 11.5695 5.2883 5.57602 5.25381 5.18165 5.09741 4.89446 5.39628 4.84981 4.78097 10.2648 4.58449 4.52073 4.26165 4.07061 3.9958 3.983 3.66496 3.75474 3.5026 3.3082 3.19307 3.12576 3.11573 3.06099 2.9642 2.86828 2.81237 3.50589 2.79664 4.50917 4.22744 2.76091 2.73102 2.71956 2.69987 2.67495 2.63545 2.60093 2.5957 2.56937 2.56625 2.55391 2.53449 2.56918 2.57359 2.50747 4.33353 2.41643 2.41226 2.24135 2.21229 2.21221 2.18165 2.1518 2.07324 2.11973 2.92177 2.11554 2.04947 1.98418 1.95579 1.94667 1.9466 2.74908 2.3168 2.79802 2.28618 1.99471
threshold=11.625000000000002 3.2350000143051152 -0.95499998331069935 860.46136474609386 0.54500001668930065 226.75831604003909 -6.367708444595336 25.289999961853031 47.625000000000007 4.5000000000000009 15.500000000000002 43.25256538391114 30.149856567382816 5.5000000000000009 1.5000000000000002 85.493133544921889 19.336335182189945 22.500000000000004 3.5000000000000004 17.500000000000004 4918.9121093750009 0.68222492933273327 0.61949759721755993 97.921012878417983 1.0000000180025095e-35 -0.38150000572204584 22.500000000000004 16.500000000000004 4.5000000000000009 21.500000000000004 77.230457305908217 3.745000004768372 4.1789963245391855 0.65000000596046459 7.2322971820831308 417.19317626953131 6.8526024818420419 0.69200000166893016 6.2449998855590829 5714.7094726562509 1.047500014305115 67.500000000000014 7.1085240840911874 2.2999999523162846 -25.354999542236325 4.5000000000000009 4952.3527832031259 7.4022502899169931 -2.6149998903274532 9.0409150123596209 1.4088932871818545 7.0543198585510263 10.97499990463257 -1.014999985694885 4.2288708686828622 1.2094188928604128 -4.194999933242797 16.500000000000004 0.73450002074241649 5.9206633567810067 0.15064103156328204 6.6915078163146982 1.0000000180025095e-35 15.500000000000002 -4.6050000190734854 132.90509033203128 11.500000000000002 5.5000000000000009 6.9049999713897714 5.0476338863372812 85.500000000000014 22.44999980926514 8.6500000953674334 1.0000000180025095e-35 8.5000000000000018 10.500000000000002 5.4815304279327401 14.500000000000002 5726.0979003906259 -1.0000000180025095e-35 3.7764816284179692 9.7500000000000018 -0.30895721912384028 8.0303878784179705 0.78021737933158886 8.9502940177917498 -1.0000000180025095e-35
decision_type=2 2 2 2 2 2 2 2 2 2 2 2 2 2 2 2 2 2 2 2 2 2 2 2 2 2 2 2 2 2 2 2 2 2 2 2 2 2 2 2 2 2 2 2 2 2 2 2 2 2 2 2 2 2 2 2 2 2 2 2 2 2 2 2 2 2 2 2 2 2 2 2 2 2 2 2 2 2 2 2 2 2 2 2 2 2 2
left_child=1 12 22 5 6 23 45 -7 30 17 13 58 26 14 41 40 38 39 -19 20 -12 -6 -2 33 25 42 27 53 -29 37 -9 -25 -20 79 56 36 -10 67 -14 71 52 -11 59 -39 -44 -5 -47 48 49 -36 -21 64 -13 -1 -55 -32 80 -22 60 69 -3 62 63 -41 -18 70 -59 73 -69 -24 -66 -8 -67 74 -23 -76 -75 -35 -65 -4 -27 82 85 84 -83 -63 -84
right_child=2 11 3 4 21 7 9 8 35 10 19 15 16 -15 -16 -17 51 18 32 50 57 29 24 31 -26 34 -28 28 -30 -31 55 -33 -34 77 47 -37 -38 43 -40 61 -42 -43 44 -45 -46 46 -48 -49 -50 -51 -52 -53 -54 54 -56 -57 -58 66 -60 -61 -62 81 -64 78 65 72 -68 68 -70 -71 -72 -73 -74 76 75 -77 -78 -79 -80 -81 -82 83 86 -85 -86 -87 -88
leaf_value=-0.013544128380047853 0.01290540753935558 0.010373293783502255 -0.0070030688721947421 0.026442735268292425 0.01329266285538244 0.0087952293249463145 0.0084007935181181648 0.036494128881951526 0.0094446230969815696 0.033859722667905413 0.013076548719012246 -0.022367727455567518 -0.0023832366113895726 -0.0058275461109053598 0.0049036195693696518 -0.002260608777761487 -0.01996102680306773 0.00111762007478584 0.039473598552620281 -0.0017096608532169949 -0.0091261038262498498 0.00090026550768167787 -0.012024792060876624 0.010804110994177404 -0.023649510395279578 -0.027754049112428802 0.032254525032484931 0.0079557964085722969 -0.02379300398033278 -0.015760810896851236 -0.0048706806943940853 0.0027230535652596269 0.0085342537799295137 -0.0014486208070539101 -0.013162439467845123 -0.00093803969645500044 0.041150294310562906 -0.011059315452262734 -0.022027350903360426 0.0033217625520701199 -0.029462707839305994 0.010258070956304387 -0.024924846840969822 0.003894205004590172 -0.0055056424978295587 0.039776471053057143 0.0084091887044392254 -0.0013001661736281389 0.021176306124822648 0.011888795635658773 -0.017828279773660801 -0.010008585175179895 0.0027227287870923897 0.003626197271160985 0.014206714047527352 0.02557052882414634 -0.003868487609397116 -0.030706012652952943 -0.013573649845783407 -0.019153919988050803 -0.012105802766337839 0.013538953481303675 0.020333557351526484 -0.010062765149180851 0.0038371230034888802 0.0023976876804929726 -0.013867807586408997 -0.01361594357464524 0.0073002263903208338 0.006595414224950023 -0.0087642755998091106 0.028472960641763353 0.026572991851904752 -0.0091434350653877526 -0.016814233099056265 -0.0038121446901965444 0.0078783608300029978 -0.012918052795001581 0.0098134322425009624 0.0055238903814317326 -0.0090140144380365973 0.03582261285860476 -0.014335560873168342 0.0025690171276079609 0.00054020015712876108 -0.0049062319764164464 -0.0018948875684455318
leaf_weight=37 80 69 76 232 75 427 918 347 69 68 28 289 59 506 1225 57 32 125 94 308 75 401 130 665 76 43 29 111 100 227 21 687 29 178 65 107 27 605 182 1258 554 51 41 77 1015 22 116 542 86 75 67 271 24 471 168 48 535 129 112 209 42 82 60 27 132 34 68 176 31 44 158 29 44 48 103 684 175 148 603 418 88 25 106 448 22 60 181
leaf_count=37 80 69 76 232 75 427 918 347 69 68 28 289 59 506 1225 57 32 125 94 308 75 401 130 665 76 43 29 111 100 227 21 687 29 178 65 107 27 605 182 1258 554 51 41 77 1015 22 116 542 86 75 67 271 24 471 168 48 535 129 112 209 42 82 60 27 132 34 68 176 31 44 158 29 44 48 103 684 175 148 603 418 88 25 106 448 22 60 181
internal_value=7.95791e-05 -0.00950047 0.00188233 0.00354659 0.00182513 0.00866202 0.00454447 0.018367 0.0249655 0.00358697 -0.000420722 -0.021071 -0.00223896 0.00318189 0.00657582 -0.0247325 -0.00781893 0.00607581 0.0165446 -0.0102985 -0.0174169 -0.00544982 -0.00513977 0.00398703 -0.0056302 -0.0051526 0.00331373 0.00236451 -0.00707845 -0.00600715 0.0331456 0.0066998 0.0322007 -0.000482492 -0.00202863 0.00818913 0.0183898 -0.00504334 -0.0172293 0.00539528 -0.0262068 0.0237672 -0.00826386 -0.00936711 -0.00626214 0.0215963 0.0134292 0.0014973 0.00821801 0.000238856 -0.00459664 -0.00443509 -0.0204354 0.00531588 0.0064121 0.0162673 -0.00609856 -0.0205658 -0.00588763 -0.013776 0.0018437 0.00419972 0.00567108 0.0052037 -0.000652379 0.00101944 -0.0249074 -0.00321919 -0.0104707 -0.00730094 -0.0030193 0.00901829 0.0160693 -0.00215347 -0.0033488 -0.00551721 0.00420253 -0.00666378 0.00895736 0.00359127 -0.0151857 0.00109488 -0.00244612 0.00416912 0.0193643 0.00572649 -0.00649899
internal_weight=18786 2975 15811 12782 9564 3218 6962 1046 619 6592 2525 1147 1828 1850 1344 924 912 4067 248 675 300 2602 3029 2172 2949 2873 916 887 211 2527 416 1352 123 820 1434 203 96 2300 241 3819 867 119 1439 682 1056 370 138 768 226 140 375 671 313 676 639 69 666 272 223 383 111 2872 1948 1888 400 368 197 1618 207 174 290 947 78 1411 1188 787 223 326 630 494 131 924 429 495 47 142 287
internal_count=18786 2975 15811 12782 9564 3218 6962 1046 619 6592 2525 1147 1828 1850 1344 924 912 4067 248 675 300 2602 3029 2172 2949 2873 916 887 211 2527 416 1352 123 820 1434 203 96 2300 241 3819 867 119 1439 682 1056 370 138 768 226 140 375 671 313 676 639 69 666 272 223 383 111 2872 1948 1888 400 368 197 1618 207 174 290 947 78 1411 1188 787 223 326 630 494 131 924 429 495 47 142 287
is_linear=0
shrinkage=0.0719


Tree=3
num_leaves=88
num_cat=0
split_feature=22 20 20 0 20 0 15 22 22 0 0 39 10 7 21 39 13 0 0 10 16 21 10 10 10 10 9 20 14 1 16 0 14 0 8 16 21 16 16 16 13 10 15 20 1 21 10 16 15 7 1 14 21 13 20 48 13 16 16 10 19 13 14 1 15 2 0 2 8 2 2 19 15 7 7 21 13 9 7 22 20 10 19 10 0 21 20
split_gain=54.0577 41.6395 30.9037 18.6113 32.0419 23.9727 18.3997 10.9368 14.0458 10.61 9.44014 5.52082 5.09462 5.48884 4.61404 4.64129 4.52589 4.35279 4.27721 5.50961 8.94859 4.17814 4.17727 4.1177 7.82442 3.94853 3.92156 3.77136 3.67126 3.52049 3.65677 3.32629 4.05715 3.15773 3.35698 3.01756 3.01639 2.86687 2.74008 2.73487 3.12323 2.84347 2.72233 2.61822 2.57272 2.55392 2.45766 3.14202 2.40769 2.40035 2.36162 2.73014 3.7934 2.93539 2.32603 2.3167 2.30368 2.33287 2.29528 2.2848 2.28378 2.24388 2.35351 2.23498 2.19162 2.18106 2.14667 2.13853 2.12328 2.17955 2.22722 2.11334 2.10806 2.58734 2.34696 2.09833 2.08545 2.06097 2.03512 1.97768 1.97256 1.94135 1.91711 1.91074 2.0183 1.83294 1.80613
threshold=11.625000000000002 3.2350000143051152 -0.76499998569488514 860.46136474609386 0.54500001668930065 226.75831604003909 -6.367708444595336 25.289999961853031 47.625000000000007 43.25256538391114 30.149856567382816 1.0000000180025095e-35 20.500000000000004 27.500000000000004 -0.49050000309944147 1.0000000180025095e-35 0.68222492933273327 97.921012878417983 5618.5148925781259 16.500000000000004 0.72645455598831188 1.047500014305115 22.500000000000004 16.500000000000004 18.500000000000004 21.500000000000004 8.7550001144409197 3.745000004768372 9.2058677673339862 0.35000000894069677 6.3846588134765634 505.62792968750006 2.4722595214843754 417.19317626953131 13.500000000000002 0.39531536400318151 0.69200000166893016 2.6915606260299687 4.0368189811706552 6.1890380382537851 6.5322921276092538 22.500000000000004 -0.22687617689371106 -5.2750000953674308 12.449999809265138 2.2999999523162846 1.0000000180025095e-35 0.60715860128402721 0.64851784706115734 18.500000000000004 18.150000572204593 3.1724311113357548 -0.0045000000391155473 1.2672413587570193 -1.014999985694885 1.0000000180025095e-35 4.2288708686828622 1.4672282338142397 5.7829654216766366 22.500000000000004 277.90390014648443 5.6020584106445321 6.7555329799652108 0.25000000745058065 1.8519231081008913 323.15000915527349 5135.6992187500009 261.44999694824224 9.5000000000000018 45.549999237060554 246.75000000000003 214.51667022705081 1.3315136432647707 134.50000000000003 27.500000000000004 0.034500000998377807 17.819999694824222 3.1750000715255742 23.500000000000004 10.97499990463257 -25.354999542236325 10.500000000000002 127.59166717529298 2.5000000000000004 10330.020019531252 -2.3479999303817745 2.6750000715255742
decision_type=2 2 2 2 2 2 2 2 2 2 2 2 2 2 2 2 2 2 2 2 2 2 2 2 2 2 2 2 2 2 2 2 2 2 2 2 2 2 2 2 2 2 2 2 2 2 2 2 2 2 2 2 2 2 2 2 2 2 2 2 2 2 2 2 2 2 2 2 2 2 2 2 2 2 2 2 2 2 2 2 2 2 2 2 2 2 2
left_child=1 10 14 5 6 17 76 -7 26 58 22 12 18 59 39 31 -6 29 61 46 -21 79 23 54 37 36 -9 -19 43 -4 -31 44 -33 34 -10 -15 38 -25 86 -2 -41 80 -22 -12 -16 83 47 -20 -40 -44 51 52 -48 -54 -1 -27 57 -56 -3 -14 -45 68 -63 -34 -55 -62 -37 -50 71 -70 -71 -8 74 -74 77 -51 -5 -53 -13 -11 -42 -17 -59 -38 -85 -82 -18
right_child=2 9 3 4 16 7 11 8 33 21 28 78 13 35 15 81 25 27 19 20 42 -23 -24 24 -26 55 -28 -29 -30 30 -32 32 63 -35 -36 66 45 -39 48 40 41 -43 49 60 -46 -47 50 -49 67 75 -52 72 53 64 56 -57 -58 82 -60 -61 65 62 -64 -65 -66 -67 -68 -69 69 70 -72 -73 73 -75 -76 -77 -78 -79 -80 -81 85 -83 -84 84 -86 -87 -88
leaf_value=-0.012570321896264022 -0.011530906541122911 -0.012287107610030689 0.0041778283729320305 0.017952433072843086 0.012336928332502859 0.0081759140339288053 0.013880972901992682 0.032631673127587316 0.0023871183894891399 -0.018449560378392224 -0.022923101933784586 0.027151821059160024 0.012521920632386151 0.028354826782811999 0.002249894153465938 -0.028137646337337875 -0.0046284372987718926 0.010141291806033183 0.033868880414898841 -0.022362207729938608 0.0066726067709185349 -0.026842848277062709 0.029935476285776405 -0.026444245353408381 0.0094658802474107823 -0.012228601716010408 0.0041735367296319046 0.0025272658900109095 -0.013858105640071467 -0.0016092175301933309 -0.018396380755727842 -0.012771574653977207 0.01055400634633692 -0.00090930000091999752 0.02944182763233499 -0.0044949110463723798 -0.019589546711133814 -0.0029843024874732808 0.00094464864047381729 0.011350193293172687 -0.022025511016392475 -0.024207636497232149 -0.021417679654472249 -0.0046242347749069481 0.01944683296067375 0.0036142138966629512 0.017105642071072895 0.0069305449902151151 -0.010268743313550514 -0.0028521044037945918 0.015491172233578824 0.0040160064458230988 0.00077831402043950805 0.010021500670618078 0.0083529096469213398 -0.036860102190460972 0.013185255535642098 -0.0096879114514053961 0.0023169899675612826 0.033693032706428268 0.017639818491818993 0.025398535716820232 0.0085092686518512001 -0.0021606540765747207 -0.00031129694162642247 -0.0091415139762620959 0.0070184066713470912 0.0046060530591820921 0.015868639112174031 -0.0057703108636899718 0.0059145941187531302 -0.0041834575965966547 -0.0026158671655407834 -0.020669369453508783 -5.7556879189144816e-05 0.019738203776833531 0.034561507677953997 0.02160182744038816 0.010769037559118379 0.0013560549720500381 0.010456876754129816 -0.0042825436459664095 0.0036192528759816009 -0.0068519016272720959 -0.021025690040898982 -0.0052300674213066655 -0.014125455524846973
leaf_weight=37 576 119 420 321 75 426 148 386 44 334 36 53 50 30 231 49 361 661 26 114 190 562 29 80 90 205 27 687 295 307 86 186 76 106 52 102 96 41 833 56 34 43 35 509 56 77 107 165 213 610 68 124 1000 406 239 22 168 94 104 57 49 48 399 1186 143 23 461 65 43 219 137 43 256 49 1162 22 45 48 155 28 41 28 138 450 59 609 146
leaf_count=37 576 119 420 321 75 426 148 386 44 334 36 53 50 30 231 49 361 661 26 114 190 562 29 80 90 205 27 687 295 307 86 186 76 106 52 102 96 41 833 56 34 43 35 509 56 77 107 165 213 610 68 124 1000 406 239 22 168 94 104 57 49 48 399 1186 143 23 461 65 43 219 137 43 256 49 1162 22 45 48 155 28 41 28 138 450 59 609 146
internal_value=7.38677e-05 -0.00881752 0.00174704 0.0033393 0.00173194 0.00807619 0.0043168 0.0170404 0.0231764 -0.0195563 -0.00207788 0.0034291 0.00304578 0.00882802 -0.00459905 -0.00222178 -0.00505798 0.00375668 0.00231758 0.00136234 -0.00343632 -0.0229544 0.00307569 0.0021945 -0.0065686 -0.00557531 0.0307777 0.00626283 -0.00725696 -0.000395376 -0.00528954 -0.00145352 -0.00285632 0.00762197 0.0170696 0.00611748 -0.00468073 -0.0185171 -0.00298773 -0.00776678 -0.00499435 -0.00625703 -0.000915641 -0.0040965 0.0056147 -0.00869334 0.00267415 0.0106116 -0.000986173 -0.0030812 0.00222255 0.00194791 0.00400695 0.00310041 0.00493367 -0.0146276 0.00595137 0.00336547 -0.00546431 0.023825 -0.00292536 0.00648325 0.0103289 -0.00139284 0.00732524 0.00904772 0.00492778 -0.00678125 0.00356519 0.000573841 -0.00126612 0.00980018 -0.000130853 -0.00552503 0.00110046 -0.0020615 0.0200019 0.00893921 0.0149564 -0.0169103 -0.00512464 -0.0194977 -0.00176099 -0.0102642 -0.00850009 -0.00423648 -0.00736854
internal_weight=18786 2975 15811 12640 9438 3202 6836 1041 615 1147 1828 6470 6262 700 3171 1812 2602 2161 5562 4525 971 924 916 887 211 2527 413 1348 912 813 393 1735 1448 202 96 593 2300 121 1618 1359 783 727 857 617 287 682 3554 191 1111 667 3363 3295 1656 1549 676 227 639 471 223 107 581 1037 447 1262 549 72 563 278 590 399 356 191 1639 305 1334 632 366 172 208 362 684 77 232 605 509 650 507
internal_count=18786 2975 15811 12640 9438 3202 6836 1041 615 1147 1828 6470 6262 700 3171 1812 2602 2161 5562 4525 971 924 916 887 211 2527 413 1348 912 813 393 1735 1448 202 96 593 2300 121 1618 1359 783 727 857 617 287 682 3554 191 1111 667 3363 3295 1656 1549 676 227 639 471 223 107 581 1037 447 1262 549 72 563 278 590 399 356 191 1639 305 1334 632 366 172 208 362 684 77 232 605 509 650 507
is_linear=0
shrinkage=0.0719


Tree=4
num_leaves=88
num_cat=0
split_feature=22 20 21 22 20 11 3 20 12 22 22 22 22 3 3 13 39 13 13 17 13 1 22 21 11 11 22 11 13 20 17 13 3 12 11 21 22 22 9 20 18 11 21 22 1 8 12 11 1 3 17 1 3 12 17 2 21 3 9 13 2 13 1 2 20 18 8 13 1 21 13 1 2 19 63 22 1 3 2 19 3 2 17 20 19 1 11
split_gain=46.5661 35.8659 26.7518 15.5969 22.8655 11.7997 10.0431 9.57897 8.73446 14.2779 16.7922 6.85314 5.4894 5.15934 5.03629 4.44075 4.22879 4.16562 3.82881 3.59091 4.95565 4.37613 3.58027 3.11146 3.04989 3.02354 2.9179 2.90645 3.63362 2.86411 2.86226 2.77304 2.6693 2.58204 2.57358 2.53108 2.48244 2.47945 2.37808 2.33795 2.36076 2.17141 2.17022 2.29277 2.12908 2.07707 2.02082 2.30582 2.01241 1.99272 1.9825 2.1732 1.93077 1.97569 1.92895 1.90804 1.88174 1.84737 1.82527 1.8008 1.78755 1.77599 4.11639 2.43817 1.7614 1.74673 1.84589 2.28028 2.72101 1.71769 1.706 3.10133 2.1296 2.0476 2.01549 1.79263 1.94597 1.70325 2.14648 2.04323 1.93436 2.37904 1.83631 1.70483 1.69554 1.66196 2.31013
threshold=11.625000000000002 3.2350000143051152 -0.12250000238418578 194.50000000000003 0.44499999284744268 4.5000000000000009 90.904853820800795 -0.82499998807907093 7.3240261077880868 23.130000114440922 47.625000000000007 5.0850000381469735 3.5449999570846562 23.39460372924805 83.955539703369155 0.33365696668624883 1.0000000180025095e-35 0.19862910360097888 7.2322971820831308 1.4045000076293948 0.93222594261169445 6.2500000000000009 26.800000190734867 0.60950002074241649 5.5000000000000009 2.5000000000000004 6.2449998855590829 5.5000000000000009 10.497614383697512 -3.5749999284744258 0.035499999299645431 10.552153110504152 151.31343841552737 1.4983870983123782 4.5000000000000009 1.2494999766349795 68.419998168945327 12.47499990463257 8.5749998092651385 -0.82499998807907093 104.17300033569337 5.5000000000000009 1.0674999952316286 10.97499990463257 7.2500000000000009 16.500000000000004 0.039141414687037475 3.5000000000000004 15.050000190734865 145.39697265625003 1.0845000147819521 0.45000000298023229 146.14038085937503 9.5855040550231951 1.4294999837875368 6.3500001430511483 -0.21550000458955762 167.19431304931643 9.1750001907348651 7.9872488975524911 255.84999847412112 7.2949364185333261 9.7500000000000018 187.15000152587893 0.28499999642372137 0.52830708026885997 16.500000000000004 12.857630252838137 12.750000000000002 2.5250000953674321 8.4913268089294451 13.34999990463257 93.250000000000014 270.37339782714849 1.0000000180025095e-35 578.75000000000011 9.7500000000000018 55.082267761230476 64.950000762939467 275.11286926269537 149.67561340332034 32.149999618530281 1.9775000214576723 -3.7849999666213985 103.84243011474611 9.1500000953674334 5.5000000000000009
decision_type=2 2 2 2 2 2 2 2 2 2 2 2 2 2 2 2 2 2 2 2 2 2 2 2 2 2 2 2 2 2 2 2 2 2 2 2 2 2 2 2 2 2 2 2 2 2 2 2 2 2 2 2 2 2 2 2 2 2 2 2 2 2 2 2 2 2 2 2 2 2 2 2 2 2 2 2 2 2 2 2 2 2 2 2 2 2 2
left_child=1 12 17 8 5 7 11 18 29 35 14 -3 34 26 22 -6 19 -2 33 20 46 31 -11 41 77 -21 -14 30 64 -4 60 50 54 -5 39 -10 45 -37 -35 -1 48 70 43 -13 -30 -31 47 -9 -41 -20 51 -22 53 -43 -25 -48 -15 61 -47 -28 -7 63 -63 -27 -29 -23 -67 -68 -69 -56 74 72 -72 -74 75 -17 -77 79 80 -19 83 82 -82 -79 -46 -12 -87
right_child=2 6 3 4 15 27 -8 16 9 10 85 42 13 56 -16 23 -18 24 49 25 21 65 -24 32 -26 57 59 28 44 36 -32 -33 -34 38 -36 37 -38 -39 -40 40 -42 52 -44 -45 84 58 55 -49 -50 -51 -52 -53 -54 -55 69 -57 -58 -59 -60 -61 -62 62 -64 -65 -66 66 67 68 -70 -71 71 -73 73 -75 -76 76 -78 78 -80 -81 81 -83 -84 -85 -86 86 -88
leaf_value=-0.010293990357990732 0.019890124008142787 -0.0071776674581721239 -0.019236380608473446 0.0055697728646327887 0.013881947521030174 0.0041271364387800557 0.0023824944416958741 0.0051454120485887669 0.007446856176194061 0.016000638822420983 0.014045210630641524 -0.020021995673177116 -0.0010874797090994635 -0.019047352465447226 0.0089370220051251115 -0.012423870194069941 0.019582510633492079 -0.0016697003558420688 -0.00098198676697240682 0.00019430213744006875 0.015955260521467337 0.014973522309382557 0.032133099994217693 -0.0061494039354659316 -0.013159034942214463 0.0036466013640600661 -0.0098620499209512661 -0.0072240961194684102 0.024540710393634656 0.0037614157524520392 0.00039383679351648381 0.023881433582990302 0.010273417165590847 -0.015304123583228281 -0.0010311256834705971 -0.018494017310396585 0.0091418268222949028 0.0023465358674468148 0.0010241175918057957 0.00584931015384931 0.031024815109812132 -0.018558055473829455 -0.025753315635546538 0.0025508231314310586 0.011615354281422253 -0.0041584588528142006 0.022816588787935861 0.022214772368505994 0.027319333419421287 0.011232854409798652 0.021856480366003565 0.0075393607815260992 0.0082648769540933278 -0.0033328027045766784 -0.014929395044773364 0.0022275054992692352 -0.0015297314298272468 0.019669549267364379 0.015908915604919374 -0.023448103030222274 0.0201920910767651 -0.0073365428540542229 0.0074632773816961625 0.014510309343850059 0.013921046033289752 0.010420712417617028 -0.0046565130609312793 0.030731746687966723 0.0020187667307329784 0.0027176262269063959 -0.0049449028694743156 -0.005452880051916735 0.010434780044733267 -0.0081429785064978371 0.011452836101887708 -0.0043785366998282046 0.010997329577155256 -0.0096342505053904695 -0.008321391115065432 0.02168418865643415 -0.0061818277798829689 0.011642611973689241 0.01421198784700459 0.0055971147060814297 -0.0049486526209079991 0.0030218998384155681 -0.017378963029064162
leaf_weight=33 31 171 31 56 67 88 111 115 982 92 50 299 74 33 81 137 130 161 222 696 266 83 325 419 313 219 88 598 26 659 2021 126 37 195 357 32 261 378 60 242 25 113 541 25 55 364 24 64 25 100 99 398 26 73 323 803 830 52 25 121 61 147 286 210 21 133 178 23 67 31 85 249 240 35 41 756 45 213 917 22 146 86 27 46 76 159 35
leaf_count=33 31 171 31 56 67 88 111 115 982 92 50 299 74 33 81 137 130 161 222 696 266 83 325 419 313 219 88 598 26 659 2021 126 37 195 357 32 261 378 60 242 25 113 541 25 55 364 24 64 25 100 99 398 26 73 323 803 830 52 25 121 61 147 286 210 21 133 178 23 67 31 85 249 240 35 41 756 45 213 917 22 146 86 27 46 76 159 35
internal_value=6.86282e-05 -0.00818367 0.00162155 0.00273487 0.00133831 0.003329 -0.0181502 0.00554545 0.00690487 0.00976212 0.017819 -0.0203527 -0.00192858 -0.00496899 0.0253907 -0.00438514 0.00681111 -0.00623556 -0.00268616 0.00639423 0.00816985 0.0109801 0.0285803 -0.00485508 -0.00665636 0.00376885 -0.0133954 -0.000245306 -0.00402257 0.00235262 0.00110423 0.0139771 -0.00855774 -0.00837823 0.00317647 0.00546551 0.00286593 0.000713441 -0.0114518 0.00780654 0.00986127 -0.00318741 -0.0229542 -0.0182721 0.00573772 0.00130041 0.00433177 0.0112633 0.00786964 0.0028032 0.012338 0.0109148 -0.0100258 -0.0125969 -0.00946255 0.00282825 -0.00220268 0.00648791 -0.00286192 -0.0177404 0.010722 0.00568963 0.00243271 0.00897072 -0.00650242 0.0054697 0.00349592 4.9426e-05 0.00938625 -0.0133765 -0.0022728 0.000711449 0.0049825 0.00806065 -0.0041319 -0.00481595 -0.00351139 -0.00539678 -0.00623013 0.0011234 -0.00252288 0.00186275 -0.00298356 -0.00691879 0.00198542 0.00235441 -0.000645001
internal_weight=18786 2975 15811 13849 10375 7698 1147 4752 3474 2134 742 1036 1828 1146 498 2677 4119 1962 633 3989 2379 1373 417 2610 1931 1610 283 2946 776 1340 2170 889 810 311 682 1392 1309 410 255 325 292 1800 865 324 157 1048 1006 179 267 322 763 664 212 186 773 827 863 914 389 209 149 862 433 429 619 484 401 268 90 354 1588 609 360 275 979 938 801 1618 1435 183 518 259 173 259 131 244 194
internal_count=18786 2975 15811 13849 10375 7698 1147 4752 3474 2134 742 1036 1828 1146 498 2677 4119 1962 633 3989 2379 1373 417 2610 1931 1610 283 2946 776 1340 2170 889 810 311 682 1392 1309 410 255 325 292 1800 865 324 157 1048 1006 179 267 322 763 664 212 186 773 827 863 914 389 209 149 862 433 429 619 484 401 268 90 354 1588 609 360 275 979 938 801 1618 1435 183 518 259 173 259 131 244 194
is_linear=0
shrinkage=0.0719


Tree=5
num_leaves=88
num_cat=0
split_feature=22 20 20 0 20 15 3 0 0 22 22 20 0 11 15 22 19 3 12 10 10 11 10 16 10 11 10 0 11 39 21 16 0 19 21 11 3 11 11 1 3 2 21 0 18 2 19 8 1 20 8 22 0 2 1 17 2 20 9 19 3 63 17 8 18 1 16 7 7 7 20 0 10 20 20 10 11 19 3 0 16 46 10 3 3 11 3
split_gain=40.1154 30.892 23.1276 15.5028 16.0522 10.4743 8.73634 7.33733 7.36373 17.1231 8.96519 8.22291 7.32426 7.18851 4.80928 4.79171 4.61624 4.13853 3.81298 3.78344 4.32085 5.86777 3.75099 6.88164 5.01964 19.283 4.9868 3.69138 3.64656 3.5102 3.37932 3.28514 3.2746 3.50706 3.05567 2.98614 2.893 2.68864 2.63292 2.61319 2.61055 2.97905 2.62568 2.83335 3.27943 2.59303 2.53516 2.92393 2.51308 2.49726 2.48318 2.47668 2.45914 2.39934 3.31072 3.10092 2.33784 2.30005 2.29769 2.2393 2.82214 3.60845 2.23372 2.22167 2.23526 2.19295 2.65984 2.17671 2.52306 2.17585 2.17381 2.10131 2.09241 2.08695 2.08348 2.017 4.2316 3.33231 2.01212 1.89706 1.84144 2.02271 1.81589 1.95405 2.02561 1.79987 1.90614
threshold=11.625000000000002 3.2350000143051152 -1.424999952316284 5714.7094726562509 0.84499999880790722 -3.2483314275741573 49.18220520019532 97.921012878417983 705.78146362304699 26.800000190734867 47.625000000000007 0.2650000005960465 30.149856567382816 5.5000000000000009 -8.2309451103210431 6.2449998855590829 3.3459302186965947 74.869369506835952 8.9128289222717303 22.500000000000004 16.500000000000004 4.5000000000000009 22.500000000000004 2.3769794702529912 16.500000000000004 4.5000000000000009 17.500000000000004 5783.9565429687509 4.5000000000000009 1.0000000180025095e-35 -0.92450001835823048 4.5504698753356942 4676.3244628906259 23.640991210937504 -0.27899999916553492 4.5000000000000009 132.06189727783206 3.5000000000000004 4.5000000000000009 0.65000000596046459 136.51127624511722 95.950000762939467 0.60950002074241649 5794.6682128906259 1.0000000180025095e-35 356.44999694824224 292.45196533203131 12.500000000000002 5.3500001430511483 -8.2300000190734846 21.500000000000004 8434.7050781250018 5701.7143554687509 45.549999237060554 8.0500001907348651 0.43050000071525579 339.55000305175787 -4.8450000286102286 10.400000095367433 311.07745361328131 82.147605895996108 1.0000000180025095e-35 0.082499999552965178 27.500000000000004 80.679920196533217 12.949999809265138 5.1399030685424814 77.500000000000014 112.50000000000001 42.500000000000007 -1.0000000180025095e-35 4952.3527832031259 8.5000000000000018 2.0449999570846562 -0.82499998807907093 1.0000000180025095e-35 4.5000000000000009 174.01351165771487 77.230457305908217 12.925197124481203 1.8743358850479128 1.0000000180025095e-35 22.500000000000004 122.70372009277345 151.31343841552737 2.5000000000000004 173.12879180908206
decision_type=2 2 2 2 2 2 2 2 2 2 2 2 2 2 2 2 2 2 2 2 2 2 2 2 2 2 2 2 2 2 2 2 2 2 2 2 2 2 2 2 2 2 2 2 2 2 2 2 2 2 2 2 2 2 2 2 2 2 2 2 2 2 2 2 2 2 2 2 2 2 2 2 2 2 2 2 2 2 2 2 2 2 2 2 2 2 2
left_child=1 12 29 7 5 51 15 31 9 58 16 14 18 22 71 -3 -11 63 19 20 74 69 24 37 34 45 -27 73 85 30 46 -4 33 -32 -7 57 79 -24 -12 70 41 -29 43 -43 -45 -26 47 -2 -18 82 -40 56 67 54 -34 -55 72 -19 -9 60 -57 -62 -58 64 -14 66 -46 -13 -69 -22 -33 -10 -5 -6 -1 76 -36 -78 -50 -8 -28 -82 83 -49 -85 -16 -87
right_child=2 6 3 4 27 13 36 8 11 10 38 52 17 -15 28 -17 48 35 -20 -21 21 -23 23 -25 25 26 80 40 -30 -31 32 39 53 -35 75 -37 -38 -39 50 -41 -42 42 -44 44 65 -47 -48 49 78 -51 -52 -53 -54 55 -56 59 62 -59 -60 -61 61 -63 -64 -65 -66 -67 -68 68 -70 -71 -72 -73 -74 -75 -76 -77 77 -79 -80 -81 81 -83 -84 84 -86 86 -88
leaf_value=-0.015093318792742477 -0.014340885745852142 -0.01027981641641048 0.003536950145964975 0.023720100956937763 -0.0050796618528503113 -0.01938554600424168 0.0095382704276788036 0.0049856045778995618 0.033023382007485197 -0.0042518178573444018 0.014399826347443025 -0.010101300482726849 -0.0098900666112739753 -0.0066200324553367133 0.0048293375570098163 -0.023354888270055024 0.0074094560260702449 -0.013004716678759505 0.015179506554358419 0.026979458141458346 0.016347715602986517 -0.022671343387012148 0.0045351901681213395 -0.00051628229305010389 0.0034496376872504425 -0.024250736838375433 -0.01878791417682987 -0.012108205244804993 0.00093723686169863642 -0.020182880545504697 -0.013560833963875484 -0.017856668781280755 -0.0078822950210415202 0.0061342297572753845 0.0023973734718682198 -0.01072932147994103 0.0071249786652590246 0.030776589126588799 -0.0044136840256348807 -0.012293393411525652 0.0047308797074882879 0.018815958458083697 -0.0076711839665750464 -0.013460750681349788 -0.0022784379882844733 0.02793964971595185 -0.016634332444139567 0.0035862927949331662 0.030794844459718418 0.0092186802831567532 0.020262312973998227 -0.0038310394424046486 0.019158680909307616 0.0047585223693793173 0.0083215985871234674 -0.0013536819451062719 0.018512998840513575 0.0065828088600428094 0.025095968336534068 0.0032461659507416322 -0.011644384683678772 0.017327671427299043 -0.011310930416675958 -0.020468572230164135 0.0066225739019641723 -0.0071416581213790617 0.0095715589158070664 0.0068170543971563533 -0.0042511668646503199 -0.0061791471674935115 0.0027311999407424103 0.0079841464198322516 0.01242567050525885 -0.018019942641002387 0.0040374135372089502 0.0032240008624632422 0.038161972681180246 0.0047257718132120013 0.01664575701497175 -0.012190221009245293 -0.00010903625946792408 -0.021100819652063865 -0.020930779033873026 -0.012800976139441506 -0.0018118104215719859 0.011938828550797684 -0.0066163066458750676
leaf_weight=31 170 186 462 123 106 30 23 1578 50 26 198 182 415 504 431 669 32 36 112 28 38 90 27 120 839 173 59 246 518 72 54 31 106 345 108 102 66 83 96 165 161 37 440 102 205 23 139 124 323 69 27 44 26 135 169 237 21 220 30 101 604 23 34 92 47 139 187 152 355 53 183 27 280 167 564 3056 41 25 63 203 132 29 36 162 188 551 30
leaf_count=31 170 186 462 123 106 30 23 1578 50 26 198 182 415 504 431 669 32 36 112 28 38 90 27 120 839 173 59 246 518 72 54 31 106 345 108 102 66 83 96 165 161 37 440 102 205 23 139 124 323 69 27 44 26 135 169 237 21 220 30 101 604 23 34 92 47 139 187 152 355 53 183 27 280 167 564 3056 41 25 63 203 132 29 36 162 188 551 30
internal_value=6.38881e-05 -0.00759552 0.00150525 0.00276274 0.00064123 0.00249225 -0.0168452 0.00565212 0.00676001 0.00957749 0.0184338 0.00387951 -0.00179023 0.00154274 0.00673397 -0.0205136 0.0250555 -0.00635225 0.00274896 0.00101402 7.36728e-05 -0.0096503 0.00241032 0.0113694 0.00195335 -0.00190917 -0.0151099 -0.00530432 0.00584928 -0.00450846 -0.0040835 -0.000529656 -0.00226891 0.00346205 0.00344111 -0.000319423 -0.00609472 0.0243598 0.0092665 -0.00549386 -0.0039167 -0.0049454 -0.00335556 -0.000517449 -0.00165174 0.00410619 -0.0077056 -0.00604503 0.0268848 -0.00360468 0.000981447 0.0124152 -0.00253233 -0.00393387 0.00206606 -0.00543627 0.0139817 0.0038179 0.00536246 -0.00686525 -0.00805033 -0.0105774 2.81024e-05 -0.0102459 -0.00820444 0.000611658 0.00336771 -0.00335473 -0.000927632 0.00319849 -0.000238768 0.0242781 0.0158795 -0.0130053 0.0030362 0.00365395 0.0111899 0.0255372 0.0284925 -0.00996712 -0.00790975 -0.00390676 -0.00534483 -0.00415545 -0.00690584 0.00836092 0.0109761
internal_weight=18786 2975 15811 13077 7541 5751 1147 5536 4695 2373 765 2322 1828 5249 1607 855 444 912 916 804 776 181 4745 230 4515 1255 393 1790 1530 2734 2662 841 1774 399 3260 358 292 110 321 379 1517 1356 1110 670 633 862 888 749 418 579 123 502 715 1375 275 1100 458 256 1608 965 864 627 55 554 462 531 392 689 507 91 214 77 403 273 595 3230 174 66 386 226 220 161 510 474 350 1012 581
internal_count=18786 2975 15811 13077 7541 5751 1147 5536 4695 2373 765 2322 1828 5249 1607 855 444 912 916 804 776 181 4745 230 4515 1255 393 1790 1530 2734 2662 841 1774 399 3260 358 292 110 321 379 1517 1356 1110 670 633 862 888 749 418 579 123 502 715 1375 275 1100 458 256 1608 965 864 627 55 554 462 531 392 689 507 91 214 77 403 273 595 3230 174 66 386 226 220 161 510 474 350 1012 581
is_linear=0
shrinkage=0.0719


Tree=6
num_leaves=88
num_cat=0
split_feature=22 0 20 15 0 20 0 20 11 10 11 22 22 10 16 11 7 10 11 0 14 20 15 13 1 11 20 10 10 9 20 8 14 0 11 20 16 20 14 15 49 12 12 7 10 20 10 15 22 16 22 20 10 10 16 7 13 4 12 10 8 48 22 15 13 12 7 1 4 1 16 13 20 15 1 1 10 16 20 22 16 16 15 0 20 22 15
split_gain=34.6442 26.5172 19.8051 12.5186 12.6964 17.2954 16.5797 12.1603 8.18352 13.4282 6.98452 6.85584 8.75448 5.50407 5.06036 4.64745 4.41495 5.41213 4.47927 4.23967 4.04062 3.62119 3.39394 3.36091 3.3142 3.03936 3.02733 3.03816 2.90787 2.88546 2.77262 5.30648 3.53185 2.63257 2.53899 2.62794 3.92158 2.8232 2.65154 2.48268 2.40803 2.37918 2.3542 2.40442 2.32649 2.45933 2.24859 2.24496 2.36026 2.24217 2.19246 2.1751 2.74996 5.86725 4.78223 3.60754 2.53675 2.25707 2.17126 2.13047 2.07274 2.0573 2.04181 2.03286 2.00137 1.97418 2.05064 1.96152 1.96096 1.95635 1.95431 1.91012 1.90826 1.86234 2.33459 2.28523 1.8954 3.08966 1.81362 1.79951 1.77161 1.98309 1.76079 1.75879 1.75214 1.74951 1.7271
threshold=11.269999980926515 40.843614578247077 -0.67500001192092884 -6.9686145782470694 860.46136474609386 0.54500001668930065 226.75831604003909 4.4649999141693124 4.5000000000000009 15.500000000000002 5.5000000000000009 23.130000114440922 47.625000000000007 1.5000000000000002 1.5179635286331179 5.5000000000000009 50.500000000000007 22.500000000000004 3.5000000000000004 86.02527236938478 7.0543198585510263 3.745000004768372 0.67735043168067943 0.68222492933273327 0.25000000745058065 5.5000000000000009 0.014999999664723875 9.5000000000000018 21.500000000000004 3.4050000905990605 -5.4549999237060538 12.500000000000002 8.3307313919067401 1132.4857177734377 5.5000000000000009 11.654999732971193 5.1399030685424814 2.6750000715255742 3.7764816284179692 2.3476852178573613 1.0000000180025095e-35 0.1469669118523598 10.139009952545168 74.500000000000014 22.500000000000004 -17.17500019073486 15.500000000000002 -2.5442434549331661 6699.4650878906259 11.554554939270021 535.58499145507824 1.3149999976158144 19.500000000000004 16.500000000000004 3.2268110513687138 33.500000000000007 2.3501011133193974 2.8500000238418584 12.737437248229982 1.5000000000000002 14.500000000000002 1.0000000180025095e-35 542.08999633789074 0.080243900418281569 16.57373142242432 11.301351547241213 227.50000000000003 3.2500000000000004 0.15000000223517421 0.25000000745058065 2.8083487749099736 3.5378863811492924 -2.3749999999999996 1.9301514625549319 8.9499998092651385 20.94999980926514 10.500000000000002 3.4584997892379765 -1.1950000524520872 6.2449998855590829 5.650968313217164 1.4672282338142397 1.4922962784767153 8664.6728515625018 16.304999351501468 26.800000190734867 -0.39883720874786371
decision_type=2 2 2 2 2 2 2 2 2 2 2 2 2 2 2 2 2 2 2 2 2 2 2 2 2 2 2 2 2 2 2 2 2 2 2 2 2 2 2 2 2 2 2 2 2 2 2 2 2 2 2 2 2 2 2 2 2 2 2 2 2 2 2 2 2 2 2 2 2 2 2 2 2 2 2 2 2 2 2 2 2 2 2 2 2 2 2
left_child=1 49 15 26 6 8 19 20 16 10 13 -8 39 29 -11 30 17 47 -19 24 42 -21 -16 -7 -5 -14 64 -28 34 -10 31 32 -2 58 35 36 37 -25 -39 68 63 -31 43 -3 45 -33 -36 48 -6 51 -24 52 53 78 -55 -54 -53 -56 -32 -37 67 -30 -49 -38 -4 66 -12 -26 -13 -47 -71 -58 -44 75 76 83 -75 -78 -1 -22 81 -80 -40 -18 -9 -70 -83
right_child=2 7 3 4 5 23 11 84 9 14 65 12 25 -15 22 -17 73 18 -20 21 79 -23 50 28 60 -27 27 -29 61 41 33 44 -34 -35 46 59 40 38 82 -41 -42 -43 72 -45 -46 69 -48 62 -50 -51 -52 56 55 54 57 -57 71 -59 -60 -61 -62 -63 -64 -65 -66 -67 -68 -69 85 70 -72 -73 -74 74 -76 -77 77 -79 80 -81 -82 86 -84 -85 -86 -87 -88
leaf_value=-0.012387165169687299 -0.019453644876597367 0.0035315418040628892 0.015767918323614665 0.0031569158381202327 0.026254081532299276 0.010808663963431119 0.0059633972253450894 -0.016464568690236266 0.036466029145616315 -0.019086955090036644 -0.0052638750301024122 0.0093722637722580757 0.008511969325761936 0.0040548156184556693 -0.0011877670736656597 -0.010020363909115445 0.0045204418370830141 0.0017129106000507916 0.032634280895657661 0.0082513008727187632 -0.0043238616474929768 0.0011881373420254482 0.0023014908158551597 -0.0016751718575635853 0.003960567056035748 -0.018903504618077018 0.019248674383532897 -0.0028440238134456526 -0.010188722907650881 0.032269065547993601 0.0042668094894574788 -0.0087614901024157046 -0.00072446334437292878 -0.0016459384955445451 -0.013084750946395529 -0.02488213571413345 0.0040096699064037294 -0.02036980318718367 -0.0042547024704747242 -0.00052914212267645886 0.0092831055061363965 0.0041442169740294812 -0.00885581982523829 -0.0096263142075686415 -0.016223529037356108 0.020769780545357892 0.002995878473452584 0.015635208981995059 -0.0018281393194632541 0.018280308555958327 -0.01966163063227221 0.016874685041542454 0.029987586917472019 -0.022011549329722321 0.017875872186117636 0.0014438298354318563 -0.027834786689969325 -0.010227781032459542 0.026734435446920442 -0.0067081148512495954 -0.012200599616253993 -0.03343732767146599 0.0049672399758873822 -0.0041593140221214504 0.030978231249968985 0.0064921886445213003 -0.027854529024382034 -0.012045486118899907 0.014986732963004554 -0.020283299124218147 0.00016102744846231571 -0.005578739113045109 0.012946104217680674 -0.0040734877939114771 -0.0081135301194528303 0.023629579528651069 0.026823284386435112 -0.0012592416051444037 0.0076897279051805359 -0.015002080595660348 0.014280856098701491 0.0092754074685600148 -0.024788078293969399 -0.00070609503603850227 -0.023206840187589107 0.028229827162726224 -0.0037770420262978927
leaf_weight=35 184 109 252 328 57 75 376 499 39 192 395 40 160 1195 325 497 1982 35 80 754 114 749 30 482 120 24 52 84 198 22 207 204 73 1238 240 38 302 96 223 21 175 54 28 209 61 23 55 103 21 37 105 24 40 95 30 54 22 29 25 282 183 22 961 329 55 71 22 59 62 25 723 222 79 73 159 30 38 43 251 294 82 67 24 399 338 337 240
leaf_count=35 184 109 252 328 57 75 376 499 39 192 395 40 160 1195 325 497 1982 35 80 754 114 749 30 482 120 24 52 84 198 22 207 204 73 1238 240 38 302 96 223 21 175 54 28 209 61 23 55 103 21 37 105 24 40 95 30 54 22 29 25 282 183 22 961 329 55 71 22 59 62 25 723 222 79 73 159 30 38 43 251 294 82 67 24 399 338 337 240
internal_value=5.93049e-05 -0.00717012 0.00137813 0.00266806 0.00223615 0.000846923 0.00611462 -0.0130679 0.00283149 -0.000436945 0.00276733 0.0136884 0.0181946 0.00550337 -0.00927734 -0.00361774 0.00484364 0.00836973 0.0232466 0.00259069 -0.00691283 0.00473324 -0.00517709 -0.00417477 -0.00207247 0.00492153 0.0145419 0.00558367 -0.00463155 0.0205325 -0.00246509 -0.00489376 -0.014144 -0.000327035 -0.00385711 -0.00291517 -0.00174429 -0.00522989 -0.0102174 0.023498 0.00182017 0.0123208 -0.00199888 -0.00510787 -0.00259647 -0.00174117 -0.0100776 0.00686928 0.0186594 0.000848377 -0.0147612 0.000304588 0.00196239 0.000637487 -0.0120223 0.0136185 -0.005395 0.00401716 0.00669942 -0.00887464 -0.00681805 -0.0125258 0.00600246 -0.000245378 0.0185016 -0.00457192 -0.00646213 -0.00130033 0.0246534 0.0001129 -0.000518732 -0.0075964 0.00721605 0.00321553 -0.00199658 0.00389328 0.00430171 0.0118825 0.00352973 -0.012025 0.00440436 0.00294819 -0.00626068 0.00364348 -0.0191904 0.0261787 -0.000919783
internal_weight=18786 2898 15888 12628 12185 8972 3213 1670 6431 2450 1798 1020 644 1310 652 3260 3981 1257 115 2193 833 1503 460 2541 690 184 443 136 2466 115 2763 1293 257 1470 2246 1951 1631 825 343 460 806 76 425 318 1036 975 295 1142 78 1228 135 1191 923 829 154 94 268 59 232 320 362 220 1064 631 307 488 417 179 439 771 748 244 107 2724 313 2411 154 81 675 408 640 558 247 2381 837 399 307
internal_count=18786 2898 15888 12628 12185 8972 3213 1670 6431 2450 1798 1020 644 1310 652 3260 3981 1257 115 2193 833 1503 460 2541 690 184 443 136 2466 115 2763 1293 257 1470 2246 1951 1631 825 343 460 806 76 425 318 1036 975 295 1142 78 1228 135 1191 923 829 154 94 268 59 232 320 362 220 1064 631 307 488 417 179 439 771 748 244 107 2724 313 2411 154 81 675 408 640 558 247 2381 837 399 307
is_linear=0
shrinkage=0.0719


Tree=7
num_leaves=88
num_cat=0
split_feature=22 0 0 3 15 0 22 10 7 22 13 3 22 22 0 14 15 9 7 0 3 17 9 0 0 10 0 55 3 14 10 15 22 16 10 9 2 13 4 10 19 56 13 14 17 1 14 4 10 10 16 22 13 14 17 22 15 3 10 16 0 3 3 9 19 22 16 0 9 15 0 3 61 1 22 0 0 0 19 3 22 16 5 1 2 2 9
split_gain=29.6728 26.4289 18.1408 13.5235 12.1856 7.26689 6.96423 5.53933 4.66561 3.78555 3.47922 3.41478 8.43536 7.83942 3.91684 3.09892 3.18263 2.78619 3.08524 3.79687 2.68116 2.90837 2.58447 2.47941 3.91214 2.64855 2.46853 2.368 2.3126 2.27291 2.26024 2.19109 2.07514 2.03865 2.03224 1.99325 1.99111 2.04692 1.97498 2.13227 2.09837 1.93378 1.77573 1.775 2.15403 1.70387 2.72653 1.69514 2.66308 2.19773 2.30188 1.67621 1.64928 2.12549 1.62168 2.03977 1.61398 2.36505 1.90996 1.60713 1.59848 1.57985 1.57023 1.95164 1.55919 1.55724 1.55342 1.70565 1.51615 1.50887 1.94297 1.86547 2.48099 1.91771 3.02528 1.77855 2.01404 2.18588 2.51444 1.95125 1.78642 2.9546 2.69549 2.03549 1.80075 1.77774 1.79774
threshold=11.269999980926515 33.397663116455085 4070.4714355468755 74.869369506835952 -6.367708444595336 154.39195251464847 3698.3149414062505 22.500000000000004 147.50000000000003 6.2449998855590829 12.546049594879152 77.230457305908217 22.144999504089359 47.625000000000007 266.00903320312506 0.98730733990669262 -2.3186658620834346 7.2550001144409189 152.50000000000003 6880.8728027343759 29.902335166931156 3.8750000000000004 6.6349999904632577 5843.0678710937509 5742.1896972656259 21.500000000000004 599.70895385742199 1.0000000180025095e-35 128.90960693359378 10.919388771057131 14.500000000000002 -1.5295206904411314 35.225000381469734 13.421482563018801 6.5000000000000009 5.0950000286102304 158.75000000000003 18.7762565612793 3.3500000238418584 20.500000000000004 85.443626403808608 1.0000000180025095e-35 0.12015624716877939 8.1441755294799822 4.6690001487731942 9.3499999046325701 10.975570678710939 -1.0000000180025095e-35 19.500000000000004 16.500000000000004 2.0382013320922856 1.4149999618530276 6.6295266151428232 8.5509042739868182 1.435499966144562 10.184999942779543 0.08903903886675836 41.370660781860359 14.500000000000002 2.3769794702529912 6943.3583984375009 126.37277984619142 107.22775268554689 6.4849998950958261 88.704925537109389 1867.195007324219 2.3322563171386723 72.355129241943374 9.2049999237060565 -1.6615079641342161 5735.6647949218759 145.39697265625003 1.0000000180025095e-35 4.7500000000000009 1791.9799804687502 10394.905273437502 7564.7172851562509 5714.7094726562509 237.21302795410159 52.279357910156257 863.72000122070324 1.7440709471702578 -7.4999999999999991 10.650000095367433 62.049999237060554 86.049999237060561 3.0199999809265141
decision_type=2 2 2 2 2 2 2 2 2 2 2 2 2 2 2 2 2 2 2 2 2 2 2 2 2 2 2 2 2 2 2 2 2 2 2 2 2 2 2 2 2 2 2 2 2 2 2 2 2 2 2 2 2 2 2 2 2 2 2 2 2 2 2 2 2 2 2 2 2 2 2 2 2 2 2 2 2 2 2 2 2 2 10 2 2 2 2
left_child=1 31 5 9 10 22 17 -8 59 -3 65 12 -7 14 -14 -13 -17 18 69 38 -11 54 32 24 25 28 34 29 41 -25 -29 35 42 -5 -15 51 -31 -38 39 -20 -41 52 -2 44 56 -18 -47 48 49 50 -33 -1 -19 -54 -22 -56 58 -58 64 -9 61 -12 63 -21 -26 -4 -44 -68 -30 70 -6 72 75 -73 -75 76 77 78 -71 -79 82 -82 -78 -84 -83 -72 -87
right_child=2 3 4 33 6 11 7 8 -10 20 60 15 13 26 -16 16 45 23 19 62 21 -23 -24 27 43 -27 -28 30 68 36 -32 47 -34 -35 -36 -37 37 -39 -40 40 -42 -43 66 -45 -46 46 -48 -49 -50 -51 -52 -53 53 -55 55 -57 57 -59 -60 -61 -62 -63 -64 -65 -66 -67 67 -69 -70 71 85 73 -74 74 -76 -77 80 79 -80 -81 81 84 83 -85 -86 86 -88
leaf_value=0.017006897294103762 -0.015058001976528453 -0.0080789224390812372 -0.0068835911813194079 0.00043861569564505214 -0.0070453777176165263 0.0047277795337929496 0.0015490131373813085 0.025855407219922921 -0.0137519330585894 -0.020080025250231563 0.015929550882684478 0.018097665808281024 0.010603747593025105 0.028169480627617042 0.023949339645146225 0.020892896498784543 -0.0029163051581861462 -0.0048693167644636133 0.0015403042093424402 -0.0018401296048762882 -0.020144434986091815 0.010098494183922373 0.0051071715382620128 0.0005084393399011198 -0.016492007996170892 -0.016110126014156349 -0.00026074728224409163 0.0015935337063974883 -0.0081852858687902381 -0.014724794198454585 0.02001663358211242 0.0026642195571384536 0.0038761787602183849 -0.021133230500668107 0.0068606330627392562 0.020120679276254039 -0.005998237022005296 0.01879698329423558 -0.0085936245476220391 0.0055999685633202345 -0.0147634099005148 0.018644264128883668 0.0052450862545124297 -0.013217012220106995 -0.029084706298902006 0.0093628682209019234 -0.0023655254459427244 0.0028598792098700394 0.019791512411535008 -0.019465004277543427 -0.012690553497686706 -0.0048684725851971412 0.02012398068596704 0.0017114752134664945 -0.012733516861004199 0.0098718110710989994 -0.014894633332080099 -8.8481657171096467e-05 -0.0018427458012538827 0.008655564637942946 0.00783972086689908 0.030820780118260296 -0.016364146287500912 -0.017851447787489802 -0.0034579022715858173 0.00763813904956502 -0.011201985043417795 -0.001226800871325421 0.0078130848097348951 -0.00049352518419885135 -0.00075622918425398661 -0.0068291280361635603 0.008282859053819501 0.0030336732709295975 0.026737690083891149 -0.0061377347426199106 0.032992769722729354 0.00020022366767779765 0.010407846369734578 -0.0047338805278513757 0.01375403529500155 0.0068161979532012562 0.020545005142341668 0.00062962089559161856 -0.0068151055707627072 0.029306950384452378 0.0089965683954185763
leaf_weight=28 59 284 46 399 48 885 2904 93 24 701 112 73 164 34 377 46 285 95 649 140 147 27 644 441 174 51 172 117 155 120 49 146 327 24 74 62 95 21 174 37 88 46 122 259 21 237 180 673 23 49 77 51 46 111 191 23 67 335 122 41 69 56 141 55 66 220 121 334 38 486 60 96 141 716 29 372 22 643 141 1160 67 68 36 102 189 31 85
leaf_count=28 59 284 46 399 48 885 2904 93 24 701 112 73 164 34 377 46 285 95 649 140 147 27 644 441 174 51 172 117 155 120 49 146 327 24 74 62 95 21 174 37 88 46 122 259 21 237 180 673 23 49 77 51 46 111 191 23 67 335 122 41 69 56 141 55 66 220 121 334 38 486 60 96 141 716 29 372 22 643 141 1160 67 68 36 102 189 31 85
internal_value=4.48681e-05 -0.00663696 0.00126553 -0.0120262 -0.000173386 0.00536294 -0.000662424 0.00226335 0.0153759 -0.0154893 0.0107756 0.00776714 0.00960177 0.0148525 0.0199087 0.00395163 0.00256749 -0.00175461 -0.000894807 -0.00400293 -0.0174194 -0.0126056 0.00158068 -0.00379807 -0.00547305 -0.000511766 0.00507364 -0.00064365 0.00110303 -0.00253351 0.00704776 0.00208835 -0.000774885 -0.00077906 0.0135937 0.0104638 -0.0082291 -0.00148643 -0.0016719 -0.000112413 -0.00871457 0.00507855 -0.00317042 -0.00804619 -0.00633675 0.00136288 0.00429388 0.000865617 -0.00367498 -0.00566911 -0.00262574 0.00285122 0.00259167 0.00712323 -0.014311 -0.0102915 -0.00570797 -0.00256281 -0.0091933 0.0206127 0.0171154 0.0209092 -0.0105718 -0.00636983 -0.0129187 0.00511685 -0.00195025 -0.0038854 -0.00502155 -5.78504e-06 0.00574566 -0.000308266 -0.00105348 0.00272523 0.00395997 -0.0014549 -0.000856179 -0.00170051 0.00195374 -0.00297277 0.00337742 0.000299307 0.00959395 0.00584429 -0.00319802 0.00924925 0.0144474
internal_weight=18809 2905 15904 1796 11770 4134 11267 3062 158 1373 503 2527 1706 821 541 821 748 8205 5776 1284 1089 388 1607 2429 1586 542 280 843 491 677 166 1109 963 423 108 141 236 116 948 774 125 298 636 1044 785 702 417 968 295 272 223 79 252 157 361 214 764 402 362 134 237 168 336 195 240 266 577 455 193 4492 224 4268 3427 841 745 3286 2914 2430 627 1803 484 324 160 138 257 176 116
internal_count=18809 2905 15904 1796 11770 4134 11267 3062 158 1373 503 2527 1706 821 541 821 748 8205 5776 1284 1089 388 1607 2429 1586 542 280 843 491 677 166 1109 963 423 108 141 236 116 948 774 125 298 636 1044 785 702 417 968 295 272 223 79 252 157 361 214 764 402 362 134 237 168 336 195 240 266 577 455 193 4492 224 4268 3427 841 745 3286 2914 2430 627 1803 484 324 160 138 257 176 116
is_linear=0
shrinkage=0.0719


Tree=8
num_leaves=88
num_cat=0
split_feature=22 21 0 0 20 3 0 13 13 22 22 1 21 13 20 9 10 13 22 20 21 3 0 17 13 10 10 16 16 9 8 12 10 0 13 10 20 12 14 1 10 3 16 14 8 12 17 9 8 3 3 22 3 19 8 0 14 3 12 0 20 12 13 14 13 17 9 0 17 14 20 0 3 18 22 21 20 14 13 18 12 10 12 1 13 17 2
split_gain=25.5593 23.1301 22.7665 13.079 16.2943 11.6489 7.3892 5.45353 4.72243 4.583 7.75939 4.01401 3.91353 3.49827 3.42968 4.07178 5.04518 3.44003 3.30705 3.70601 3.27776 3.12559 3.86229 3.11797 3.95313 2.97621 5.31332 3.02659 2.92654 2.878 2.83626 2.63716 2.47618 2.46544 2.44226 2.6869 2.39317 2.37634 2.24353 2.16754 2.15651 2.11975 2.10674 2.09918 2.99855 2.09546 1.99979 1.9772 1.94742 1.92469 1.92226 2.79454 2.22218 1.91804 1.90478 2.47376 2.05559 2.22695 2.72051 2.01471 1.869 1.95207 4.96062 2.54664 1.86093 3.81667 2.95901 3.43619 1.84742 1.81754 4.22901 2.48095 1.81684 3.81105 1.81621 1.79911 2.08399 1.7982 2.00806 2.04382 1.99041 2.15157 1.77103 2.01473 2.21711 2.6344 2.19258
threshold=11.269999980926515 -0.11450000107288359 33.397663116455085 4218.7744140625009 0.28499999642372137 74.869369506835952 122.29301834106447 13.078816890716555 0.33365696668624883 23.130000114440922 47.625000000000007 13.050000190734865 1.2795000076293948 0.19862910360097888 -0.76499998569488514 5.3849999904632577 22.500000000000004 6.1669466495513925 5.0850000381469735 1.7250000238418581 0.068500000983476653 77.230457305908217 266.00903320312506 0.89449998736381542 5.7331001758575448 16.500000000000004 17.500000000000004 0.97350427508354198 6.3846588134765634 10.400000095367433 35.500000000000007 14.152923107147219 21.500000000000004 5823.1745605468759 18.7762565612793 21.500000000000004 -1.1950000524520872 11.507230281829836 2.0322945117950444 9.8499999046325701 1.5000000000000002 115.31088638305665 3.0864417552948002 8.7836828231811541 8.5000000000000018 11.301351547241213 1.1974999904632571 3.6800000667572026 13.500000000000002 88.444301605224624 29.902335166931156 9.555000305175783 36.875131607055671 277.90390014648443 26.500000000000004 7051.5629882812509 10.186336517333986 110.49778366088869 9.9013156890869158 4876.6708984375009 11.654999732971193 7.8019232749938974 6.2950098514556894 7.8575971126556405 0.8608854115009309 1.2985000014305117 2.3199999332427983 4907.2226562500009 3.0004999637603764 4.8674829006195077 2.7749999761581425 5445.0373535156259 95.613437652587905 31.388031005859379 995.02001953125011 1.203999996185303 -6.7349998950958243 7.1607196331024179 4.3064563274383554 6.1241941452026376 11.101388931274416 8.5000000000000018 10.49090099334717 7.6499998569488534 1.9726066589355471 2.0394999980926518 188.65000152587893
decision_type=2 2 2 2 2 2 2 2 2 2 2 2 2 2 2 2 2 2 2 2 2 2 2 2 2 2 2 2 2 2 2 2 2 2 2 2 2 2 2 2 2 2 2 2 2 2 2 2 2 2 2 2 2 2 2 2 2 2 2 2 2 2 2 2 2 2 2 2 2 2 2 2 2 2 2 2 2 2 2 2 2 2 2 2 2 2 2
left_child=2 13 36 6 7 18 12 14 38 29 21 30 48 -2 17 16 25 39 -4 46 69 22 -11 24 49 37 27 -27 -15 -8 -9 33 42 -19 35 40 -1 43 -6 72 -30 -37 -22 64 -45 -38 -20 -25 -3 -12 -48 52 -52 -49 56 59 82 58 -58 -56 61 62 -44 -63 -16 -66 -67 -68 -69 70 -10 -71 73 -5 -42 76 -7 78 79 -78 -79 -82 83 84 -17 -86 -85
right_child=1 3 5 4 8 75 9 11 20 10 23 -13 -14 28 15 54 -18 31 19 -21 32 -23 -24 47 -26 26 -28 -29 34 -31 -32 -33 -34 -35 -36 41 45 -39 -40 -41 74 -43 60 44 -46 -47 50 53 -50 -51 51 -53 -54 -55 55 -57 57 -59 -60 -61 -62 63 -64 -65 65 66 67 68 -70 71 -72 -73 -74 -75 -76 -77 77 80 -80 -81 81 -83 -84 86 85 -87 -88
leaf_value=-0.015318552300302045 0.015840112758460225 0.0054380163232475593 -0.0037511659464425176 0.012954929118376597 0.029651645361691573 -0.016098643521375317 0.0045354860748425332 0.020616442786112275 -0.0014893202137392317 0.0098050142184769231 -0.00042643647069626889 0.0048697562424885217 -0.012969293505629365 -0.0091384707926593072 0.0024212238325231877 -0.00064534961694432216 0.018073057732377461 -0.0029700826315163034 -0.023440698423801472 -0.018202940246547228 -0.012827680799577214 0.0061687543760026407 0.023312018667563442 0.013811743879041584 0.02474622267262817 -0.021386224882503271 0.0041048871694253364 -0.0033341055998283632 -0.01153595358213909 0.030207723530417101 -4.8885719571309442e-05 -0.012420489783290032 -0.015818042655014939 0.007934358044480198 -0.020761487831121101 -0.0010979401899356169 0.0016904506873336648 0.01615476102885309 0.0041404090738898728 -0.018084152584381771 0.0012511493322520683 -0.022309039785960407 -0.00034175378801609978 0.012294844982907675 -0.014634808942401814 0.013937947463136124 -0.012239028439055437 0.00047357692952560912 -0.00084072750705993776 0.012018624169501651 0.014456916095661392 0.022952339593229978 -0.01044431552490096 -0.017715171486727244 -0.010018521312544878 -0.0084995083406862477 0.036384251544602723 -0.00017068677265532365 0.0093798871731365779 0.0040888684793291422 -0.0095219251805246357 0.0091365611137535323 -0.018557297956414684 -0.0029180163036702897 0.011706935242181127 0.016055433909908545 0.025609089450379048 -0.0034964979585042286 0.0050390527896756578 -0.0080090096532556658 -0.015847578155586215 0.002726343850210141 -0.0080244622698016094 -0.013215668852633819 -0.01012320385671713 -0.020279347393216272 0.013724638803846919 -0.011885432462540105 0.011396373975878369 -0.013300140079601914 0.021251231976734564 -0.0036826353973764218 0.0096742305253362162 0.0021182201632583119 0.0033166233950561955 0.016742478342171692 -0.0063736141190941257
leaf_weight=40 37 497 137 74 29 36 1348 182 497 160 121 435 96 1017 735 674 137 171 48 851 183 120 352 50 77 74 461 138 96 23 42 58 139 286 41 41 991 99 47 72 631 61 218 32 64 78 199 251 524 136 23 21 94 34 66 241 24 91 101 252 280 125 120 329 510 83 29 303 231 137 135 592 240 47 82 23 22 78 139 42 26 57 114 270 477 90 375
leaf_count=40 37 497 137 74 29 36 1348 182 497 160 121 435 96 1017 735 674 137 171 48 851 183 120 352 50 77 74 461 138 96 23 42 58 139 286 41 41 991 99 47 72 631 61 218 32 64 78 199 251 524 136 23 21 94 34 66 241 24 91 101 252 280 125 120 329 510 83 29 303 231 137 135 592 240 47 82 23 22 78 139 42 26 57 114 270 477 90 375
internal_value=4.17137e-05 0.00117462 -0.0061597 0.00221649 0.000865824 -0.0111616 0.00581934 0.00266638 -0.00376216 0.0078724 0.0109309 0.00890515 0.000905796 -0.00604233 0.00204484 0.0027142 0.0046003 -0.00195653 -0.0143758 -0.0155513 -0.00425064 0.0166459 0.0190963 0.00552797 0.0104443 0.00393033 -0.000223399 -0.00964791 -0.00645489 0.00496812 0.0167298 0.00201093 -0.00670181 0.00384832 -0.00358528 -0.00280932 0.00193837 0.00527171 0.0139101 -0.00668147 -0.00141915 -0.0138092 -0.00568999 0.00472813 -0.00563052 0.00258659 -0.00968306 0.000618318 0.00221302 0.00614894 -0.00771558 -0.00117332 -0.00552641 -0.00168701 0.000744904 -0.00300396 0.00169178 0.00835686 0.0145862 0.00115254 -0.00446904 -0.0026793 -0.0068167 0.000395124 0.00525542 0.00705513 0.00337853 0.00150491 0.000190867 -0.00173808 -0.00456058 0.000705209 -0.00439985 0.00276749 -5.32578e-05 -0.000722595 0.000395298 0.0020339 0.00653909 -0.00396876 -0.00363004 0.00409603 0.000970619 0.000443113 0.00213852 0.00545242 -0.00281477
internal_weight=18809 15904 2905 13898 10109 1796 3789 7278 2831 2672 1301 659 1117 2006 6619 5671 2896 948 1373 1236 2755 632 512 669 334 2759 673 212 1969 1371 224 515 1394 457 952 911 1109 2086 76 433 809 102 1255 1987 96 1069 385 335 1021 257 337 138 117 285 2775 559 2216 216 125 318 1072 792 338 454 1891 1156 646 563 534 1361 632 729 361 121 713 423 400 364 203 64 161 83 2000 1886 1241 567 645
internal_count=18809 15904 2905 13898 10109 1796 3789 7278 2831 2672 1301 659 1117 2006 6619 5671 2896 948 1373 1236 2755 632 512 669 334 2759 673 212 1969 1371 224 515 1394 457 952 911 1109 2086 76 433 809 102 1255 1987 96 1069 385 335 1021 257 337 138 117 285 2775 559 2216 216 125 318 1072 792 338 454 1891 1156 646 563 534 1361 632 729 361 121 713 423 400 364 203 64 161 83 2000 1886 1241 567 645
is_linear=0
shrinkage=0.0719


Tree=9
num_leaves=88
num_cat=0
split_feature=22 21 0 0 20 3 11 0 21 13 13 22 22 17 13 20 3 0 13 21 17 13 16 17 20 19 9 0 17 22 3 22 22 13 8 16 2 0 4 13 22 9 20 11 21 13 16 14 2 14 20 16 5 3 2 19 17 0 0 9 8 8 50 2 0 13 17 19 17 20 16 14 8 3 13 16 19 21 22 2 12 2 17 2 4 16 13
split_gain=22.1423 20.1199 18.1544 13.5566 14.0372 11.1668 6.41632 5.00615 4.14928 4.06944 4.04726 3.55435 6.63245 3.35584 4.92836 4.22468 3.29759 3.29178 3.07657 2.82358 2.81612 2.6784 2.66228 2.65686 3.15176 4.43 2.54212 2.41446 2.25354 3.10299 3.26051 2.49922 2.32073 2.22019 2.265 2.16861 2.1271 2.11758 2.09176 2.04922 2.37593 2.02821 1.98227 2.21315 3.4254 2.81309 2.78462 1.96864 2.20604 1.93156 1.86866 2.28607 1.81566 1.81136 2.0047 1.77482 3.56649 1.75072 1.79962 1.92947 1.74791 1.72797 1.69943 1.68897 2.05201 3.57936 2.1757 1.68535 1.67014 1.82411 2.01417 1.65528 1.65204 2.28806 1.64916 1.64529 1.7411 1.63733 2.17393 1.95093 1.62598 1.61299 1.8698 1.66462 1.63205 1.6106 1.73943
threshold=13.00500011444092 -0.11450000107288359 33.397663116455085 4218.7744140625009 0.28499999642372137 86.287166595458999 5.5000000000000009 83.402744293212905 1.047500014305115 0.33365696668624883 14.250193595886232 23.130000114440922 47.625000000000007 1.3974999785423281 0.93222594261169445 -0.89499998092651356 77.230457305908217 266.00903320312506 0.40733128786087042 0.068500000983476653 0.35850000381469732 9.8480381965637225 6.3846588134765634 0.55850002169609081 1.0000000180025095e-35 121.6916847229004 2.0249999761581425 5709.1533203125009 1.1974999904632571 10.434999942779543 22.185053825378422 5.0850000381469735 11.625000000000002 10.615454196929933 9.5000000000000018 4.3933997154235849 34.95000076293946 6589.1667480468759 4.2500000000000009 15.623369693756105 770.89999389648449 10.400000095367433 -1.1950000524520872 4.5000000000000009 0.4825000017881394 0.68222492933273327 1.422129809856415 0.34286688268184667 115.14999771118165 2.0322945117950444 -6.7349998950958243 13.703887462615969 -1.0000000180025095e-35 137.34454345703128 71.350002288818374 237.21302795410159 1.7724999785423281 13461.312011718752 5135.6992187500009 5.9349999427795419 28.500000000000004 7.5000000000000009 1.0000000180025095e-35 48.250000000000007 6589.1667480468759 4.6013698577880868 2.2444999217987065 79.369319915771499 0.13149999827146533 -1.0000000180025095e-35 6.2377700805664071 1.671310603618622 13.500000000000002 67.408874511718764 8.1528863906860369 12.418859958648683 265.01852416992193 -0.39949999749660486 1867.195007324219 78.149997711181655 4.6134233474731454 113.75000000000001 1.8824999928474428 277.05000305175787 27.650000572204593 2.7762045860290532 4.7432026863098153
decision_type=2 2 2 2 2 2 2 2 2 2 2 2 2 2 2 2 2 2 2 2 2 2 2 2 2 2 2 2 2 2 2 2 2 2 2 2 2 2 2 2 2 2 2 2 2 2 2 2 2 2 2 2 10 2 2 2 2 2 2 2 2 2 2 2 2 2 2 2 2 2 2 2 2 2 2 2 2 2 2 2 2 2 2 2 2 2 2
left_child=2 18 42 7 6 8 13 35 28 49 57 41 16 14 -5 74 17 -13 -2 -11 21 -14 77 24 33 -26 80 55 -4 31 -31 -30 -32 34 52 47 -36 -35 -33 40 72 -9 -1 44 45 -44 71 -3 -49 -6 -7 -52 -17 54 -21 56 -28 58 59 -8 -12 -54 -41 64 65 -29 -66 -58 69 -37 -71 -47 -24 -74 -16 76 85 -20 79 -79 -15 82 -48 84 -83 -56 -87
right_child=1 3 5 4 9 50 10 11 -10 19 60 12 20 26 15 23 -18 -19 22 53 -22 -23 39 -25 25 -27 27 63 29 30 32 38 -34 37 36 68 -38 -39 -40 62 -42 -43 43 -45 -46 46 81 48 -50 -51 51 -53 61 -55 75 -57 67 -59 -60 -61 -62 -63 -64 -65 66 -67 -68 -69 -70 70 -72 -73 73 -75 -76 -77 -78 78 -80 -81 -82 83 -84 -85 -86 86 -88
leaf_value=-0.013618256947922855 0.012954589129584712 -0.0049951796442841015 -0.018421672395038412 0.0015452616782943344 0.027519739274781265 -0.011849312620675515 0.015391355160711759 0.0043120130633791231 -0.016686155271372172 -0.0016132538519202286 0.024066466275960086 0.0096495862428370178 0.0078145981209315415 0.0032556691894063588 -0.0056827233442144362 -0.0017517216022442414 0.0048979136796500448 0.021635887026023124 -0.010500862628782626 -0.016179636587714874 0.0012430488776442681 0.028253702016308925 0.0093064211741796868 0.0054763187575258276 -0.011180637290078186 0.011576294165497004 -0.0079457116249985957 -0.016176789357015827 0.00036455214679506691 -0.0088626372670861705 0.022608148815359726 -0.013454585812064145 -0.00083726642759475185 0.027999615719146644 0.023619208680721326 -0.017085799300551575 0.006288754277733663 0.0099621975487154991 -0.00043463158652723259 -0.015309770410636058 -0.009759315977221357 0.02292667934371774 8.5642856290234809e-05 -0.0010582248040893669 -0.0092605698116653423 0.033161017354090098 0.0092306989821654938 0.016848121481104823 0.0025650627416032011 0.0038427174170424529 0.0041588869969264777 -0.018761490131428013 0.014486324653333315 0.000838561549877599 -0.012880101636140522 0.013523791968239156 0.013230886046694411 0.011315852236206009 -0.0074009003106893841 -0.00906510232230749 -0.00029867801947100779 0.03023293684207622 0.0065201924455556195 -0.00079330695650649621 0.0025935203769185092 0.0063480603411878358 0.021250648585588013 0.0016621826017995506 -0.013409670729539715 -0.0065765856973771302 0.0091611012322805937 0.0093106776610654609 0.012515059047570319 -0.0029259188626666625 0.0052559099204473204 -0.01638629076774463 -0.014306887149630137 0.012104586461020486 -0.013132462591638644 -0.0040702143992027056 0.022250079047870394 0.020465777801406595 -0.012020780314814053 0.002820877430434382 -0.0014104220784442556 0.0054653903515079223 -0.0046382542745854868
leaf_weight=41 45 93 122 1541 29 52 39 1406 633 1361 36 180 330 46 171 21 133 352 707 116 418 37 86 932 73 112 106 51 100 94 42 530 45 89 41 31 355 55 73 109 160 31 178 498 72 42 49 83 173 47 352 24 93 165 105 112 136 31 597 29 26 60 22 1972 66 128 64 126 79 78 91 24 55 503 122 77 104 52 94 149 48 103 38 70 21 100 727
leaf_count=41 45 93 122 1541 29 52 39 1406 633 1361 36 180 330 46 171 21 133 352 707 116 418 37 86 932 73 112 106 51 100 94 42 530 45 89 41 31 355 55 73 109 160 31 178 498 72 42 49 83 173 47 352 24 93 165 105 112 136 31 597 29 26 60 22 1972 66 128 64 126 79 78 91 24 55 503 122 77 104 52 94 149 48 103 38 70 21 100 727
internal_value=3.86841e-05 0.00115643 -0.0054065 0.00214125 0.000803553 -0.00941964 0.00247478 0.00598767 -0.0121203 -0.00349193 -0.00378478 0.00725323 0.00976643 0.00320291 0.0046429 0.00688905 0.0150519 0.0175854 -0.00561175 -0.00394543 0.00528553 0.00988251 -0.00604446 0.00817196 0.0109636 0.00258214 0.00135343 0.000956517 -0.00924473 -0.00797521 0.000405883 -0.0101368 0.0104507 0.0131315 0.0111064 0.000165496 0.00808982 0.0211289 -0.0118828 -0.00328043 -0.00191776 0.00471544 0.00189323 0.00247647 0.00542946 0.00744916 0.0112187 0.00394729 0.00720632 0.0129125 0.000916239 0.00268878 0.0179565 -0.0062205 -0.00717038 0.00559151 0.00317009 -0.0053556 -0.00613678 0.00492229 0.013806 0.020679 -0.0116233 -1.76777e-05 0.00492367 -5.48072e-05 0.0117991 0.00767748 -0.0045556 -0.00104491 0.00188181 0.0245286 2.63282e-05 -0.00139918 -0.00111899 -0.00622901 -0.0054715 -0.00862101 -0.0041067 0.000101101 0.0129833 0.00808306 -2.09986e-05 0.0117311 0.0167395 -0.00448271 -0.00341331
internal_weight=18809 15606 3203 13624 10109 2067 7278 3515 1639 2831 758 2887 1450 6520 3665 2124 665 532 1982 2755 785 367 1937 1831 899 185 2855 2761 1006 884 181 703 87 714 570 628 396 144 603 935 804 1437 1136 1095 597 525 347 349 256 76 428 376 174 1394 1229 480 368 696 665 68 62 153 131 2281 309 179 130 262 279 200 169 66 644 558 293 1113 1036 1002 295 201 94 281 87 194 124 932 827
internal_count=18809 15606 3203 13624 10109 2067 7278 3515 1639 2831 758 2887 1450 6520 3665 2124 665 532 1982 2755 785 367 1937 1831 899 185 2855 2761 1006 884 181 703 87 714 570 628 396 144 603 935 804 1437 1136 1095 597 525 347 349 256 76 428 376 174 1394 1229 480 368 696 665 68 62 153 131 2281 309 179 130 262 279 200 169 66 644 558 293 1113 1036 1002 295 201 94 281 87 194 124 932 827
is_linear=0
shrinkage=0.0719


Tree=10
num_leaves=88
num_cat=0
split_feature=22 21 20 11 21 22 17 17 10 22 13 13 22 22 20 13 3 22 3 11 10 13 13 10 10 9 16 22 5 19 11 10 10 8 10 8 3 16 16 12 22 13 10 13 20 17 10 10 9 17 16 3 9 20 20 22 12 20 22 13 9 17 19 8 17 8 10 12 11 17 8 8 14 16 20 8 22 9 16 3 8 10 46 18 19 3 10
split_gain=19.1777 17.1829 16.8938 9.18894 9.08454 6.79008 5.75283 5.2254 5.04062 4.83938 3.93281 3.8502 4.38868 3.66717 3.42911 3.084 2.71306 2.68788 5.04469 4.21056 5.92072 2.63052 2.62072 2.82543 2.59437 2.51134 2.29362 2.24511 2.22822 2.24264 3.00018 7.78253 4.0715 3.99313 2.59778 3.48206 2.3395 2.17134 2.1265 2.04765 3.87281 3.35774 2.00871 2.24707 1.98952 1.89941 1.87217 1.84928 1.84735 1.81118 1.96444 1.80105 1.79151 2.5522 2.1918 2.07789 1.89583 2.48276 2.78869 1.83253 1.76787 1.7675 1.75995 1.72198 2.29837 1.72002 1.88273 2.09854 1.72001 1.71477 1.88609 1.93745 1.86784 1.6647 1.62288 1.61163 1.59544 1.58512 1.84504 1.95131 1.5781 2.13607 1.62622 1.90828 2.27507 1.57114 1.5465
threshold=11.269999980926515 -0.11450000107288359 1.2749999761581423 5.5000000000000009 0.048499999567866332 194.50000000000003 0.62049999833107006 1.3905000090599062 16.500000000000004 132.58000183105472 11.856726169586183 3.3699692487716679 22.144999504089359 5.0850000381469735 -3.9950000047683711 12.968890666961672 129.67189025878909 6.2449998855590829 27.890961647033695 4.5000000000000009 15.500000000000002 0.19862910360097888 6.2950098514556894 21.500000000000004 2.5000000000000004 7.4900000095367441 4.937896966934205 47.625000000000007 15.500000000000002 72.027778625488295 4.5000000000000009 16.500000000000004 1.0000000180025095e-35 11.500000000000002 10.500000000000002 9.5000000000000018 132.06189727783206 6.3846588134765634 12.418859958648683 6.6314551830291757 22.144999504089359 0.68222492933273327 21.500000000000004 18.7762565612793 -1.3450000286102293 1.8355000019073489 12.500000000000002 1.5000000000000002 11.414999961853029 1.2555000185966494 6.3380973339080819 33.886976242065437 5.2950000762939462 0.51499998569488536 -1.0000000180025095e-35 7088.5048828125009 0.9095878303050996 -0.14500000327825543 2025.215026855469 1.4190595149993899 1.9049999713897707 0.49950000643730169 106.68990325927736 20.500000000000004 0.068500000983476653 27.500000000000004 1.5000000000000002 8.242403984069826 5.5000000000000009 0.89449998736381542 35.500000000000007 12.500000000000002 12.659339427948 1.3767884373664858 12.59500026702881 19.500000000000004 489.13500976562506 6.5950000286102304 8.5772142410278338 20.682600975036625 5.5000000000000009 12.500000000000002 1.0000000180025095e-35 84.411457061767592 106.68990325927736 115.31088638305665 2.5000000000000004
decision_type=2 2 2 2 2 2 2 2 2 2 2 2 2 2 2 2 2 2 2 2 2 2 2 2 2 2 2 2 8 2 2 2 2 2 2 2 2 2 2 2 2 2 2 2 2 2 2 2 2 2 2 2 2 2 2 2 2 2 2 2 2 2 2 2 2 2 2 2 2 2 2 2 2 2 2 2 2 2 2 2 2 2 2 2 2 2 2
left_child=2 21 17 4 5 11 -4 15 10 39 76 -3 77 -8 -14 28 -15 19 -19 44 24 -2 -11 26 -21 60 -24 -16 29 30 34 32 -32 -33 36 46 73 -23 49 41 -41 -6 43 47 -1 -20 -36 -39 51 50 -28 -27 53 56 59 61 -31 -58 -59 -54 -9 -56 -61 64 -46 66 -63 -68 -26 70 71 -17 -71 -7 -51 -30 -5 -13 79 -79 81 -62 -82 84 -84 -44 -66
right_child=1 3 6 8 9 7 13 25 -10 22 -12 12 14 16 27 69 -18 18 45 20 -22 37 23 -25 68 48 38 -29 75 52 31 33 -34 -35 35 -37 -38 42 -40 40 -42 -43 85 -45 63 -47 -48 -49 -50 74 -52 -53 54 -55 55 -57 57 58 -60 62 80 65 -64 -65 86 -67 67 -69 -70 72 -72 -73 -74 -75 -76 -77 -78 78 -80 -81 82 -83 83 -85 -86 -87 -88
leaf_value=-0.0085028651520225752 0.01376980937308875 0.0023795293854368509 0.012164155550399125 -0.0027418642093148312 0.018182239766924211 -0.0045997926096581704 -0.0046753855364311345 0.011195292404636877 0.005077240966555068 0.00026257346468097067 0.0042722705859561238 0.0026073576353778075 -0.0046950007587737074 -0.015009046461988895 0.018101895818993862 -0.00066454296284825106 0.0099093174173187117 -0.013879149772906108 -0.0029275190683823006 0.023705334124758688 -0.016279717191390642 -0.0078725585999639795 -0.011780390729656462 -0.017668339906045064 0.0022309898155196397 -0.011371600250442713 -0.014776564248471511 0.0087704729898382423 0.0082243462884052394 0.0024050353385999296 0.035712409526338737 -0.024248144475721514 0.0044903307747953362 0.0027900806943200016 0.0034023053384560544 0.0076601866259352553 -0.0053166845347380519 -0.010480654471960355 -0.014264565455527022 0.0011557838373615179 0.012726287066647171 -0.0068976425520236558 -0.0017170900703103239 -0.018789243155771185 -0.0053455122325168688 0.0075915025267896926 0.024806309197162073 0.00014580793339221472 0.011845018726759264 -0.001288266526306177 0.006248625745672658 -0.0019982000696511211 -0.012986600960485406 -0.01017196388709154 0.0062042233785317034 -0.0062014299185166053 -0.0016106256684222504 0.0010201679637464594 0.016187872513136966 -0.015330784326173678 0.0003373736902420338 -0.013256922781695922 0.0020529659702832499 -0.00089530542899755698 -0.0068327931318908812 -0.007407337731424401 -0.0010803609199021677 0.012463809643438926 -0.0134629701524523 0.020546510276627433 0.00082733997541434106 0.021775848525907703 0.0018071291195270985 0.011590995377402375 -0.011666680774208326 0.026638528274424523 -0.0088574292743696867 0.0029972225090679474 0.0015278711080743477 0.016525489644735197 0.0025604766105081522 -0.018582186507807741 -0.0075715486055920201 -0.010525687301304699 0.0065451030444098586 -0.019801535037087065 0.01277947942651967
leaf_weight=44 37 607 51 316 32 42 251 98 298 485 187 425 49 964 408 23 23 191 300 26 129 1017 193 100 257 122 26 200 212 601 23 78 362 44 26 331 107 96 75 548 206 199 42 39 47 126 120 713 44 253 194 818 104 61 448 145 91 88 221 37 89 33 161 102 22 124 130 108 42 34 39 137 146 147 113 28 741 80 118 181 2039 47 99 111 146 62 330
leaf_count=44 37 607 51 316 32 42 251 98 298 485 187 425 49 964 408 23 23 191 300 26 129 1017 193 100 257 122 26 200 212 601 23 78 362 44 26 331 107 96 75 548 206 199 42 39 47 126 120 713 44 253 194 818 104 61 448 145 91 88 221 37 89 33 161 102 22 124 130 108 42 34 39 137 146 147 113 28 741 80 118 181 2039 47 99 111 146 62 330
internal_value=3.60152e-05 0.00101737 -0.0053357 0.00191538 0.00256862 0.00353183 -0.011475 0.00256725 -0.00331724 -0.00137693 -0.00533028 0.00719856 0.00919889 -0.012451 0.0135611 0.004276 -0.0144257 -0.000437032 -0.00416961 0.00186561 -0.00324486 -0.00520291 -0.00403557 -0.00622347 0.00192082 0.000556023 -0.0048802 0.0150367 0.00366905 0.00322461 0.00564754 0.00134313 0.00636251 -0.0144749 0.00846729 0.0117528 0.00316378 -0.00556078 -0.00286143 0.00250443 0.00432049 -0.00341182 -0.00308837 -0.00192804 0.00612765 0.000177503 0.0210129 -0.0011119 -0.00254134 -0.00139743 0.0037517 -0.00321758 0.00190488 0.00409196 0.000102294 0.00174287 0.00496386 0.00880183 0.0118769 -0.00525606 0.00171634 0.00311248 -0.00118212 0.00741789 0.00954973 -0.000387367 0.00281492 0.00505457 1.75657e-05 0.0104698 0.0150768 0.0185334 0.00536163 0.00797896 -0.00449981 0.0103838 -0.00703164 0.00563097 0.00901453 0.0123891 0.00134826 -0.0061815 0.00177695 -0.00270325 0.00082996 -0.0125238 0.0115461
internal_weight=18809 15904 2905 13898 12356 9932 1289 7864 1542 2424 1244 2068 1461 1238 657 4251 987 1616 617 999 454 2006 1439 954 325 3613 854 608 3872 3632 1280 507 385 122 773 477 296 1969 661 985 754 231 952 848 545 426 146 809 984 586 220 940 2352 1062 1290 988 1001 400 309 302 2629 843 198 501 399 395 271 238 299 379 199 160 180 189 366 240 1057 804 379 261 2531 136 2395 356 245 104 352
internal_count=18809 15904 2905 13898 12356 9932 1289 7864 1542 2424 1244 2068 1461 1238 657 4251 987 1616 617 999 454 2006 1439 954 325 3613 854 608 3872 3632 1280 507 385 122 773 477 296 1969 661 985 754 231 952 848 545 426 146 809 984 586 220 940 2352 1062 1290 988 1001 400 309 302 2629 843 198 501 399 395 271 238 299 379 199 160 180 189 366 240 1057 804 379 261 2531 136 2395 356 245 104 352
is_linear=0
shrinkage=0.0719


Tree=11
num_leaves=88
num_cat=0
split_feature=22 0 0 3 11 20 20 15 0 3 22 13 11 10 10 16 10 13 1 15 13 0 9 0 20 7 10 4 16 9 0 0 10 0 10 10 11 7 3 22 3 13 4 3 3 19 15 17 9 19 0 15 55 8 9 14 13 10 8 22 11 10 16 16 20 20 22 19 13 22 0 20 0 20 3 10 19 22 22 17 7 12 20 17 22 3 22
split_gain=16.6217 13.8959 12.2719 9.33804 8.84671 8.1002 10.2096 7.9697 5.41462 4.20907 4.62266 3.43768 2.80291 14.0152 5.40429 4.08786 3.74502 2.78762 3.28042 2.78634 2.55079 2.5543 2.48973 2.45366 2.36538 2.26041 4.71577 2.3716 2.27402 2.11788 2.11284 2.10677 2.10568 2.07379 2.05107 5.61787 3.51851 2.06471 2.01803 2.07136 2.03189 2.16938 2.00987 2.56324 2.18724 2.25386 1.98402 1.97365 1.96698 1.99927 1.91886 1.88808 1.86029 1.85499 1.83619 2.26193 2.48303 1.95017 1.9581 1.81082 1.77075 1.75069 2.55056 2.52059 2.64786 2.05238 1.85289 1.78615 1.74319 1.7615 2.62314 1.74124 1.74065 1.69502 3.49264 2.55878 1.9603 1.92255 1.68722 1.67986 1.65946 1.63474 1.63369 1.59271 1.79942 3.15971 2.03362
threshold=13.00500011444092 30.149856567382816 599.70895385742199 53.702676773071296 5.5000000000000009 -1.514999985694885 0.28499999642372137 -3.2483314275741573 266.00903320312506 77.230457305908217 23.130000114440922 0.33365696668624883 4.5000000000000009 15.500000000000002 18.500000000000004 5.5033488273620614 1.5000000000000002 14.06764078140259 17.250000000000004 -1.239791691303253 0.93222594261169445 6034.3464355468759 5.4249999523162851 80.597381591796889 10.284999847412111 32.500000000000007 22.500000000000004 9.2500000000000018 0.2860990464687348 9.0999999046325701 12311.679199218752 9154.1572265625018 16.500000000000004 12360.952636718752 18.500000000000004 16.500000000000004 4.5000000000000009 33.500000000000007 121.79094314575197 8.2750000953674334 159.41042327880862 8.9168696403503436 2.7500000000000004 141.71163177490237 38.025615692138679 214.51667022705081 -0.66026318073272694 1.4294999837875368 7.4900000095367441 268.47927856445318 6283.5834960937509 -0.72880184650421131 1.0000000180025095e-35 5.5000000000000009 7.8250000476837167 6.6374840736389169 3.5378863811492924 11.500000000000002 18.500000000000004 68.419998168945327 3.5000000000000004 21.500000000000004 8.3755269050598162 4.8805062770843515 11.654999732971193 5.2149999141693124 1933.695007324219 88.704925537109389 8.7712488174438494 291.98500061035162 5788.4582519531259 -2.6149998903274532 13570.610839843752 -13.699999809265135 147.92161560058597 3.5000000000000004 321.08108520507818 318.15499877929693 4.7650001049041757 0.06450000032782556 25.500000000000004 12.737437248229982 -2.2450000047683711 1.1974999904632571 10.434999942779543 22.185053825378422 12.025000095367433
decision_type=2 2 2 2 2 2 2 2 2 2 2 2 2 2 2 2 2 2 2 2 2 2 2 2 2 2 2 2 2 2 2 2 2 2 2 2 2 2 2 2 2 2 2 2 2 2 2 2 2 2 2 2 2 2 2 2 2 2 2 2 2 2 2 2 2 2 2 2 2 2 2 2 2 2 2 2 2 2 2 2 2 2 2 2 2 2 2
left_child=1 34 8 24 5 20 7 -7 23 10 -10 -8 25 16 15 30 22 32 -19 -11 21 -4 -14 82 83 26 27 42 60 -12 -15 -16 -6 59 35 -1 -37 -36 39 78 -40 71 43 51 -44 -46 -34 -41 49 -21 -17 -9 72 -45 57 56 -56 -54 -59 -13 -27 63 66 65 -65 -61 -63 -67 69 -22 -71 -42 -30 -70 76 -76 -75 -77 -5 80 -29 -43 -2 -3 -85 -86 -87
right_child=2 3 4 38 17 6 11 12 9 19 29 33 13 14 31 50 -18 18 -20 48 68 -23 -24 -25 -26 28 -28 79 52 -31 -32 -33 46 -35 37 36 -38 -39 40 47 41 81 44 53 45 -47 -48 -49 -50 -51 -52 -53 54 -55 55 -57 -58 58 -60 61 -62 62 -64 64 -66 67 -68 -69 73 70 -72 -73 -74 74 75 77 -78 -79 -80 -81 -82 -83 -84 84 85 86 -88
leaf_value=0.002942375506531543 -0.020408531333899509 -0.017501336915309654 -0.001723797401507178 0.0017605132258339696 -0.00769978567147361 0.011325387388779824 0.013502886556856643 0.017400205736972599 0.0038762867408968097 0.026215046333155009 0.018584416831333387 0.017855741835457177 0.02453066999641686 -0.020968554900133954 0.0030475571051868299 0.012130464663972771 0.0028766897006084675 0.014754941789893882 -0.0080264486385305429 0.0079732424945893627 0.011349890566118516 0.031623747385128506 0.0029563199114600617 0.0044907222077874851 -0.014838463682246178 0.0053536538760320445 0.023982543606475476 -0.0012208777241627887 0.0018189785071905905 -0.0047562702354229935 0.0021608487620971093 -0.014477815060066282 0.020078812369769744 -0.01239772165420228 0.021439895544755946 0.00181445477293515 -0.021693675585581312 0.0036500286561817969 0.0091498821810053008 -0.0087098298883637425 -0.0076425767067350601 -0.023906757229189085 0.036302960994077524 9.4886520080430788e-05 0.020178385956606808 -0.0045063479634583131 -0.0022854243608340097 0.0067370586613222025 -0.011035658450239879 -0.0094160617036435756 -0.014104214003028357 0.0002947404062224921 0.0041657867987135513 0.022615280386858456 -0.0010789658536918408 -0.0072256734654620614 0.016083643748150418 0.030803192595790965 0.010516720322699704 -0.0030923335358618177 0.033825375708566086 -0.0064863973392089149 -0.019070543181752612 0.0022699967581515227 -0.0058339018416994643 -0.022879323864200572 0.015365523179569516 -0.0063148496891267851 -0.0060004542999524593 -0.013065802753430795 -0.0042823501842070393 0.017169435342762763 -0.011340315596166259 -0.0040033898657366503 0.027484175708808258 -0.01537528276834405 0.016633562956369915 0.0080407693817344215 -0.012376074218209474 -0.0045001286261068842 0.023600311172621954 -0.0027607716792471021 -1.2405592345407551e-05 -0.009489212387209886 -0.0090692037136232417 0.024416786805342157 -0.0041081084886970213
leaf_weight=804 21 97 27 57 1075 560 70 38 193 23 390 23 73 251 167 36 1166 73 59 141 28 21 45 1814 620 25 75 31 2538 21 22 45 23 108 51 53 86 101 147 67 24 30 23 27 52 30 189 118 62 45 24 276 93 65 90 83 84 41 63 848 21 121 77 925 269 53 24 94 356 253 581 37 53 478 31 21 25 130 182 174 25 52 618 540 83 33 21
leaf_count=804 21 97 27 57 1075 560 70 38 193 23 390 23 73 251 167 36 1166 73 59 141 28 21 45 1814 620 25 75 31 2538 21 22 45 23 108 51 53 86 101 147 67 24 30 23 27 52 30 189 118 62 45 24 276 93 65 90 83 84 41 63 848 21 121 77 925 269 53 24 94 356 253 581 37 53 478 31 21 25 130 182 174 25 52 618 540 83 33 21
internal_value=3.34563e-05 -0.00468433 0.00100191 -0.00809779 -4.75794e-05 0.000649876 0.00156909 0.00313709 0.0048746 0.00973191 0.0130731 -0.00220941 0.00233721 1.27831e-05 -0.0096464 -0.0153595 0.00411474 -0.00538678 0.00455221 0.00227523 -0.00354578 0.0128106 0.0163258 0.00314089 -0.0115229 0.00342468 0.00679255 0.00504906 0.00253472 0.0173853 -0.0190949 -0.000659935 -0.00640823 -0.00264314 0.00188456 0.000632204 -0.012711 0.00963656 -0.00140697 -0.00457082 0.00320962 -0.00287822 0.00777859 0.00547565 0.0166579 0.011115 0.000128389 0.00112839 4.42136e-05 0.00375183 0.00159222 0.00237333 0.00229403 0.016035 0.00654137 0.00252479 0.00719117 0.0117677 0.01854 -0.00220922 0.0184097 -0.00240174 -0.0084888 -0.0017832 0.000442014 -0.00445612 -0.00285113 -0.0123052 -0.00395975 -0.00635255 -0.00695007 0.00736374 0.00154877 -0.00197583 0.000111924 0.00865075 -0.00297239 0.00476656 -0.00899346 -0.00100369 0.00981265 -0.0105297 -0.000686884 -0.00886355 -0.00762199 -0.000242722 0.0132746
internal_weight=18809 3203 15606 2108 12278 10859 8908 6296 3328 875 604 2612 5736 1829 545 333 1284 1419 132 271 1951 48 118 2453 1394 3907 816 741 3091 411 273 212 1287 2542 1095 943 139 152 714 424 290 143 511 406 105 82 212 185 248 186 60 314 3045 92 454 257 174 197 104 2434 46 2411 222 2189 1194 995 145 147 1903 862 834 61 2591 1041 685 182 503 151 239 230 56 82 639 774 677 137 54
internal_count=18809 3203 15606 2108 12278 10859 8908 6296 3328 875 604 2612 5736 1829 545 333 1284 1419 132 271 1951 48 118 2453 1394 3907 816 741 3091 411 273 212 1287 2542 1095 943 139 152 714 424 290 143 511 406 105 82 212 185 248 186 60 314 3045 92 454 257 174 197 104 2434 46 2411 222 2189 1194 995 145 147 1903 862 834 61 2591 1041 685 182 503 151 239 230 56 82 639 774 677 137 54
is_linear=0
shrinkage=0.0719


Tree=12
num_leaves=88
num_cat=0
split_feature=22 20 20 0 20 15 17 11 10 11 10 0 10 16 22 22 13 20 0 0 22 7 10 11 1 13 11 10 13 20 16 10 23 17 15 10 9 15 15 17 1 13 9 11 17 12 12 20 2 0 14 2 10 8 16 20 13 10 10 1 20 14 0 10 20 8 0 7 7 19 8 15 0 1 2 13 20 14 7 19 20 0 15 10 17 1 19
split_gain=14.3296 12.9825 10.6166 6.89128 10.7293 6.77089 4.63079 4.5668 6.98357 5.09264 4.3461 4.1945 3.6917 3.61304 3.14284 4.25578 3.00266 2.87283 2.77399 2.74368 2.72934 2.54639 3.48537 3.88496 3.26067 2.47865 2.38905 4.83147 2.73827 2.79445 2.85217 2.09057 3.77325 2.42996 2.08895 2.04416 2.04111 1.96828 1.92534 1.95244 1.92319 1.92267 1.88707 1.88508 1.88339 2.15684 1.8197 3.23369 2.69279 2.61833 2.32245 1.8966 1.79072 1.76886 2.24053 1.76357 1.91061 2.85416 2.79491 2.79029 2.45822 2.54898 1.96933 2.78036 1.75813 4.02139 2.81804 1.8997 1.72969 1.71337 1.69911 2.35154 1.70815 1.8283 2.19515 1.72051 1.68254 1.62863 1.61048 1.85164 1.59231 1.58637 1.55121 2.08574 1.89239 1.53259 1.49476
threshold=11.269999980926515 1.2749999761581423 -0.76499998569488514 4218.7744140625009 0.28499999642372137 -3.2483314275741573 0.62049999833107006 4.5000000000000009 14.500000000000002 5.5000000000000009 18.500000000000004 122.29301834106447 1.5000000000000002 1.8743358850479128 22.144999504089359 47.625000000000007 0.33365696668624883 9.7750000953674334 30.149856567382816 389.23329162597662 5.0850000381469735 58.500000000000007 22.500000000000004 3.5000000000000004 11.150000095367433 0.61949759721755993 4.5000000000000009 15.500000000000002 0.68222492933273327 -0.82499998807907093 1.3312464356422427 10.500000000000002 1.0000000180025095e-35 3.6654999256134038 -4.5533480644226065 2.5000000000000004 5.4900000095367441 8.0614471435546893 0.59150716662406932 1.4754999876022341 17.550000190734867 6.7356235980987558 9.8249998092651385 5.5000000000000009 2.3615000247955327 5.4413228034973153 8.8730301856994647 -13.699999809265135 43.049999237060554 4676.3244628906259 8.4370341300964373 282.55000305175787 18.500000000000004 8.5000000000000018 4.6959893703460702 14.494999885559084 12.016091346740724 20.500000000000004 2.5000000000000004 18.650000572204593 2.6750000715255742 4.6038341522216806 8847.2700195312518 8.5000000000000018 -4.8450000286102286 12.500000000000002 8385.2153320312518 129.50000000000003 128.50000000000003 309.41551208496099 12.500000000000002 -4.9104053974151602 83.402744293212905 2.2500000000000004 167.55000305175784 0.14351332187652591 1.0950000286102297 2.0322945117950444 133.50000000000003 3.3459302186965947 -6.7349998950958243 5135.6992187500009 0.1819347366690636 11.500000000000002 1.172500014305115 7.2500000000000009 72.027778625488295
decision_type=2 2 2 2 2 2 2 2 2 2 2 2 2 2 2 2 2 2 2 2 2 2 2 2 2 2 2 2 2 2 2 2 2 2 2 2 2 2 2 2 2 2 2 2 2 2 2 2 2 2 2 2 2 2 2 2 2 2 2 2 2 2 2 2 2 2 2 2 2 2 2 2 2 2 2 2 2 2 2 2 2 2 2 2 2 2 2
left_child=1 18 25 11 5 81 68 21 9 12 13 17 36 -10 42 19 77 70 26 78 -8 22 24 -24 31 -2 28 35 -1 -30 -31 32 -7 41 -17 -28 -9 -23 -15 -40 -14 44 -13 69 45 -33 64 51 82 50 -50 -48 -29 54 -34 56 60 58 -58 62 -18 -62 63 -60 65 -27 67 -66 -3 -36 72 -72 73 75 -75 -4 -65 -6 79 -16 -20 -5 84 -84 -49 -35 -52
right_child=2 6 3 4 16 7 20 8 10 -11 -12 14 40 38 15 34 55 -19 80 -21 -22 37 23 -25 -26 46 27 52 29 30 -32 33 53 85 43 -37 -38 -39 39 -41 -42 -43 -44 -45 -46 -47 47 48 49 -51 86 -53 -54 -55 -56 -57 57 -59 59 -61 61 -63 -64 76 66 -67 -68 -69 -70 -71 71 -73 -74 74 -76 -77 -78 -79 -80 -81 -82 -83 83 -85 -86 -87 -88
